{"learner":{"attributes":{},"feature_names":["subscriber_count","view_count","video_count","duration_seconds","like_rate","comment_rate","publish_hour","publish_weekday_num","topic","country_region"],"feature_types":["float","float","float","float","float","float","int","int","int","int"],"gradient_booster":{"model":{"cats":{"enc":[],"feature_segments":[],"sorted_idx":[]},"gbtree_model_param":{"num_parallel_tree":"1","num_trees":"300"},"iteration_indptr":[0,1,2,3,4,5,6,7,8,9,10,11,12,13,14,15,16,17,18,19,20,21,22,23,24,25,26,27,28,29,30,31,32,33,34,35,36,37,38,39,40,41,42,43,44,45,46,47,48,49,50,51,52,53,54,55,56,57,58,59,60,61,62,63,64,65,66,67,68,69,70,71,72,73,74,75,76,77,78,79,80,81,82,83,84,85,86,87,88,89,90,91,92,93,94,95,96,97,98,99,100,101,102,103,104,105,106,107,108,109,110,111,112,113,114,115,116,117,118,119,120,121,122,123,124,125,126,127,128,129,130,131,132,133,134,135,136,137,138,139,140,141,142,143,144,145,146,147,148,149,150,151,152,153,154,155,156,157,158,159,160,161,162,163,164,165,166,167,168,169,170,171,172,173,174,175,176,177,178,179,180,181,182,183,184,185,186,187,188,189,190,191,192,193,194,195,196,197,198,199,200,201,202,203,204,205,206,207,208,209,210,211,212,213,214,215,216,217,218,219,220,221,222,223,224,225,226,227,228,229,230,231,232,233,234,235,236,237,238,239,240,241,242,243,244,245,246,247,248,249,250,251,252,253,254,255,256,257,258,259,260,261,262,263,264,265,266,267,268,269,270,271,272,273,274,275,276,277,278,279,280,281,282,283,284,285,286,287,288,289,290,291,292,293,294,295,296,297,298,299,300],"tree_info":[0,0,0,0,0,0,0,0,0,0,0,0,0,0,0,0,0,0,0,0,0,0,0,0,0,0,0,0,0,0,0,0,0,0,0,0,0,0,0,0,0,0,0,0,0,0,0,0,0,0,0,0,0,0,0,0,0,0,0,0,0,0,0,0,0,0,0,0,0,0,0,0,0,0,0,0,0,0,0,0,0,0,0,0,0,0,0,0,0,0,0,0,0,0,0,0,0,0,0,0,0,0,0,0,0,0,0,0,0,0,0,0,0,0,0,0,0,0,0,0,0,0,0,0,0,0,0,0,0,0,0,0,0,0,0,0,0,0,0,0,0,0,0,0,0,0,0,0,0,0,0,0,0,0,0,0,0,0,0,0,0,0,0,0,0,0,0,0,0,0,0,0,0,0,0,0,0,0,0,0,0,0,0,0,0,0,0,0,0,0,0,0,0,0,0,0,0,0,0,0,0,0,0,0,0,0,0,0,0,0,0,0,0,0,0,0,0,0,0,0,0,0,0,0,0,0,0,0,0,0,0,0,0,0,0,0,0,0,0,0,0,0,0,0,0,0,0,0,0,0,0,0,0,0,0,0,0,0,0,0,0,0,0,0,0,0,0,0,0,0,0,0,0,0,0,0,0,0,0,0,0,0,0,0,0,0,0,0,0,0,0,0,0,0,0,0,0,0,0,0],"trees":[{"base_weights":[-5.0981883E-3,-1.8932378E0,8.9459646E-1,-1.9469419E0,-1.234277E0,-1.0031191E0,1.2468535E0,-1.9657133E0,-1.6600279E0,-1.4209424E0,-2.7089533E-1,-1.4891021E0,-2.683978E-1,1.4691061E0,-1.8440152E0,-1.9696724E0,-1.2218255E0,-1.8533713E0,7.015811E-2,-6.725391E-1,-1.5995953E0,-1.2726127E0,8.1151336E-1,-1.3062621E0,-9.984127E-2,5.5167142E-2,-9.95996E-2,1.0847796E0,1.7550257E0,-1.5414857E0,-9.808379E-2,-1.9778129E0,-1.8313333E0,-1.6903104E0,1.8345317E-1,-1.9499813E0,-1.444705E0,-7.6715696E-1,6.6152924E-1,-1.6071221E0,5.8383805E-1,-1.8767387E0,-1.4067872E0,2.73596E-1,-1.5044392E0,-1.595959E-1,1.2830704E0,-1.9175646E0,-8.425445E-1,-1.162253E0,5.171516E-1,1.2145255E0,1.0232985E-2,1.935816E0,1.6338065E0,-1.7448198E0,1.3715969E0,-9.9113576E-2,-9.407099E-2,2.003934E-2,-9.248016E-2,-9.00414E-2,-3.183606E-2,-4.7871646E-2,5.543164E-2,-9.804427E-2,-5.5370934E-2,4.045758E-3,-8.6518526E-2,4.6700384E-2,-5.99724E-2,-2.2673806E-2,5.0374646E-2,-9.076201E-2,-1.8202497E-2,7.47412E-2,-9.43662E-2,-8.104543E-2,-9.790038E-2,-5.8497585E-2,-8.904275E-2,-3.183606E-2,5.2506484E-2,-9.6721314E-2,-5.619362E-2,5.4314613E-2,-2.0488413E-2,6.935712E-2,-6.0000002E-2,-3.929119E-2,-9.659262E-2,-5.102265E-2,4.9127143E-2,1.1183295E-2,-8.783494E-2,8.363218E-2,8.80668E-3,8.673739E-2,5.1981565E-2,3.7269317E-2,-3.2840338E-2,9.728183E-2,-2.1861935E-2,6.518101E-2,8.786874E-2,-9.142068E-2,6.614619E-3,-2.526779E-2,8.687883E-2],"categories":[],"categories_nodes":[],"categories_segments":[],"categories_sizes":[],"default_left":[0,0,0,0,0,0,0,0,0,0,0,0,0,0,0,0,0,0,0,0,0,0,0,0,0,0,0,0,0,0,0,0,0,0,0,0,0,0,0,0,0,0,0,0,0,0,0,0,0,0,0,0,0,0,0,0,0,0,0,0,0,0,0,0,0,0,0,0,0,0,0,0,0,0,0,0,0,0,0,0,0,0,0,0,0,0,0,0,0,0,0,0,0,0,0,0,0,0,0,0,0,0,0,0,0,0,0,0,0],"id":0,"left_children":[1,3,5,7,9,11,13,15,17,19,21,23,25,27,29,31,33,35,37,39,41,43,45,47,-1,49,-1,51,53,55,-1,57,59,61,63,65,67,69,71,73,75,77,79,81,83,85,87,89,91,93,95,97,99,101,103,105,107,-1,-1,-1,-1,-1,-1,-1,-1,-1,-1,-1,-1,-1,-1,-1,-1,-1,-1,-1,-1,-1,-1,-1,-1,-1,-1,-1,-1,-1,-1,-1,-1,-1,-1,-1,-1,-1,-1,-1,-1,-1,-1,-1,-1,-1,-1,-1,-1,-1,-1,-1,-1],"loss_changes":[6.3521633E4,4.2465625E2,1.6930996E4,5.6820312E1,1.6363904E2,1.4155454E3,1.4676762E4,2.8417969E1,2.3145923E2,1.0105078E2,1.6289255E2,2.1894238E2,8.8125055E2,2.1879844E3,4.7998535E1,8.1015625E0,3.852189E1,2.1742188E1,3.5402737E1,1.7580087E2,3.0270996E1,2.8342003E1,3.3341263E1,4.9660718E2,0E0,7.4931793E2,0E0,1.1855918E3,2.4723828E2,2.4290503E2,0E0,4.921875E-1,2.4881836E1,3.933403E0,1.733115E1,2.4245605E0,5.3657135E1,2.291257E1,1.6596243E1,2.1500916E1,1.4747885E2,2.0176392E0,3.0448364E1,8.448362E0,8.939285E0,8.094429E0,1.4280342E1,1.0728027E1,3.260959E2,3.0234412E2,3.802368E2,6.885615E2,4.5025934E2,1.0759961E2,2.770332E2,5.9868286E1,1.9461308E1,0E0,0E0,0E0,0E0,0E0,0E0,0E0,0E0,0E0,0E0,0E0,0E0,0E0,0E0,0E0,0E0,0E0,0E0,0E0,0E0,0E0,0E0,0E0,0E0,0E0,0E0,0E0,0E0,0E0,0E0,0E0,0E0,0E0,0E0,0E0,0E0,0E0,0E0,0E0,0E0,0E0,0E0,0E0,0E0,0E0,0E0,0E0,0E0,0E0,0E0,0E0,0E0],"parents":[2147483647,0,0,1,1,2,2,3,3,4,4,5,5,6,6,7,7,8,8,9,9,10,10,11,11,12,12,13,13,14,14,15,15,16,16,17,17,18,18,19,19,20,20,21,21,22,22,23,23,25,25,27,27,28,28,29,29,31,31,32,32,33,33,34,34,35,35,36,36,37,37,38,38,39,39,40,40,41,41,42,42,43,43,44,44,45,45,46,46,47,47,48,48,49,49,50,50,51,51,52,52,53,53,54,54,55,55,56,56],"right_children":[2,4,6,8,10,12,14,16,18,20,22,24,26,28,30,32,34,36,38,40,42,44,46,48,-1,50,-1,52,54,56,-1,58,60,62,64,66,68,70,72,74,76,78,80,82,84,86,88,90,92,94,96,98,100,102,104,106,108,-1,-1,-1,-1,-1,-1,-1,-1,-1,-1,-1,-1,-1,-1,-1,-1,-1,-1,-1,-1,-1,-1,-1,-1,-1,-1,-1,-1,-1,-1,-1,-1,-1,-1,-1,-1,-1,-1,-1,-1,-1,-1,-1,-1,-1,-1,-1,-1,-1,-1,-1,-1],"split_conditions":[4.7706847E0,4.3694477E0,1.1E1,3.8932147E-3,3.493912E-3,1.3927576E-3,2.1E1,9.855767E0,1.801783E1,4.060443E0,1.6643991E1,8E0,8E0,1.1846782E-3,2.2E1,4.1431346E0,1.1846782E-3,1.4797703E1,5.5555556E-2,1.5E1,1.6314623E1,5E0,7E0,6E0,-9.984127E-2,6E0,-9.95996E-2,2.0992634E1,5E0,4.1780822E-2,-9.808379E-2,8.129175E0,1.0986123E0,4.1743875E0,9E0,4.3307333E0,4.8441873E0,4E0,7E0,1.462282E1,1.9E1,4.7706847E0,3.3886086E-2,4.6051702E0,1.2822028E1,5E0,2.2E1,1E0,9.031333E0,5E0,5E0,5E0,1.2E1,2.3736258E1,3.3148307E-2,8.690138E0,6.0402546E0,-9.9113576E-2,-9.407099E-2,2.003934E-2,-9.248016E-2,-9.00414E-2,-3.183606E-2,-4.7871646E-2,5.543164E-2,-9.804427E-2,-5.5370934E-2,4.045758E-3,-8.6518526E-2,4.6700384E-2,-5.99724E-2,-2.2673806E-2,5.0374646E-2,-9.076201E-2,-1.8202497E-2,7.47412E-2,-9.43662E-2,-8.104543E-2,-9.790038E-2,-5.8497585E-2,-8.904275E-2,-3.183606E-2,5.2506484E-2,-9.6721314E-2,-5.619362E-2,5.4314613E-2,-2.0488413E-2,6.935712E-2,-6.0000002E-2,-3.929119E-2,-9.659262E-2,-5.102265E-2,4.9127143E-2,1.1183295E-2,-8.783494E-2,8.363218E-2,8.80668E-3,8.673739E-2,5.1981565E-2,3.7269317E-2,-3.2840338E-2,9.728183E-2,-2.1861935E-2,6.518101E-2,8.786874E-2,-9.142068E-2,6.614619E-3,-2.526779E-2,8.687883E-2],"split_indices":[3,3,8,5,5,5,8,2,1,2,1,8,8,5,8,3,5,1,4,8,1,9,8,8,0,8,0,1,9,4,0,2,2,3,9,3,2,9,8,1,8,2,4,3,1,8,8,9,3,8,9,9,8,1,4,3,3,0,0,0,0,0,0,0,0,0,0,0,0,0,0,0,0,0,0,0,0,0,0,0,0,0,0,0,0,0,0,0,0,0,0,0,0,0,0,0,0,0,0,0,0,0,0,0,0,0,0,0,0],"split_type":[0,0,0,0,0,0,0,0,0,0,0,0,0,0,0,0,0,0,0,0,0,0,0,0,0,0,0,0,0,0,0,0,0,0,0,0,0,0,0,0,0,0,0,0,0,0,0,0,0,0,0,0,0,0,0,0,0,0,0,0,0,0,0,0,0,0,0,0,0,0,0,0,0,0,0,0,0,0,0,0,0,0,0,0,0,0,0,0,0,0,0,0,0,0,0,0,0,0,0,0,0,0,0,0,0,0,0,0,0],"sum_hessian":[3.7391184E4,1.2066591E4,2.5324594E4,1.1155485E4,9.111049E2,3.9645437E3,2.1360049E4,1.0464961E4,6.905248E2,7.628246E2,1.4828033E2,2.385574E3,1.5789698E3,1.9927652E4,1.432397E3,1.0407919E4,5.704163E1,6.210527E2,6.947209E1,1.4792204E2,6.149026E2,7.6919395E1,7.136093E1,1.756574E3,6.29E2,1.3302198E3,2.4875E2,8.502963E3,1.1424689E4,4.0504428E2,1.0273528E3,9.816958E3,5.90961E2,4.262777E1,1.441386E1,4.9925552E2,1.21797165E2,2.8633303E1,4.083879E1,8.4663864E1,6.3258186E1,2.4869441E2,3.6620813E2,1.0005535E1,6.6913864E1,2.3541628E1,4.7819305E1,7.563583E2,1.00021564E3,3.6551083E2,9.64709E2,7.58677E3,9.161928E2,4.579584E3,6.8451055E3,3.7899158E2,2.6052698E1,9.364258E3,4.5269995E2,4.6277676E0,5.8633325E2,3.7938885E1,4.688884E0,6.438884E0,7.974977E0,4.9156665E2,7.688884E0,1.9322186E1,1.02474976E2,5.5666513E0,2.306665E1,9.59721E0,3.1241583E1,7.212777E1,1.2536093E1,4.6508186E1,1.675E1,6.500554E1,1.8368889E2,2.2676372E2,1.3944441E2,4.688884E0,5.3166513E0,2.95E1,3.741386E1,3.3777676E0,2.016386E1,4.6319305E1,1.5E0,1.0127768E1,7.462305E2,9.11777E2,8.843865E1,1.0990256E2,2.5560828E2,2.1894373E2,7.457652E2,1.9066187E3,5.6801514E3,4.3578784E2,4.8040497E2,4.5608896E3,1.869442E1,1.8672334E3,4.977872E3,3.6285828E2,1.6133303E1,4.188884E0,2.1863815E1],"tree_param":{"num_deleted":"0","num_feature":"10","num_nodes":"109","size_leaf_vector":"1"}},{"base_weights":[4.8072687E-3,-1.8000728E0,8.532844E-1,-1.8399785E0,-8.469986E-1,-9.405153E-1,1.1840973E0,-1.8679808E0,-1.5293787E0,-1.1460454E0,-9.0822555E-2,-1.3971392E0,-1.5570383E-1,1.3937427E0,-1.7583177E0,-1.8850127E0,-1.6849473E0,-1.6399349E0,-8.0458385E-1,-1.5229769E0,-4.398554E-1,-1.4167016E0,4.9975702E-1,-1.8382945E0,-1.194454E0,1.6797385E-1,-9.48457E-2,1.035381E0,1.671843E0,-1.4753392E0,-9.329479E-2,-1.8868976E0,-1.4584135E0,-1.8163877E0,2.2728512E-2,-1.0084035E0,-1.6968043E0,-1.5081925E0,3.6613545E-1,-1.7654582E0,-1.2254531E0,9.218584E-1,-9.435668E-2,-5.4507602E-2,-1.5709296E0,-6.103472E-2,1.0712496E0,-1.2197233E0,-9.221009E-2,-7.6652247E-1,-9.5103025E-2,-1.0378807E0,5.923581E-1,1.1600782E0,4.715474E-2,-6.556544E-1,1.6819261E0,-1.6515648E0,1.4166154E-1,-7.719675E-2,-9.441509E-2,-8.9020796E-2,-1.8920215E-2,-9.28886E-2,-6.822886E-2,-2.9939895E-2,2.4529539E-2,-7.1369044E-2,-1.55364545E-2,-8.674755E-2,-6.612977E-2,-1.6856782E-2,-7.958784E-2,2.5266677E-2,-7.292327E-2,-9.122385E-2,-5.807392E-2,-7.7892594E-2,-3.9063115E-2,7.2781615E-2,3.113597E-3,5.7472475E-2,-3.9028063E-2,-9.144621E-2,-5.5447306E-2,4.7708493E-2,-2.7422253E-2,8.833385E-3,7.030556E-2,2.2957064E-2,-8.6042844E-2,-4.3570258E-2,9.955464E-2,1.4307176E-2,-8.121313E-2,8.271314E-2,1.337332E-2,8.2010224E-2,4.989406E-2,3.6374953E-2,-3.0397942E-2,7.6085776E-3,-9.2184715E-2,9.248882E-2,7.8439094E-2,-8.830966E-2,1.9587398E-2,-6.1706573E-2,6.7388E-2],"categories":[],"categories_nodes":[],"categories_segments":[],"categories_sizes":[],"default_left":[0,0,0,0,0,0,0,0,0,0,0,0,0,0,0,0,0,0,0,0,0,0,0,0,0,0,0,0,0,0,0,0,0,0,0,0,0,0,0,0,0,0,0,0,0,0,0,0,0,0,0,0,0,0,0,0,0,0,0,0,0,0,0,0,0,0,0,0,0,0,0,0,0,0,0,0,0,0,0,0,0,0,0,0,0,0,0,0,0,0,0,0,0,0,0,0,0,0,0,0,0,0,0,0,0,0,0,0,0],"id":1,"left_children":[1,3,5,7,9,11,13,15,17,19,21,23,25,27,29,31,33,35,37,39,41,43,45,47,49,51,-1,53,55,57,-1,59,61,63,65,67,69,71,73,75,77,79,-1,81,83,85,87,89,-1,91,-1,93,95,97,99,101,103,105,107,-1,-1,-1,-1,-1,-1,-1,-1,-1,-1,-1,-1,-1,-1,-1,-1,-1,-1,-1,-1,-1,-1,-1,-1,-1,-1,-1,-1,-1,-1,-1,-1,-1,-1,-1,-1,-1,-1,-1,-1,-1,-1,-1,-1,-1,-1,-1,-1,-1,-1],"loss_changes":[5.7588207E4,4.5579688E2,1.5180488E4,9.751953E1,1.09596436E2,1.4273118E3,1.3325082E4,2.9816406E1,7.560254E1,9.1842865E1,1.0921089E2,2.2296484E2,8.267236E2,2.0075703E3,4.0989258E1,5.0273438E0,2.043623E2,2.8168213E1,1.0682179E2,1.415509E1,2.4287471E2,8.940155E0,3.102614E1,6.40625E-1,5.21875E2,6.3384326E2,0E0,1.0858574E3,2.674707E2,1.143786E2,0E0,1.71875E0,1.5654617E1,1.3269043E1,1.9499004E1,2.036679E1,8.579346E0,7.367981E0,1.32415695E1,2.2424622E0,1.4262207E1,2.914244E1,0E0,5.622263E0,2.5673141E0,2.511843E1,1.4100536E1,9.569007E0,0E0,3.1370618E2,0E0,2.5083371E2,3.1554956E2,6.0771484E2,4.409728E2,4.795843E1,2.1173633E2,8.531201E1,6.851153E1,0E0,0E0,0E0,0E0,0E0,0E0,0E0,0E0,0E0,0E0,0E0,0E0,0E0,0E0,0E0,0E0,0E0,0E0,0E0,0E0,0E0,0E0,0E0,0E0,0E0,0E0,0E0,0E0,0E0,0E0,0E0,0E0,0E0,0E0,0E0,0E0,0E0,0E0,0E0,0E0,0E0,0E0,0E0,0E0,0E0,0E0,0E0,0E0,0E0,0E0],"parents":[2147483647,0,0,1,1,2,2,3,3,4,4,5,5,6,6,7,7,8,8,9,9,10,10,11,11,12,12,13,13,14,14,15,15,16,16,17,17,18,18,19,19,20,20,21,21,22,22,23,23,24,24,25,25,27,27,28,28,29,29,31,31,32,32,33,33,34,34,35,35,36,36,37,37,38,38,39,39,40,40,41,41,43,43,44,44,45,45,46,46,47,47,49,49,51,51,52,52,53,53,54,54,55,55,56,56,57,57,58,58],"right_children":[2,4,6,8,10,12,14,16,18,20,22,24,26,28,30,32,34,36,38,40,42,44,46,48,50,52,-1,54,56,58,-1,60,62,64,66,68,70,72,74,76,78,80,-1,82,84,86,88,90,-1,92,-1,94,96,98,100,102,104,106,108,-1,-1,-1,-1,-1,-1,-1,-1,-1,-1,-1,-1,-1,-1,-1,-1,-1,-1,-1,-1,-1,-1,-1,-1,-1,-1,-1,-1,-1,-1,-1,-1,-1,-1,-1,-1,-1,-1,-1,-1,-1,-1,-1,-1,-1,-1,-1,-1,-1,-1],"split_conditions":[4.7706847E0,4.553877E0,1.1E1,4.1743875E0,2.014419E-3,1.6100669E-3,2.1E1,2.6507622E-3,3.493912E-3,1.5E1,1.4858019E1,6E0,8E0,1.2300123E-3,2.2E1,9.855767E0,1.8800407E1,5E0,1.653484E1,3.5498667E-4,1.9E1,5E0,4.484305E-3,1E0,8E0,6E0,-9.48457E-2,2.0942793E1,1.0872333E1,2.491067E-3,-9.329479E-2,1.0986123E0,8.3963055E-4,1.67691E1,2.0200848E1,5.896734E-4,8.203578E0,2.1972246E0,2.2E1,8.038835E0,7E0,4.744932E0,-9.435668E-2,9E0,1.2895385E1,5.9788857E0,7E0,5.8493247E0,-9.221009E-2,7E0,-9.5103025E-2,5E0,5E0,5E0,1.2E1,1.7391304E-2,5E0,8.690138E0,6.543912E0,-7.719675E-2,-9.441509E-2,-8.9020796E-2,-1.8920215E-2,-9.28886E-2,-6.822886E-2,-2.9939895E-2,2.4529539E-2,-7.1369044E-2,-1.55364545E-2,-8.674755E-2,-6.612977E-2,-1.6856782E-2,-7.958784E-2,2.5266677E-2,-7.292327E-2,-9.122385E-2,-5.807392E-2,-7.7892594E-2,-3.9063115E-2,7.2781615E-2,3.113597E-3,5.7472475E-2,-3.9028063E-2,-9.144621E-2,-5.5447306E-2,4.7708493E-2,-2.7422253E-2,8.833385E-3,7.030556E-2,2.2957064E-2,-8.6042844E-2,-4.3570258E-2,9.955464E-2,1.4307176E-2,-8.121313E-2,8.271314E-2,1.337332E-2,8.2010224E-2,4.989406E-2,3.6374953E-2,-3.0397942E-2,7.6085776E-3,-9.2184715E-2,9.248882E-2,7.8439094E-2,-8.830966E-2,1.9587398E-2,-6.1706573E-2,6.7388E-2],"split_indices":[3,3,8,3,5,5,8,5,5,8,1,8,8,5,8,2,1,9,1,5,8,9,5,9,8,8,0,1,1,5,0,2,5,1,1,5,2,2,6,2,8,2,0,6,1,2,8,3,0,8,0,8,9,9,8,5,9,3,3,0,0,0,0,0,0,0,0,0,0,0,0,0,0,0,0,0,0,0,0,0,0,0,0,0,0,0,0,0,0,0,0,0,0,0,0,0,0,0,0,0,0,0,0,0,0,0,0,0,0],"split_type":[0,0,0,0,0,0,0,0,0,0,0,0,0,0,0,0,0,0,0,0,0,0,0,0,0,0,0,0,0,0,0,0,0,0,0,0,0,0,0,0,0,0,0,0,0,0,0,0,0,0,0,0,0,0,0,0,0,0,0,0,0,0,0,0,0,0,0,0,0,0,0,0,0,0,0,0,0,0,0,0,0,0,0,0,0,0,0,0,0,0,0,0,0,0,0,0,0,0,0,0,0,0,0,0,0,0,0,0,0],"sum_hessian":[3.7602953E4,1.2024124E4,2.5578828E4,1.1540007E4,4.8411694E2,3.9824646E3,2.1596363E4,1.0581051E4,9.589562E2,3.4655023E2,1.3756673E2,2.5171438E3,1.4653208E3,2.0160467E4,1.4358956E3,9.671762E3,9.092883E2,8.309457E2,1.2801048E2,2.25195E2,1.21355225E2,4.196176E1,9.5604965E1,7.89873E2,1.727271E3,1.236389E3,2.2893178E2,8.811127E3,1.1349341E4,3.995679E2,1.0363278E3,9.62581E3,4.5952133E1,8.44243E2,6.5045334E1,7.019269E1,7.60753E2,7.9776245E1,4.8234226E1,1.2135615E2,1.0383887E2,6.271295E1,5.864227E1,4.405382E0,3.7556377E1,4.8705067E1,4.6899895E1,9.434471E0,7.804385E2,1.077641E3,6.4963E2,3.2148083E2,9.1490814E2,7.8237314E3,9.8739514E2,4.8678455E1,1.1300663E4,3.6028192E2,3.928598E1,4.374198E1,9.582068E3,3.489866E1,1.1053477E1,7.705511E2,7.369191E1,2.781498E1,3.723036E1,4.3202316E1,2.699037E1,6.870766E2,7.36764E1,5.6488194E0,7.4127426E1,4.548708E1,2.7471476E0,1.0871238E2,1.2643762E1,5.7959335E1,4.587953E1,3.8260853E1,2.4452099E1,1.4378926E0,2.9674897E0,2.2199965E1,1.5356415E1,1.5488064E1,3.3217003E1,1.3190117E1,3.3709778E1,2.188039E0,7.246432E0,1.0388148E3,3.8826107E1,9.883282E1,2.2264804E2,2.1338152E2,7.015267E2,1.9733175E3,5.8504136E3,4.8431595E2,5.030792E2,2.9494875E1,1.918358E1,4.544106E3,6.7565566E3,3.412724E2,1.9009514E1,1.8341099E1,2.094488E1],"tree_param":{"num_deleted":"0","num_feature":"10","num_nodes":"109","size_leaf_vector":"1"}},{"base_weights":[-4.4655934E-4,-1.7197926E0,8.143153E-1,-1.7717302E0,-1.0896592E0,-9.0213686E-1,1.1330167E0,-1.7902704E0,-1.4929701E0,-1.2763702E0,-1.5842484E-1,-1.3152429E0,-1.4591089E-1,1.3340628E0,-1.6721423E0,-1.793642E0,-1.167824E0,-1.7630202E0,-2.2818011E-1,-2.969181E-1,-1.3822896E0,-1.0208594E0,7.669367E-1,-1.1397297E0,-9.100621E-2,1.6119812E-1,-9.07458E-2,9.950846E-1,1.6042225E0,-1.3854494E0,-8.910235E-2,-1.8013303E0,-1.6587169E0,-1.666141E0,1.1580558E-1,-9.0637445E-2,-1.4957236E0,-7.247783E-1,3.7428907E-1,-8.776273E-1,6.885241E-1,-1.2810024E0,-9.142611E-2,5.5587876E-1,-1.3373724E0,-1.7619053E-1,1.2577469E0,-1.7384423E0,-7.051074E-1,-9.920408E-1,5.680293E-1,1.1151865E0,1.8625123E-2,1.7668976E0,1.4944819E0,-1.5990196E0,2.1590552E-1,-9.029154E-2,-8.5304156E-2,4.838182E-2,-8.386367E-2,-4.448038E-2,-8.959416E-2,-7.9111926E-2,3.9273415E-2,-1.8142773E-2,-8.10314E-2,-1.7436642E-2,-7.599358E-2,-4.1408204E-2,2.6575793E-2,-7.8810036E-2,1.4314624E-4,6.841826E-2,-6.29214E-2,-7.4275196E-2,1.0682635E-2,-6.720669E-2,5.1463883E-2,-7.4823454E-2,-1.124389E-2,-2.046839E-2,5.48215E-2,1.2986085E-2,6.9602646E-2,-7.745748E-2,-8.968624E-2,4.1471627E-2,-4.5962118E-2,9.926706E-3,-7.686139E-2,7.696987E-2,1.2962721E-2,7.881188E-2,4.767237E-2,3.2519992E-2,-4.0853262E-2,8.87407E-2,-1.19661195E-2,5.5424757E-2,7.968252E-2,-8.599676E-2,1.9839969E-2,-6.684596E-2,6.320887E-2],"categories":[],"categories_nodes":[],"categories_segments":[],"categories_sizes":[],"default_left":[0,0,0,0,0,0,0,0,0,0,0,0,0,0,0,0,0,0,0,0,0,0,0,0,0,0,0,0,0,0,0,0,0,0,0,0,0,0,0,0,0,0,0,0,0,0,0,0,0,0,0,0,0,0,0,0,0,0,0,0,0,0,0,0,0,0,0,0,0,0,0,0,0,0,0,0,0,0,0,0,0,0,0,0,0,0,0,0,0,0,0,0,0,0,0,0,0,0,0,0,0,0,0,0,0],"id":2,"left_children":[1,3,5,7,9,11,13,15,17,19,21,23,25,27,29,31,33,35,37,39,41,43,45,47,-1,49,-1,51,53,55,-1,57,59,61,63,-1,65,67,69,71,73,75,-1,77,79,81,83,85,87,89,91,93,95,97,99,101,103,-1,-1,-1,-1,-1,-1,-1,-1,-1,-1,-1,-1,-1,-1,-1,-1,-1,-1,-1,-1,-1,-1,-1,-1,-1,-1,-1,-1,-1,-1,-1,-1,-1,-1,-1,-1,-1,-1,-1,-1,-1,-1,-1,-1,-1,-1,-1,-1],"loss_changes":[5.2208477E4,3.9023047E2,1.3833523E4,5.453125E1,1.588971E2,1.2370264E3,1.202991E4,1.9679688E1,2.3741699E2,7.8649536E1,1.2365651E2,2.2487256E2,7.180139E2,1.8209258E3,4.248535E1,7.7109375E0,3.7774353E1,4.91333E0,3.726759E1,4.3891388E1,2.8727783E1,4.072843E1,3.486648E1,4.9399072E2,0E0,5.5585626E2,0E0,1.0354043E3,1.9503711E2,1.3710016E2,0E0,1.09375E0,2.9341309E1,2.5447845E0,2.0988892E1,0E0,1.2953064E1,1.9838696E1,1.1128019E1,2.9550327E1,3.9587852E1,1.7258691E2,0E0,1.4066809E1,1.1525597E1,8.311054E0,6.253227E0,5.590576E0,3.6364825E2,2.008783E2,2.622071E2,5.847676E2,5.1161914E2,7.118359E1,2.5158887E2,8.585388E1,7.9717964E1,0E0,0E0,0E0,0E0,0E0,0E0,0E0,0E0,0E0,0E0,0E0,0E0,0E0,0E0,0E0,0E0,0E0,0E0,0E0,0E0,0E0,0E0,0E0,0E0,0E0,0E0,0E0,0E0,0E0,0E0,0E0,0E0,0E0,0E0,0E0,0E0,0E0,0E0,0E0,0E0,0E0,0E0,0E0,0E0,0E0,0E0,0E0,0E0],"parents":[2147483647,0,0,1,1,2,2,3,3,4,4,5,5,6,6,7,7,8,8,9,9,10,10,11,11,12,12,13,13,14,14,15,15,16,16,17,17,18,18,19,19,20,20,21,21,22,22,23,23,25,25,27,27,28,28,29,29,31,31,32,32,33,33,34,34,36,36,37,37,38,38,39,39,40,40,41,41,43,43,44,44,45,45,46,46,47,47,48,48,49,49,50,50,51,51,52,52,53,53,54,54,55,55,56,56],"right_children":[2,4,6,8,10,12,14,16,18,20,22,24,26,28,30,32,34,36,38,40,42,44,46,48,-1,50,-1,52,54,56,-1,58,60,62,64,-1,66,68,70,72,74,76,-1,78,80,82,84,86,88,90,92,94,96,98,100,102,104,-1,-1,-1,-1,-1,-1,-1,-1,-1,-1,-1,-1,-1,-1,-1,-1,-1,-1,-1,-1,-1,-1,-1,-1,-1,-1,-1,-1,-1,-1,-1,-1,-1,-1,-1,-1,-1,-1,-1,-1,-1,-1,-1,-1,-1,-1,-1,-1],"split_conditions":[4.7706847E0,4.3694477E0,1.1E1,3.8932147E-3,3.493912E-3,1.7035775E-3,2.1E1,9.855767E0,1.0764287E1,5E0,1.1057235E1,8E0,8E0,1.2739196E-3,2.2E1,4.1431346E0,9.7276265E-4,8.689632E0,1.2751303E1,1.2E1,1.9E1,5E0,7E0,6E0,-9.100621E-2,6E0,-9.07458E-2,1.4782495E1,5E0,2.3505709E-3,-8.910235E-2,8.129175E0,1.0986123E0,1E0,3E0,-9.0637445E-2,4.2904596E0,1.2E1,6E0,8.889382E-4,1.9E1,1.5E1,-9.142611E-2,3E0,1.3E1,1.3E1,1.1703554E1,5E0,5E0,5E0,5E0,5E0,1.2E1,1.731806E1,6E0,8.690138E0,6.340359E0,-9.029154E-2,-8.5304156E-2,4.838182E-2,-8.386367E-2,-4.448038E-2,-8.959416E-2,-7.9111926E-2,3.9273415E-2,-1.8142773E-2,-8.10314E-2,-1.7436642E-2,-7.599358E-2,-4.1408204E-2,2.6575793E-2,-7.8810036E-2,1.4314624E-4,6.841826E-2,-6.29214E-2,-7.4275196E-2,1.0682635E-2,-6.720669E-2,5.1463883E-2,-7.4823454E-2,-1.124389E-2,-2.046839E-2,5.48215E-2,1.2986085E-2,6.9602646E-2,-7.745748E-2,-8.968624E-2,4.1471627E-2,-4.5962118E-2,9.926706E-3,-7.686139E-2,7.696987E-2,1.2962721E-2,7.881188E-2,4.767237E-2,3.2519992E-2,-4.0853262E-2,8.87407E-2,-1.19661195E-2,5.5424757E-2,7.968252E-2,-8.599676E-2,1.9839969E-2,-6.684596E-2,6.320887E-2],"split_indices":[3,3,8,5,5,5,8,2,0,9,0,8,8,5,8,3,5,0,0,8,8,9,8,8,0,8,0,0,9,5,0,2,2,7,7,0,2,8,8,5,8,8,0,7,9,9,0,8,9,8,9,9,8,0,9,3,3,0,0,0,0,0,0,0,0,0,0,0,0,0,0,0,0,0,0,0,0,0,0,0,0,0,0,0,0,0,0,0,0,0,0,0,0,0,0,0,0,0,0,0,0,0,0,0,0],"split_type":[0,0,0,0,0,0,0,0,0,0,0,0,0,0,0,0,0,0,0,0,0,0,0,0,0,0,0,0,0,0,0,0,0,0,0,0,0,0,0,0,0,0,0,0,0,0,0,0,0,0,0,0,0,0,0,0,0,0,0,0,0,0,0,0,0,0,0,0,0,0,0,0,0,0,0,0,0,0,0,0,0,0,0,0,0,0,0,0,0,0,0,0,0,0,0,0,0,0,0,0,0,0,0,0,0],"sum_hessian":[3.7266934E4,1.1981642E4,2.5285293E4,1.1067604E4,9.1403815E2,3.9593445E3,2.132595E4,1.0372323E4,6.952805E2,7.610735E2,1.5296463E2,2.5600942E3,1.3992502E3,1.9900223E4,1.4257269E3,1.031457E4,5.775267E1,5.726236E2,1.2265694E2,7.464302E1,6.864305E2,7.912093E1,7.38437E1,1.9021146E3,6.579796E2,1.182555E3,2.1669527E2,8.828058E3,1.1072164E4,3.9886633E2,1.0268606E3,9.746823E3,5.6774677E2,4.138762E1,1.6365053E1,4.7792667E2,9.469691E1,6.712484E1,5.55321E1,4.703517E1,2.7607851E1,5.626004E2,1.2383007E2,1.310098E1,6.601995E1,2.5494736E1,4.8348957E1,7.987706E2,1.103344E3,3.080086E2,8.745464E2,7.8610303E3,9.6702765E2,4.454258E3,6.6179067E3,3.5193127E2,4.693506E1,9.289928E3,4.568961E2,3.6244211E0,5.641223E2,6.8931494E0,3.449447E1,4.2431307E0,1.21219225E1,9.791765E0,8.490514E1,4.6548145E1,2.0576693E1,5.92801E0,4.960409E1,2.5786356E1,2.1248814E1,2.0682919E1,6.924931E0,4.9489423E2,6.77062E1,2.2462413E0,1.0854738E1,5.7457825E1,8.562129E0,2.2120087E1,3.37465E0,6.082657E0,4.22663E1,1.8710982E2,6.116608E2,1.347587E2,9.685853E2,9.69424E1,2.1106621E2,2.0998225E2,6.6456415E2,2.0392452E3,5.821785E3,5.5082806E2,4.1619955E2,4.4368657E3,1.7392162E1,1.3552261E3,5.2626807E3,3.31958E2,1.997326E1,1.8804398E1,2.813066E1],"tree_param":{"num_deleted":"0","num_feature":"10","num_nodes":"105","size_leaf_vector":"1"}},{"base_weights":[1.273168E-3,-1.3330948E0,4.6196026E-1,-1.5763254E0,-5.9550345E-1,7.6204354E-1,-1.6881073E0,-1.1525885E0,-1.6144284E0,-1.6126215E0,-1.7951763E-1,1.9939646E-1,1.2863778E0,-1.3696356E0,-1.7126144E0,-8.7679935E-1,-8.72137E-2,-1.6522738E0,-1.3540281E0,-5.448895E-2,-1.6557784E0,1.00363754E-1,-8.79534E-2,1.0007933E-1,9.232681E-2,-7.202799E-1,1.4347372E0,-1.4771384E0,7.482731E-2,-8.6767465E-2,-1.5974865E0,-1.6626827E0,-1.8910019E-1,-1.6902859E0,-1.5261658E0,-1.4612164E0,-2.623457E-1,-1.1967676E0,1.3560911E0,-8.749271E-2,-1.5042653E0,-1.0289714E0,4.7559124E-1,9.429871E-1,-1.0774189E-1,-1.345936E0,1.9684847E-1,1.6678667E0,1.2838302E0,-1.5708036E0,-6.0466903E-1,-7.044586E-1,-8.5644394E-2,-8.524634E-2,-3.15276E-2,-2.7473152E-2,3.519154E-2,-8.726325E-2,-8.298495E-2,-8.532756E-2,-7.097077E-2,-7.547683E-2,-4.6753842E-2,-6.0938474E-2,1.51551515E-2,-8.001188E-2,-1.3717885E-2,-6.832582E-3,8.576601E-2,-4.995748E-2,-7.8844026E-2,-3.811876E-3,-7.535896E-2,7.3391624E-2,9.712833E-3,5.0935663E-2,-6.0839046E-2,-3.3937264E-2,4.9551306E-3,-7.251219E-2,8.564275E-2,-3.7111886E-2,3.7520073E-2,8.3932064E-2,2.0531984E-3,2.915658E-2,6.883823E-2,-8.375338E-2,-6.461755E-2,1.6958367E-2,-8.087407E-2,-5.972308E-2,3.821749E-2],"categories":[],"categories_nodes":[],"categories_segments":[],"categories_sizes":[],"default_left":[0,0,0,0,0,0,0,0,0,0,0,0,0,0,0,0,0,0,0,0,0,0,0,0,0,0,0,0,0,0,0,0,0,0,0,0,0,0,0,0,0,0,0,0,0,0,0,0,0,0,0,0,0,0,0,0,0,0,0,0,0,0,0,0,0,0,0,0,0,0,0,0,0,0,0,0,0,0,0,0,0,0,0,0,0,0,0,0,0,0,0,0,0],"id":3,"left_children":[1,3,5,7,9,11,13,15,17,19,21,23,25,27,29,31,-1,33,35,37,39,41,-1,43,-1,45,47,49,-1,-1,51,53,55,57,59,61,63,65,67,-1,69,71,73,75,77,79,81,83,85,87,89,91,-1,-1,-1,-1,-1,-1,-1,-1,-1,-1,-1,-1,-1,-1,-1,-1,-1,-1,-1,-1,-1,-1,-1,-1,-1,-1,-1,-1,-1,-1,-1,-1,-1,-1,-1,-1,-1,-1,-1,-1,-1],"loss_changes":[2.2727197E4,1.7013242E3,1.773321E4,1.1333594E2,9.95957E2,7.114796E3,2.3927734E1,9.5095215E1,6.2248047E1,4.5860474E1,7.3945917E2,1.9031656E3,3.7174922E3,7.7863525E1,5.3984375E0,2.1905048E2,0E0,2.4788086E1,9.742847E1,3.2963795E1,6.845093E0,6.028587E2,0E0,1.9225223E3,0E0,4.937882E2,4.0682227E2,1.8430542E1,0E0,0E0,5.3144775E1,7.178589E0,7.040478E1,4.463867E0,2.3236816E1,1.7933838E1,4.1445774E1,3.758543E0,5.1528435E0,0E0,8.02771E0,1.6154596E2,2.9775623E2,3.5625818E2,1.0399749E3,1.6565454E2,1.8232681E2,7.993945E1,4.5900488E2,4.03479E0,2.4081379E1,4.5572865E1,0E0,0E0,0E0,0E0,0E0,0E0,0E0,0E0,0E0,0E0,0E0,0E0,0E0,0E0,0E0,0E0,0E0,0E0,0E0,0E0,0E0,0E0,0E0,0E0,0E0,0E0,0E0,0E0,0E0,0E0,0E0,0E0,0E0,0E0,0E0,0E0,0E0,0E0,0E0,0E0,0E0],"parents":[2147483647,0,0,1,1,2,2,3,3,4,4,5,5,6,6,7,7,8,8,9,9,10,10,11,11,12,12,13,13,14,14,15,15,17,17,18,18,19,19,20,20,21,21,23,23,25,25,26,26,27,27,30,30,31,31,32,32,33,33,34,34,35,35,36,36,37,37,38,38,40,40,41,41,42,42,43,43,44,44,45,45,46,46,47,47,48,48,49,49,50,50,51,51],"right_children":[2,4,6,8,10,12,14,16,18,20,22,24,26,28,30,32,-1,34,36,38,40,42,-1,44,-1,46,48,50,-1,-1,52,54,56,58,60,62,64,66,68,-1,70,72,74,76,78,80,82,84,86,88,90,92,-1,-1,-1,-1,-1,-1,-1,-1,-1,-1,-1,-1,-1,-1,-1,-1,-1,-1,-1,-1,-1,-1,-1,-1,-1,-1,-1,-1,-1,-1,-1,-1,-1,-1,-1,-1,-1,-1,-1,-1,-1],"split_conditions":[1.1E1,1.3927576E-3,2.1E1,5E0,9.472781E0,1.1235955E-3,5E0,8E0,7.63868E0,1E0,8E0,1.6E1,8.019941E0,8.915835E0,2.2146674E-3,6E0,-8.72137E-2,4.3577753E-4,1.3E1,1.5878903E-2,7.340187E0,6E0,-8.79534E-2,5E0,9.232681E-2,3.3148307E-2,5E0,7.7630215E0,7.482731E-2,-8.6767465E-2,2.2E1,1.1846782E-3,6.997111E-4,6E0,6E0,9.855767E0,8.203578E0,5.8363616E-3,1.5E1,-8.749271E-2,3.8066626E0,5E0,5E0,1.5386208E1,8E0,1.6E1,1.5E1,1.6924572E1,1.03449955E1,9.036482E-4,1.4782495E1,4.1780822E-2,-8.5644394E-2,-8.524634E-2,-3.15276E-2,-2.7473152E-2,3.519154E-2,-8.726325E-2,-8.298495E-2,-8.532756E-2,-7.097077E-2,-7.547683E-2,-4.6753842E-2,-6.0938474E-2,1.51551515E-2,-8.001188E-2,-1.3717885E-2,-6.832582E-3,8.576601E-2,-4.995748E-2,-7.8844026E-2,-3.811876E-3,-7.535896E-2,7.3391624E-2,9.712833E-3,5.0935663E-2,-6.0839046E-2,-3.3937264E-2,4.9551306E-3,-7.251219E-2,8.564275E-2,-3.7111886E-2,3.7520073E-2,8.3932064E-2,2.0531984E-3,2.915658E-2,6.883823E-2,-8.375338E-2,-6.461755E-2,1.6958367E-2,-8.087407E-2,-5.972308E-2,3.821749E-2],"split_indices":[8,5,8,9,0,5,9,8,2,9,8,8,0,2,5,8,0,5,9,5,0,8,0,9,0,4,9,2,0,0,8,5,5,8,8,2,2,5,6,0,2,8,9,0,9,8,8,0,0,5,0,4,0,0,0,0,0,0,0,0,0,0,0,0,0,0,0,0,0,0,0,0,0,0,0,0,0,0,0,0,0,0,0,0,0,0,0,0,0,0,0,0,0],"split_type":[0,0,0,0,0,0,0,0,0,0,0,0,0,0,0,0,0,0,0,0,0,0,0,0,0,0,0,0,0,0,0,0,0,0,0,0,0,0,0,0,0,0,0,0,0,0,0,0,0,0,0,0,0,0,0,0,0,0,0,0,0,0,0,0,0,0,0,0,0,0,0,0,0,0,0,0,0,0,0,0,0,0,0,0,0,0,0,0,0,0,0,0,0],"sum_hessian":[3.6969254E4,9.487389E3,2.7481865E4,7.13379E3,2.3535989E3,2.4116578E4,3.3652866E3,5.911336E2,6.5426562E3,6.823421E2,1.6712568E3,1.1633938E4,1.2482641E4,2.4452847E2,3.1207583E3,4.0489212E2,1.862415E2,5.70777E3,8.348865E2,1.8450972E1,6.638911E2,1.420495E3,2.507618E2,1.0973342E4,6.605958E2,8.590859E2,1.1623555E4,2.3615553E2,8.372939E0,2.5943652E3,5.263928E2,1.8829552E2,2.165966E2,4.37625E3,1.3315198E3,7.5993286E2,7.49536E1,1.0278824E1,8.172148E0,4.0307123E2,2.608199E2,3.538271E2,1.066668E3,2.169692E3,8.80365E3,5.1041687E2,3.4866904E2,4.563522E3,7.060033E3,2.1253783E2,2.3617704E1,6.10517E1,4.6534116E2,1.8026558E2,8.029927E0,1.5459206E2,6.2004536E1,1.5443254E3,2.8319246E3,4.8945645E2,8.420633E2,6.942999E2,6.563293E1,2.7419577E1,4.7534023E1,6.639712E0,3.639112E0,1.7053444E0,6.466803E0,3.463764E1,2.2618224E2,1.1863326E2,2.3519382E2,2.3469673E2,8.319712E2,2.0967053E3,7.29867E1,2.340451E3,6.463199E3,4.9409366E2,1.6323202E1,1.2917932E2,2.1948972E2,4.533464E3,3.0057758E1,8.27582E2,6.232451E3,1.5098666E2,6.155116E1,1.2569425E1,1.1048281E1,4.591948E1,1.5132222E1],"tree_param":{"num_deleted":"0","num_feature":"10","num_nodes":"93","size_leaf_vector":"1"}},{"base_weights":[4.5250563E-5,-1.6327311E0,7.529243E-1,-1.6769868E0,-1.2500174E0,-8.3033264E-1,1.046931E0,-1.6812257E0,-8.645583E-1,-1.5280846E0,-1.059625E0,-5.89681E-1,-8.459049E-2,1.2323198E0,-1.5375202E0,-1.7026222E0,-1.637667E0,-9.54766E-2,-1.2237511E0,4.1947266E-1,-1.5672674E0,3.2039878E-1,-1.1355758E0,-1.4095275E0,-1.4172445E-1,8.715853E-1,1.4460467E0,-1.2415893E0,-8.262595E-2,-8.515047E-2,-1.0132066E0,-1.648329E0,-7.7516335E-1,1.2592589E0,-9.4524664E-1,-1.3421336E0,3.287023E-2,-7.0591934E-2,8.1614725E-2,-8.358818E-2,-1.2366551E0,-3.527767E-1,1.1026436E0,-1.0123981E0,-8.416533E-2,-1.5539206E0,-5.997979E-1,-6.079358E-1,6.121974E-1,9.469618E-1,-7.641763E-1,-3.3729768E-1,1.4579127E0,-1.4247434E0,1.2582173E0,1.8023895E-2,-7.0072904E-2,-4.5901917E-2,-8.28323E-2,-5.730446E-3,-7.269179E-2,3.255738E-3,7.627697E-2,-6.775289E-2,5.1262774E-2,-7.379227E-2,2.6021237E-2,-1.8244646E-2,-8.412378E-2,6.3055515E-2,-4.781721E-2,7.450617E-2,-5.834016E-2,-5.5465072E-2,-1.0974039E-3,-6.412107E-2,-8.179265E-2,-5.8636606E-2,5.48844E-2,-3.8572326E-2,9.701916E-2,-6.0174525E-2,3.9748576E-2,4.335163E-2,8.837881E-2,-7.5273044E-2,-2.1776965E-2,4.358826E-2,-5.8846205E-2,6.4616874E-2,7.745478E-2,-7.588092E-2,2.3499852E-2,-6.659606E-2,8.086205E-2],"categories":[],"categories_nodes":[],"categories_segments":[],"categories_sizes":[],"default_left":[0,0,0,0,0,0,0,0,0,0,0,0,0,0,0,0,0,0,0,0,0,0,0,0,0,0,0,0,0,0,0,0,0,0,0,0,0,0,0,0,0,0,0,0,0,0,0,0,0,0,0,0,0,0,0,0,0,0,0,0,0,0,0,0,0,0,0,0,0,0,0,0,0,0,0,0,0,0,0,0,0,0,0,0,0,0,0,0,0,0,0,0,0,0,0],"id":4,"left_children":[1,3,5,7,9,11,13,15,17,19,21,23,-1,25,27,29,31,33,35,37,39,41,43,45,47,49,51,53,-1,-1,55,57,59,61,63,65,-1,-1,-1,-1,67,69,71,73,-1,75,77,79,81,83,85,87,89,91,93,-1,-1,-1,-1,-1,-1,-1,-1,-1,-1,-1,-1,-1,-1,-1,-1,-1,-1,-1,-1,-1,-1,-1,-1,-1,-1,-1,-1,-1,-1,-1,-1,-1,-1,-1,-1,-1,-1,-1,-1],"loss_changes":[4.5199773E4,1.9444336E2,1.1715055E4,3.4353516E1,6.2264404E1,8.1620435E2,1.017118E4,6.8535156E0,1.5361198E1,3.790918E1,7.577936E1,1.1319216E3,0E0,1.5256406E3,4.6308594E1,1.19140625E-1,3.0294922E1,2.2973463E1,9.36871E0,2.5439857E1,1.4471924E1,2.056443E1,4.4322937E1,1.26403564E2,7.014344E2,9.0952E2,2.636289E2,1.8570953E2,0E0,0E0,3.8902235E0,1.9072266E1,1.9474024E1,2.3562756E0,1.1240626E1,9.778572E0,0E0,0E0,0E0,0E0,4.556436E1,2.2002861E1,1.7535187E1,5.3671753E1,0E0,1.8448486E1,1.6316519E2,5.1523663E2,2.5403955E2,4.606548E2,7.8576645E1,8.528868E1,1.8449414E2,6.665839E1,2.8148266E1,0E0,0E0,0E0,0E0,0E0,0E0,0E0,0E0,0E0,0E0,0E0,0E0,0E0,0E0,0E0,0E0,0E0,0E0,0E0,0E0,0E0,0E0,0E0,0E0,0E0,0E0,0E0,0E0,0E0,0E0,0E0,0E0,0E0,0E0,0E0,0E0,0E0,0E0,0E0,0E0],"parents":[2147483647,0,0,1,1,2,2,3,3,4,4,5,5,6,6,7,7,8,8,9,9,10,10,11,11,13,13,14,14,15,15,16,16,17,17,18,18,19,19,20,20,21,21,22,22,23,23,24,24,25,25,26,26,27,27,30,30,31,31,32,32,33,33,34,34,35,35,40,40,41,41,42,42,43,43,45,45,46,46,47,47,48,48,49,49,50,50,51,51,52,52,53,53,54,54],"right_children":[2,4,6,8,10,12,14,16,18,20,22,24,-1,26,28,30,32,34,36,38,40,42,44,46,48,50,52,54,-1,-1,56,58,60,62,64,66,-1,-1,-1,-1,68,70,72,74,-1,76,78,80,82,84,86,88,90,92,94,-1,-1,-1,-1,-1,-1,-1,-1,-1,-1,-1,-1,-1,-1,-1,-1,-1,-1,-1,-1,-1,-1,-1,-1,-1,-1,-1,-1,-1,-1,-1,-1,-1,-1,-1,-1,-1,-1,-1,-1],"split_conditions":[4.7184987E0,4.204693E0,1.1E1,9.855767E0,1.4682982E1,8E0,2.1E1,1.0934909E1,4E0,1.0986123E0,4.0253515E0,6E0,-8.459049E-2,1.9607844E-2,2.2E1,1.974684E1,1.0185028E-1,1.3769467E1,4.1431346E0,1.2E1,1.5E1,1.5E1,1.9E1,5.7142857E-2,3.6134653E-2,2.2142717E1,1.0268651E1,4.1780822E-2,-8.262595E-2,-8.515047E-2,5.0591268E-3,1.5321958E1,1.2E1,3E0,4.1743875E0,1.7635418E1,3.287023E-2,-7.0591934E-2,8.1614725E-2,-8.358818E-2,1.9E1,1.5149046E1,1.9E1,1.5E1,-8.416533E-2,5E0,1.7802038E1,7E0,9.472781E0,1.6E1,4.5045046E-3,1.9459101E0,3.949303E-2,8.8705225E0,5.7203116E0,1.8023895E-2,-7.0072904E-2,-4.5901917E-2,-8.28323E-2,-5.730446E-3,-7.269179E-2,3.255738E-3,7.627697E-2,-6.775289E-2,5.1262774E-2,-7.379227E-2,2.6021237E-2,-1.8244646E-2,-8.412378E-2,6.3055515E-2,-4.781721E-2,7.450617E-2,-5.834016E-2,-5.5465072E-2,-1.0974039E-3,-6.412107E-2,-8.179265E-2,-5.8636606E-2,5.48844E-2,-3.8572326E-2,9.701916E-2,-6.0174525E-2,3.9748576E-2,4.335163E-2,8.837881E-2,-7.5273044E-2,-2.1776965E-2,4.358826E-2,-5.8846205E-2,6.4616874E-2,7.745478E-2,-7.588092E-2,2.3499852E-2,-6.659606E-2,8.086205E-2],"split_indices":[3,3,8,2,1,8,8,0,6,2,2,8,0,4,8,1,4,0,3,8,8,8,8,4,4,1,1,4,0,0,4,1,6,7,3,0,0,0,0,0,8,1,8,8,0,8,1,8,0,8,4,2,4,3,3,0,0,0,0,0,0,0,0,0,0,0,0,0,0,0,0,0,0,0,0,0,0,0,0,0,0,0,0,0,0,0,0,0,0,0,0,0,0,0,0],"split_type":[0,0,0,0,0,0,0,0,0,0,0,0,0,0,0,0,0,0,0,0,0,0,0,0,0,0,0,0,0,0,0,0,0,0,0,0,0,0,0,0,0,0,0,0,0,0,0,0,0,0,0,0,0,0,0,0,0,0,0,0,0,0,0,0,0,0,0,0,0,0,0,0,0,0,0,0,0,0,0,0,0,0,0,0,0,0,0,0,0,0,0,0,0,0,0],"sum_hessian":[3.6767215E4,1.1602845E4,2.5164373E4,1.0397168E4,1.2056764E3,3.94082E3,2.1223553E4,1.0342139E4,5.5029377E1,4.871579E2,7.185185E2,3.081652E3,8.59168E2,1.9803521E4,1.4200306E3,6.909852E3,3.4322866E3,1.7921902E1,3.710748E1,9.416369E0,4.7774152E2,3.7313526E1,6.8120496E2,1.0880907E3,1.9935614E3,7.369736E3,1.2433786E4,4.006969E2,1.0193337E3,6.904505E3,5.34691E0,3.389475E3,4.2811386E1,6.7225986E0,1.1199303E1,3.5180103E1,1.9273752E0,3.6862252E0,5.7301435E0,3.5992413E2,1.1781739E2,2.0349985E1,1.6963541E1,5.584623E2,1.2274269E2,9.2264343E2,1.6544725E2,1.2319437E3,7.616176E2,7.0454976E3,3.242379E2,8.200424E1,1.2351782E4,3.7374374E2,2.695315E1,1.1939815E0,4.1529284E0,3.942065E1,3.3500544E3,2.2287626E1,2.0523762E1,1.4526539E0,5.2699447E0,9.52971E0,1.6695931E0,3.301743E1,2.1626735E0,4.0480278E1,7.733711E1,5.242519E0,1.5107466E1,1.4782937E1,2.1806045E0,5.0858362E2,4.987864E1,2.1774734E2,7.0489606E2,1.2392822E2,4.151903E1,1.1583185E3,7.3625244E1,6.91448E1,6.9247284E2,6.422037E3,6.234606E2,9.849298E1,2.2574495E2,3.3592594E1,4.8411644E1,4.3918955E3,7.959886E3,3.5646964E2,1.7274122E1,2.9513202E0,2.400183E1],"tree_param":{"num_deleted":"0","num_feature":"10","num_nodes":"95","size_leaf_vector":"1"}},{"base_weights":[8.984071E-4,-1.559128E0,7.302178E-1,-1.6072874E0,-9.7737813E-1,3.592296E-1,1.1650784E0,-1.6243483E0,-1.3487163E0,-1.1422664E0,-1.3211924E-1,5.5156845E-1,-5.0587434E-1,1.5374545E0,9.512427E-1,-1.6270556E0,-1.0931151E0,-1.553626E0,9.294348E-2,-5.34282E-1,-1.2897161E0,-1.0912981E0,7.352036E-1,1.223887E0,3.3436042E-1,-6.45935E-1,6.4082605E-1,8.161715E-2,1.5491943E0,-1.6606858E-2,1.0861093E0,-1.634892E0,-1.4913095E0,-1.4358943E0,-2.2081672E-1,-1.6051494E0,-8.119044E-1,-8.6289155E-1,6.3059974E-1,-1.4017861E0,3.7000233E-1,-1.5943251E0,-1.0829412E0,-1.2950841E0,3.8772988E-1,8.061272E-1,-6.446075E-2,-3.010762E-1,1.2510258E0,-4.0747494E-1,6.085702E-1,-1.0056486E0,-2.7191502E-1,-5.694446E-1,1.0795014E0,6.6370255E-1,-1.4515712E0,1.5578843E0,-3.7699246E-1,-9.1938406E-1,2.468079E-1,8.065874E-1,1.3514024E0,-8.2070656E-2,-7.8855574E-2,-4.708242E-2,-7.690519E-2,6.0504572E-3,-7.499554E-2,-7.612496E-2,2.821596E-2,-8.112056E-2,-5.754132E-2,-8.032109E-3,-7.579604E-2,5.3527404E-2,-5.704251E-2,1.18941665E-2,5.785511E-2,-6.5089115E-3,-7.5991355E-2,3.7867587E-2,-1.3421451E-2,-8.0221534E-2,2.265132E-3,-4.160687E-2,-7.4442774E-2,1.3214831E-2,-6.815504E-2,4.500887E-2,-5.7860415E-2,2.5400555E-2,6.1440296E-2,-8.42466E-2,2.8416848E-2,5.447824E-2,7.37132E-2,-3.3454146E-2,1.6395327E-2,2.3151932E-2,5.5036146E-2,-3.2992724E-2,-7.153028E-2,7.047991E-2,-2.1601683E-2,-5.4576505E-2,4.905879E-2,-4.486782E-2,6.3562416E-2,5.1956333E-2,-5.184524E-2,6.660229E-3,-8.438036E-2,6.771944E-2,7.950355E-2,-7.9418495E-2,3.8281202E-2,-6.2681705E-2,1.4569943E-2,4.351891E-2,-1.7151978E-2,2.1243695E-2,5.8093645E-2,5.957173E-2,7.454347E-2],"categories":[],"categories_nodes":[],"categories_segments":[],"categories_sizes":[],"default_left":[0,0,0,0,0,0,0,0,0,0,0,0,0,0,0,0,0,0,0,0,0,0,0,0,0,0,0,0,0,0,0,0,0,0,0,0,0,0,0,0,0,0,0,0,0,0,0,0,0,0,0,0,0,0,0,0,0,0,0,0,0,0,0,0,0,0,0,0,0,0,0,0,0,0,0,0,0,0,0,0,0,0,0,0,0,0,0,0,0,0,0,0,0,0,0,0,0,0,0,0,0,0,0,0,0,0,0,0,0,0,0,0,0,0,0,0,0,0,0,0,0,0,0,0,0],"id":5,"left_children":[1,3,5,7,9,11,13,15,17,19,21,23,25,27,29,31,33,35,37,39,41,43,45,47,49,51,53,55,57,59,61,63,65,67,69,71,73,75,77,79,81,83,85,87,89,91,-1,93,95,97,99,101,103,105,107,109,111,113,115,117,119,121,123,-1,-1,-1,-1,-1,-1,-1,-1,-1,-1,-1,-1,-1,-1,-1,-1,-1,-1,-1,-1,-1,-1,-1,-1,-1,-1,-1,-1,-1,-1,-1,-1,-1,-1,-1,-1,-1,-1,-1,-1,-1,-1,-1,-1,-1,-1,-1,-1,-1,-1,-1,-1,-1,-1,-1,-1,-1,-1,-1,-1,-1,-1],"loss_changes":[4.1290363E4,3.223379E2,3.9891855E3,4.4904297E1,1.2339819E2,2.2210222E3,9.05042E2,1.2619141E1,1.9709302E2,6.579602E1,1.22120636E2,1.5941638E3,3.903852E2,7.0822266E1,9.443096E2,8.152344E0,1.5770706E1,2.1006592E1,4.3667156E1,1.1541458E2,3.5823486E1,2.149514E1,1.2120583E1,1.1070801E2,1.6793322E3,2.909123E2,1.411983E2,3.154069E1,6.951367E1,2.1086568E2,4.697578E2,9.5703125E-1,1.2822632E1,4.0131226E0,1.7579224E1,2.4058838E0,1.8069826E1,1.7682571E1,1.0948254E1,1.1053848E1,1.8132868E1,4.0317993E0,3.523059E1,6.877495E0,8.328609E0,8.849258E0,0E0,5.8011032E1,9.281152E1,4.288986E2,4.311714E2,1.6112207E2,2.8665753E2,5.8629585E1,7.4941345E1,1.73708E1,3.8689823E0,2.4698242E1,2.792911E1,8.142117E1,2.5279326E2,4.1914856E2,7.087012E1,0E0,0E0,0E0,0E0,0E0,0E0,0E0,0E0,0E0,0E0,0E0,0E0,0E0,0E0,0E0,0E0,0E0,0E0,0E0,0E0,0E0,0E0,0E0,0E0,0E0,0E0,0E0,0E0,0E0,0E0,0E0,0E0,0E0,0E0,0E0,0E0,0E0,0E0,0E0,0E0,0E0,0E0,0E0,0E0,0E0,0E0,0E0,0E0,0E0,0E0,0E0,0E0,0E0,0E0,0E0,0E0,0E0,0E0,0E0,0E0,0E0,0E0],"parents":[2147483647,0,0,1,1,2,2,3,3,4,4,5,5,6,6,7,7,8,8,9,9,10,10,11,11,12,12,13,13,14,14,15,15,16,16,17,17,18,18,19,19,20,20,21,21,22,22,23,23,24,24,25,25,26,26,27,27,28,28,29,29,30,30,31,31,32,32,33,33,34,34,35,35,36,36,37,37,38,38,39,39,40,40,41,41,42,42,43,43,44,44,45,45,47,47,48,48,49,49,50,50,51,51,52,52,53,53,54,54,55,55,56,56,57,57,58,58,59,59,60,60,61,61,62,62],"right_children":[2,4,6,8,10,12,14,16,18,20,22,24,26,28,30,32,34,36,38,40,42,44,46,48,50,52,54,56,58,60,62,64,66,68,70,72,74,76,78,80,82,84,86,88,90,92,-1,94,96,98,100,102,104,106,108,110,112,114,116,118,120,122,124,-1,-1,-1,-1,-1,-1,-1,-1,-1,-1,-1,-1,-1,-1,-1,-1,-1,-1,-1,-1,-1,-1,-1,-1,-1,-1,-1,-1,-1,-1,-1,-1,-1,-1,-1,-1,-1,-1,-1,-1,-1,-1,-1,-1,-1,-1,-1,-1,-1,-1,-1,-1,-1,-1,-1,-1,-1,-1,-1,-1,-1,-1],"split_conditions":[4.7706847E0,4.3694477E0,1.7035775E-3,3.8932147E-3,3.4168565E-3,1.4518608E1,5E0,9.855767E0,1.7631535E1,4.0253515E0,1.6314623E1,5E0,3.7798133E-2,1.1595086E1,1.5211796E1,4.1431346E0,8.277351E-4,1.0764287E1,4.608618E-2,1.0968112E1,1.6274773E1,1.0604132E1,1.6195057E1,9.807993E-4,8E0,8E0,6.802395E0,1.3738151E-2,2.3736258E1,7.4091363E0,5.243238E-2,1.4272936E1,5E0,3E0,3E0,4.248495E0,6.2690964E0,3E0,2.0200848E1,1.3862944E0,2.367688E-2,1.2404927E1,3.3886086E-2,3E0,9.5470205E-2,1.3457407E1,-6.446075E-2,8.019941E0,6.6306834E0,8.3296585E0,8.390041E0,1.5818341E1,9E0,1E1,6.371612E0,4.0253515E0,1.7917595E0,1.5674797E1,4.2309213E-2,1.2673667E1,4.356709E0,1E1,1E1,-8.2070656E-2,-7.8855574E-2,-4.708242E-2,-7.690519E-2,6.0504572E-3,-7.499554E-2,-7.612496E-2,2.821596E-2,-8.112056E-2,-5.754132E-2,-8.032109E-3,-7.579604E-2,5.3527404E-2,-5.704251E-2,1.18941665E-2,5.785511E-2,-6.5089115E-3,-7.5991355E-2,3.7867587E-2,-1.3421451E-2,-8.0221534E-2,2.265132E-3,-4.160687E-2,-7.4442774E-2,1.3214831E-2,-6.815504E-2,4.500887E-2,-5.7860415E-2,2.5400555E-2,6.1440296E-2,-8.42466E-2,2.8416848E-2,5.447824E-2,7.37132E-2,-3.3454146E-2,1.6395327E-2,2.3151932E-2,5.5036146E-2,-3.2992724E-2,-7.153028E-2,7.047991E-2,-2.1601683E-2,-5.4576505E-2,4.905879E-2,-4.486782E-2,6.3562416E-2,5.1956333E-2,-5.184524E-2,6.660229E-3,-8.438036E-2,6.771944E-2,7.950355E-2,-7.9418495E-2,3.8281202E-2,-6.2681705E-2,1.4569943E-2,4.351891E-2,-1.7151978E-2,2.1243695E-2,5.8093645E-2,5.957173E-2,7.454347E-2],"split_indices":[3,3,5,5,5,0,9,2,1,2,1,9,4,1,1,3,5,0,4,1,1,0,0,4,9,9,3,5,1,0,4,0,9,9,7,3,2,9,1,2,4,0,4,9,4,0,0,0,2,3,3,0,9,9,2,2,2,1,4,1,2,9,9,0,0,0,0,0,0,0,0,0,0,0,0,0,0,0,0,0,0,0,0,0,0,0,0,0,0,0,0,0,0,0,0,0,0,0,0,0,0,0,0,0,0,0,0,0,0,0,0,0,0,0,0,0,0,0,0,0,0,0,0,0,0],"split_type":[0,0,0,0,0,0,0,0,0,0,0,0,0,0,0,0,0,0,0,0,0,0,0,0,0,0,0,0,0,0,0,0,0,0,0,0,0,0,0,0,0,0,0,0,0,0,0,0,0,0,0,0,0,0,0,0,0,0,0,0,0,0,0,0,0,0,0,0,0,0,0,0,0,0,0,0,0,0,0,0,0,0,0,0,0,0,0,0,0,0,0,0,0,0,0,0,0,0,0,0,0,0,0,0,0,0,0,0,0,0,0,0,0,0,0,0,0,0,0,0,0,0,0,0,0],"sum_hessian":[3.6289004E4,1.1560265E4,2.4728738E4,1.0674803E4,8.854618E2,1.3345366E4,1.1383371E4,1.0009106E4,6.6569617E2,7.4063214E2,1.4482968E2,1.0918267E4,2.4270996E3,4.1501167E3,7.233255E3,9.956303E3,5.2804237E1,5.8278467E2,8.291151E1,1.4546303E2,5.951691E2,6.865042E1,7.617925E1,2.664933E3,8.253334E3,2.1633052E3,2.6379446E2,3.326231E1,4.1168545E3,8.847631E2,6.3484917E3,9.40247E3,5.5383307E2,3.7444073E1,1.5360164E1,5.438428E2,3.894193E1,2.9630339E1,5.3281166E1,7.396054E1,7.150248E1,2.3793965E2,3.5722946E2,6.0446278E1,8.204143E0,7.418215E1,1.9971017E0,4.6420345E1,2.6185127E3,2.227275E3,6.026059E3,1.101882E3,1.0614232E3,7.009894E1,1.9369553E2,2.452017E1,8.74214E0,4.098555E3,1.8299362E1,1.9928426E2,6.854789E2,3.093313E3,3.2551787E3,8.424302E3,9.781678E2,4.5107513E1,5.0872556E2,1.4436545E0,3.600042E1,5.425701E0,9.934463E0,5.2145917E2,2.2383572E1,2.0866863E1,1.8075064E1,3.3659327E0,2.6264404E1,3.1349499E1,2.1931665E1,6.4610524E0,6.749949E1,4.4386196E1,2.7116285E1,2.3650345E2,1.4361925E0,2.2268698E2,1.3454248E2,2.4057307E0,5.804055E1,6.4740677E0,1.7300751E0,4.4792095E1,2.9390059E1,1.7549145E1,2.88712E1,1.5229169E3,1.0955958E3,1.642909E3,5.8436584E2,4.6522964E3,1.3737622E3,6.08935E2,4.9294693E2,9.160581E1,9.698174E2,5.266349E1,1.7435446E1,1.6801085E1,1.7689444E2,2.0404634E1,4.1155357E0,1.189739E0,7.5524006E0,5.6561475E2,3.5329402E3,8.693056E0,9.606307E0,1.5614368E2,4.3140575E1,3.3298297E2,3.524959E2,1.4922535E3,1.6010596E3,1.5206006E3,1.734578E3],"tree_param":{"num_deleted":"0","num_feature":"10","num_nodes":"125","size_leaf_vector":"1"}},{"base_weights":[-3.1665475E-3,-1.5084809E0,6.935217E-1,-1.5568378E0,-9.911659E-1,1.3120044E0,4.4758484E-1,-1.5675589E0,-1.3559625E0,3.5174925E-2,-1.1140978E0,1.3353851E0,-1.6028431E-1,-2.1104524E-1,6.8460554E-1,-1.5712165E0,-1.1967965E0,-6.4014786E-1,-1.4280735E0,-1.3513201E0,2.2762421E-1,-1.2872918E0,-8.218161E-1,1.1571443E0,1.4594572E0,-1.3169711E0,1.1022027E0,-5.1276946E-1,6.101217E-1,4.2407316E-1,1.0247942E0,-1.5808194E0,-1.4835365E0,-4.067739E-1,-1.4304363E0,-1.066604E0,2.438603E-1,-1.4820994E0,-9.7213495E-1,-7.6192245E-2,-4.8075116E-1,-5.955831E-2,9.8355174E-1,-1.3047209E0,6.5470904E-2,8.284575E-1,-9.224587E-1,1.2461499E0,2.9608145E-1,9.975231E-1,1.5086687E0,-1.5442094E0,-3.244351E-1,-1.1352293E-1,7.880949E-2,-4.4923842E-1,-1.4778665E0,-1.5638982E-1,8.865102E-1,-6.6734034E-1,4.7999203E-1,-4.0522358E-1,1.1144242E0,-6.533893E-2,-7.909676E-2,-7.5580716E-2,-5.069074E-2,4.761971E-2,-6.032623E-2,-7.28777E-2,-6.8540396E-3,2.188699E-2,-6.284436E-2,-1.40498085E-2,4.8663322E-2,-1.3006366E-2,-7.4352525E-2,3.175589E-2,-5.4776467E-2,-4.776678E-2,1.3274305E-2,6.809334E-2,-1.5544781E-2,-1.8390756E-2,5.6087103E-2,-3.926144E-2,-6.9948256E-2,-5.2002456E-2,5.1882472E-2,-5.5245906E-2,-3.507403E-2,4.8962243E-2,7.501517E-2,-3.3849217E-2,4.315501E-2,6.7989014E-2,1.9441118E-2,5.162729E-2,7.6020084E-2,-6.891689E-3,-8.295037E-2,-5.0694186E-2,4.474613E-2,-3.7089225E-2,6.1498117E-2,-2.8286764E-2,3.0817501E-3,-4.607463E-2,-8.22775E-2,-2.5445104E-2,4.23831E-2,2.3906833E-2,5.770427E-2,-8.509507E-2,5.1627995E-4,2.8023591E-2,-1.9275365E-2,6.344928E-3,-5.8071267E-2,3.994497E-2,6.364246E-2],"categories":[],"categories_nodes":[],"categories_segments":[],"categories_sizes":[],"default_left":[0,0,0,0,0,0,0,0,0,0,0,0,0,0,0,0,0,0,0,0,0,0,0,0,0,0,0,0,0,0,0,0,0,0,0,0,0,0,0,0,0,0,0,0,0,0,0,0,0,0,0,0,0,0,0,0,0,0,0,0,0,0,0,0,0,0,0,0,0,0,0,0,0,0,0,0,0,0,0,0,0,0,0,0,0,0,0,0,0,0,0,0,0,0,0,0,0,0,0,0,0,0,0,0,0,0,0,0,0,0,0,0,0,0,0,0,0,0,0,0,0],"id":6,"left_children":[1,3,5,7,9,11,13,15,17,19,21,23,25,27,29,31,33,35,37,39,41,43,45,47,49,51,53,55,57,59,61,63,65,67,69,71,73,75,77,-1,79,81,83,85,-1,87,89,91,93,95,97,99,101,103,-1,105,107,109,111,113,115,117,119,-1,-1,-1,-1,-1,-1,-1,-1,-1,-1,-1,-1,-1,-1,-1,-1,-1,-1,-1,-1,-1,-1,-1,-1,-1,-1,-1,-1,-1,-1,-1,-1,-1,-1,-1,-1,-1,-1,-1,-1,-1,-1,-1,-1,-1,-1,-1,-1,-1,-1,-1,-1,-1,-1,-1,-1,-1,-1],"loss_changes":[3.7627766E4,2.8243164E2,3.7302266E3,2.0228516E1,1.2282349E2,2.4041016E2,2.7399556E3,1.1472656E1,2.6614807E1,2.8341827E1,4.2937256E1,1.5021289E2,1.6204283E2,1.1512551E3,1.143458E3,5.861328E0,1.7948456E1,1.9344137E1,1.0473938E1,1.2124081E0,2.0272657E1,2.632727E1,5.493216E1,2.160503E2,9.04707E1,1.2545723E1,3.0791779E1,2.0765674E2,2.6467288E2,4.464895E2,7.178042E2,6.152344E-1,1.1372559E1,2.7574615E1,2.5036469E0,1.0378487E1,6.891726E0,2.2180176E0,1.1435078E1,0E0,1.529555E0,2.4867453E1,5.210596E0,2.5380249E1,0E0,8.61272E0,1.163797E1,1.721206E2,1.4727187E2,8.601666E1,1.8844727E1,7.3277206E0,1.1031224E1,1.4278207E1,0E0,1.8984131E2,1.8020538E1,1.1785755E2,9.974652E1,2.5011105E2,4.846582E2,1.3327284E2,2.6226123E2,0E0,0E0,0E0,0E0,0E0,0E0,0E0,0E0,0E0,0E0,0E0,0E0,0E0,0E0,0E0,0E0,0E0,0E0,0E0,0E0,0E0,0E0,0E0,0E0,0E0,0E0,0E0,0E0,0E0,0E0,0E0,0E0,0E0,0E0,0E0,0E0,0E0,0E0,0E0,0E0,0E0,0E0,0E0,0E0,0E0,0E0,0E0,0E0,0E0,0E0,0E0,0E0,0E0,0E0,0E0,0E0,0E0,0E0],"parents":[2147483647,0,0,1,1,2,2,3,3,4,4,5,5,6,6,7,7,8,8,9,9,10,10,11,11,12,12,13,13,14,14,15,15,16,16,17,17,18,18,19,19,20,20,21,21,22,22,23,23,24,24,25,25,26,26,27,27,28,28,29,29,30,30,31,31,32,32,33,33,34,34,35,35,36,36,37,37,38,38,40,40,41,41,42,42,43,43,45,45,46,46,47,47,48,48,49,49,50,50,51,51,52,52,53,53,55,55,56,56,57,57,58,58,59,59,60,60,61,61,62,62],"right_children":[2,4,6,8,10,12,14,16,18,20,22,24,26,28,30,32,34,36,38,40,42,44,46,48,50,52,54,56,58,60,62,64,66,68,70,72,74,76,78,-1,80,82,84,86,-1,88,90,92,94,96,98,100,102,104,-1,106,108,110,112,114,116,118,120,-1,-1,-1,-1,-1,-1,-1,-1,-1,-1,-1,-1,-1,-1,-1,-1,-1,-1,-1,-1,-1,-1,-1,-1,-1,-1,-1,-1,-1,-1,-1,-1,-1,-1,-1,-1,-1,-1,-1,-1,-1,-1,-1,-1,-1,-1,-1,-1,-1,-1,-1,-1,-1,-1,-1,-1,-1,-1],"split_conditions":[4.7706847E0,4.3307333E0,5E0,4.1431346E0,5E0,1.628361E1,6E0,9.288782E0,5E0,5.2029137E-3,1.1870607E1,3E0,3.6134653E-2,3.949303E-2,3.2771535E-2,5.174798E-2,5E0,1.816638E1,1.4392124E1,2E1,1.8E1,1.9596884E1,4.7706847E0,1.4272936E1,1.0204081E-2,2.2774328E-2,3E0,8.98369E0,1.6686077E1,9.807993E-4,1.2895385E1,1.0986123E0,1.555773E1,2.0394852E1,1.7635418E1,3.0445225E0,4.0882055E-2,1.0986123E0,1.4473031E1,-7.6192245E-2,4.6634393E0,2.1972246E0,1.0268651E1,3.295837E0,6.5470904E-2,2E0,7.6103578E0,6.5778613E0,2E-2,6.196444E0,1.2151078E1,5.0998664E0,3E0,1.0185028E-1,7.880949E-2,8.3296585E0,5.0689044E0,8.3296585E0,5.6338027E-2,1.3172676E1,1.555773E1,3.637586E0,1E1,-6.533893E-2,-7.909676E-2,-7.5580716E-2,-5.069074E-2,4.761971E-2,-6.032623E-2,-7.28777E-2,-6.8540396E-3,2.188699E-2,-6.284436E-2,-1.40498085E-2,4.8663322E-2,-1.3006366E-2,-7.4352525E-2,3.175589E-2,-5.4776467E-2,-4.776678E-2,1.3274305E-2,6.809334E-2,-1.5544781E-2,-1.8390756E-2,5.6087103E-2,-3.926144E-2,-6.9948256E-2,-5.2002456E-2,5.1882472E-2,-5.5245906E-2,-3.507403E-2,4.8962243E-2,7.501517E-2,-3.3849217E-2,4.315501E-2,6.7989014E-2,1.9441118E-2,5.162729E-2,7.6020084E-2,-6.891689E-3,-8.295037E-2,-5.0694186E-2,4.474613E-2,-3.7089225E-2,6.1498117E-2,-2.8286764E-2,3.0817501E-3,-4.607463E-2,-8.22775E-2,-2.5445104E-2,4.23831E-2,2.3906833E-2,5.770427E-2,-8.509507E-2,5.1627995E-4,2.8023591E-2,-1.9275365E-2,6.344928E-3,-5.8071267E-2,3.994497E-2,6.364246E-2],"split_indices":[3,3,9,3,9,0,9,2,9,4,0,9,4,4,4,4,6,1,0,6,6,1,2,0,4,4,9,2,1,4,1,2,0,1,0,2,4,2,0,0,3,2,1,2,0,7,2,2,4,3,1,3,9,4,0,3,3,3,4,1,0,2,9,0,0,0,0,0,0,0,0,0,0,0,0,0,0,0,0,0,0,0,0,0,0,0,0,0,0,0,0,0,0,0,0,0,0,0,0,0,0,0,0,0,0,0,0,0,0,0,0,0,0,0,0,0,0,0,0,0,0],"split_type":[0,0,0,0,0,0,0,0,0,0,0,0,0,0,0,0,0,0,0,0,0,0,0,0,0,0,0,0,0,0,0,0,0,0,0,0,0,0,0,0,0,0,0,0,0,0,0,0,0,0,0,0,0,0,0,0,0,0,0,0,0,0,0,0,0,0,0,0,0,0,0,0,0,0,0,0,0,0,0,0,0,0,0,0,0,0,0,0,0,0,0,0,0,0,0,0,0,0,0,0,0,0,0,0,0,0,0,0,0,0,0,0,0,0,0,0,0,0,0,0,0],"sum_hessian":[3.5877207E4,1.1350766E4,2.452644E4,1.03786E4,9.7216516E2,6.976807E3,1.7549633E4,9.846278E3,5.323216E2,1.0406403E2,8.6810114E2,6.867836E3,1.0897128E2,4.64428E3,1.2905354E4,9.746887E3,9.939139E1,4.9622025E1,4.826996E2,1.1949868E1,9.211417E1,5.4296094E2,3.251402E2,2.8228643E3,4.0449714E3,5.6845997E1,5.2125286E1,3.3966223E3,1.2476572E3,7.309581E3,5.5957725E3,8.769413E3,9.7747406E2,2.331061E1,7.608077E1,3.3334507E1,1.628752E1,4.2954993E2,5.3149666E1,9.347109E0,2.6027596E0,6.742146E1,2.4692705E1,5.398351E2,3.1258316E0,1.827338E1,3.0686682E2,2.558004E3,2.648604E2,3.9148483E2,3.6534866E3,4.5803574E1,1.1042421E1,1.4835175E1,3.7290108E1,3.1882122E3,2.0841032E2,3.3076807E2,9.1688916E2,3.557226E2,6.9538584E3,3.2983548E2,5.265937E3,4.031317E1,8.7291E3,9.2024756E2,5.722652E1,8.564487E0,1.4746121E1,7.4394005E1,1.6867698E0,3.5969787E0,2.9737526E1,9.829382E0,6.4581375E0,1.9494427E0,4.276005E2,3.4938653E0,4.96558E1,1.4196815E0,1.1830782E0,9.466378E0,5.7955082E1,2.1366544E0,2.2556051E1,8.432908E1,4.5550604E2,1.4399521E0,1.6833427E1,1.6589166E2,1.4097516E2,1.2500691E3,1.3079348E3,9.744325E1,1.6741714E2,2.446512E2,1.4683362E2,9.0006676E1,3.56348E3,3.6227238E0,4.218085E1,7.161615E0,3.8808062E0,1.0413375E1,4.4217997E0,2.5961033E3,5.921089E2,4.9769733E1,1.5864058E2,2.4518079E2,8.558729E1,3.6405502E2,5.528341E2,1.4018987E2,2.1553275E2,6.3625767E3,5.9128156E2,1.9409055E2,1.3574493E2,1.7622385E3,3.5036985E3],"tree_param":{"num_deleted":"0","num_feature":"10","num_nodes":"121","size_leaf_vector":"1"}},{"base_weights":[2.6521846E-3,-1.4698541E0,6.6625E-1,-1.5087998E0,-9.9811786E-1,-8.0610317E-1,9.466043E-1,-1.5284806E0,-1.2992852E0,-1.1593243E0,-1.7339647E-1,-1.156326E0,-1.864214E-1,1.1240692E0,-1.5018198E0,-1.5313066E0,-9.9603444E-1,-1.4542068E0,6.0489204E-2,-6.880874E-1,-1.2699227E0,-9.852543E-1,6.191397E-1,-9.913491E-1,-8.1930354E-2,8.175738E-2,-8.287218E-2,8.7417656E-1,1.3773329E0,-1.237095E0,-1.6034331E0,-1.5365876E0,-1.4199384E0,-1.313927E0,3.2654598E-1,-1.5070677E0,-9.16327E-1,-3.5908452E-1,6.593535E-1,-1.2779363E0,2.949894E-1,-1.3458886E0,-7.543409E-1,1.7903624E-1,-1.1712124E0,-8.6396765E-3,9.091236E-1,-1.0697485E0,9.374567E-2,-8.900868E-1,4.2897916E-1,9.700317E-1,1.0042572E-1,-1.0523871E0,1.3865697E0,-1.3927363E0,4.0129177E-2,-1.5491714E0,-8.281354E-2,-7.714627E-2,-7.407951E-2,9.644166E-3,-7.151931E-2,-7.1069196E-2,-1.7217895E-2,-4.421784E-2,6.0018566E-2,-7.614091E-2,-4.7604334E-2,3.2488026E-2,-5.7368245E-2,-6.434706E-2,-4.156451E-3,-4.8429336E-2,3.748331E-2,-7.5878374E-2,2.1819774E-2,5.350948E-2,-7.457548E-2,-7.367276E-2,-5.58242E-2,4.3008134E-2,-4.4081446E-2,5.4281306E-2,-4.8065733E-2,-7.142987E-2,-2.6772697E-2,6.963321E-2,-1.7707266E-2,5.119405E-2,-5.9969105E-2,-7.70738E-2,-3.6199085E-2,9.7879255E-3,-7.033382E-2,6.567585E-2,8.797658E-3,6.716279E-2,4.185922E-2,3.085405E-2,-3.4392018E-2,-7.59969E-2,1.3678431E-2,7.5545296E-2,6.517873E-2,-7.534472E-2,2.239571E-2,-7.4327804E-2,5.3042144E-2,-7.82808E-2,3.8906485E-2],"categories":[],"categories_nodes":[],"categories_segments":[],"categories_sizes":[],"default_left":[0,0,0,0,0,0,0,0,0,0,0,0,0,0,0,0,0,0,0,0,0,0,0,0,0,0,0,0,0,0,0,0,0,0,0,0,0,0,0,0,0,0,0,0,0,0,0,0,0,0,0,0,0,0,0,0,0,0,0,0,0,0,0,0,0,0,0,0,0,0,0,0,0,0,0,0,0,0,0,0,0,0,0,0,0,0,0,0,0,0,0,0,0,0,0,0,0,0,0,0,0,0,0,0,0,0,0,0,0,0,0],"id":7,"left_children":[1,3,5,7,9,11,13,15,17,19,21,23,25,27,29,31,33,35,37,39,41,43,45,47,-1,49,-1,51,53,55,57,59,61,63,65,67,69,71,73,75,77,79,81,83,85,87,89,91,-1,93,95,97,99,101,103,105,107,109,-1,-1,-1,-1,-1,-1,-1,-1,-1,-1,-1,-1,-1,-1,-1,-1,-1,-1,-1,-1,-1,-1,-1,-1,-1,-1,-1,-1,-1,-1,-1,-1,-1,-1,-1,-1,-1,-1,-1,-1,-1,-1,-1,-1,-1,-1,-1,-1,-1,-1,-1,-1,-1],"loss_changes":[3.472743E4,2.0133203E2,1.0113404E4,4.0060547E1,1.1213336E2,8.5036646E2,8.944141E3,1.2490234E1,1.859419E2,3.5953186E1,9.025806E1,1.9759546E2,5.588988E2,1.2133262E3,3.5442383E1,3.2675781E0,2.2309471E1,2.1139526E1,2.315134E1,7.952791E1,2.135315E1,1.5194618E1,1.2954519E1,4.21813E2,0E0,4.0496024E2,0E0,7.165244E2,2.153164E2,7.764221E1,3.0688477E-1,7.9296875E-1,7.5651245E0,3.902649E0,1.2579876E1,4.840576E0,2.7312958E1,1.378937E1,6.301731E0,3.5785873E1,7.361006E1,1.288446E1,1.6297997E1,1.1794751E1,9.022392E0,1.1852279E1,1.3001186E1,2.9559082E2,0E0,1.774903E2,1.9762173E2,4.2512988E2,4.3462943E2,2.3141346E1,9.599609E1,7.378351E1,6.915586E1,2.0729614E1,0E0,0E0,0E0,0E0,0E0,0E0,0E0,0E0,0E0,0E0,0E0,0E0,0E0,0E0,0E0,0E0,0E0,0E0,0E0,0E0,0E0,0E0,0E0,0E0,0E0,0E0,0E0,0E0,0E0,0E0,0E0,0E0,0E0,0E0,0E0,0E0,0E0,0E0,0E0,0E0,0E0,0E0,0E0,0E0,0E0,0E0,0E0,0E0,0E0,0E0,0E0,0E0,0E0],"parents":[2147483647,0,0,1,1,2,2,3,3,4,4,5,5,6,6,7,7,8,8,9,9,10,10,11,11,12,12,13,13,14,14,15,15,16,16,17,17,18,18,19,19,20,20,21,21,22,22,23,23,25,25,27,27,28,28,29,29,30,30,31,31,32,32,33,33,34,34,35,35,36,36,37,37,38,38,39,39,40,40,41,41,42,42,43,43,44,44,45,45,46,46,47,47,49,49,50,50,51,51,52,52,53,53,54,54,55,55,56,56,57,57],"right_children":[2,4,6,8,10,12,14,16,18,20,22,24,26,28,30,32,34,36,38,40,42,44,46,48,-1,50,-1,52,54,56,58,60,62,64,66,68,70,72,74,76,78,80,82,84,86,88,90,92,-1,94,96,98,100,102,104,106,108,110,-1,-1,-1,-1,-1,-1,-1,-1,-1,-1,-1,-1,-1,-1,-1,-1,-1,-1,-1,-1,-1,-1,-1,-1,-1,-1,-1,-1,-1,-1,-1,-1,-1,-1,-1,-1,-1,-1,-1,-1,-1,-1,-1,-1,-1,-1,-1,-1,-1,-1,-1,-1,-1],"split_conditions":[4.7184987E0,4.3307333E0,1.1E1,2.7028224E-3,3.493912E-3,1.6702692E-3,2.1E1,9.855767E0,1.2301388E1,4.0253515E0,1.6132284E1,8E0,8E0,1.6397578E-3,2.2E1,4.1431346E0,1.1846782E-3,1.653484E1,5.8363616E-3,1.2E1,8.335671E0,5E0,7E0,7E0,-8.1930354E-2,6E0,-8.287218E-2,1.4782495E1,1.0369954E1,2.3505709E-3,2.4E1,1.4272936E1,1.0986123E0,4.1743875E0,6E0,1.0807726E1,4E0,1.8800407E1,6E0,9.770013E0,1.9E1,4.553877E0,4E0,4.4998097E0,8.689632E0,5E0,1.9E1,6E0,9.374567E-2,5E0,5E0,5E0,1.2E1,5.247024E0,5E0,8.690138E0,6.340359E0,9.563318E0,-8.281354E-2,-7.714627E-2,-7.407951E-2,9.644166E-3,-7.151931E-2,-7.1069196E-2,-1.7217895E-2,-4.421784E-2,6.0018566E-2,-7.614091E-2,-4.7604334E-2,3.2488026E-2,-5.7368245E-2,-6.434706E-2,-4.156451E-3,-4.8429336E-2,3.748331E-2,-7.5878374E-2,2.1819774E-2,5.350948E-2,-7.457548E-2,-7.367276E-2,-5.58242E-2,4.3008134E-2,-4.4081446E-2,5.4281306E-2,-4.8065733E-2,-7.142987E-2,-2.6772697E-2,6.963321E-2,-1.7707266E-2,5.119405E-2,-5.9969105E-2,-7.70738E-2,-3.6199085E-2,9.7879255E-3,-7.033382E-2,6.567585E-2,8.797658E-3,6.716279E-2,4.185922E-2,3.085405E-2,-3.4392018E-2,-7.59969E-2,1.3678431E-2,7.5545296E-2,6.517873E-2,-7.534472E-2,2.239571E-2,-7.4327804E-2,5.3042144E-2,-7.82808E-2,3.8906485E-2],"split_indices":[3,3,8,5,5,5,8,2,0,2,1,8,8,5,8,3,5,1,5,8,2,9,8,8,0,8,0,0,1,5,8,0,2,3,9,0,9,1,8,0,8,3,9,2,0,8,8,8,0,8,9,9,8,0,9,3,3,3,0,0,0,0,0,0,0,0,0,0,0,0,0,0,0,0,0,0,0,0,0,0,0,0,0,0,0,0,0,0,0,0,0,0,0,0,0,0,0,0,0,0,0,0,0,0,0,0,0,0,0,0,0],"split_type":[0,0,0,0,0,0,0,0,0,0,0,0,0,0,0,0,0,0,0,0,0,0,0,0,0,0,0,0,0,0,0,0,0,0,0,0,0,0,0,0,0,0,0,0,0,0,0,0,0,0,0,0,0,0,0,0,0,0,0,0,0,0,0,0,0,0,0,0,0,0,0,0,0,0,0,0,0,0,0,0,0,0,0,0,0,0,0,0,0,0,0,0,0,0,0,0,0,0,0,0,0,0,0,0,0,0,0,0,0,0,0],"sum_hessian":[3.5537438E4,1.1039611E4,2.4497826E4,1.0195676E4,8.4393616E2,3.9182505E3,2.0579576E4,9.314424E3,8.8125134E2,7.056071E2,1.3832909E2,2.502856E3,1.4153947E3,1.9189256E4,1.3903209E3,9.263382E3,5.1041866E1,7.910554E2,9.019587E1,1.3549847E2,5.7010864E2,6.821148E1,7.011761E1,1.8671897E3,6.356662E2,1.1979445E3,2.1745016E2,9.66115E3,9.5281045E3,3.8929538E2,1.0010256E3,8.831792E3,4.3159018E2,4.1156193E1,9.8856735E0,7.186293E2,7.2426155E1,5.3272625E1,3.692325E1,8.449894E1,5.0999542E1,4.954924E2,7.461621E1,9.399307E0,5.881217E1,2.2461481E1,4.7656128E1,1.8180872E3,4.9102432E1,3.1492703E2,8.830174E2,8.595993E3,1.0651569E3,3.5656956E1,9.492448E3,3.4692856E2,4.2366802E1,5.0881598E2,4.922096E2,7.8949473E3,9.3684467E2,2.6654131E0,4.2892477E2,3.6630466E1,4.5257273E0,4.1385827E0,5.7470903E0,6.971015E2,2.1527782E1,9.078086E0,6.3348072E1,1.1372113E1,4.190051E1,1.4295707E0,3.5493675E1,7.423681E1,1.0262128E1,3.5846107E1,1.5153437E1,3.1493915E2,1.8055325E2,5.032103E0,6.9584114E1,5.26309E0,4.1362176E0,4.0976063E1,1.7836105E1,3.8432407E0,1.861824E1,4.5684128E1,1.9719974E0,7.675144E2,1.0505729E3,1.0172573E2,2.1320131E2,1.9547556E2,6.875419E2,2.2541162E3,6.3418774E3,6.435623E2,4.2159454E2,2.6253355E1,9.403603E0,3.7929604E3,5.6994873E3,3.2683914E2,2.0089415E1,1.6793026E1,2.5573778E1,5.0557095E2,3.2450428E0],"tree_param":{"num_deleted":"0","num_feature":"10","num_nodes":"111","size_leaf_vector":"1"}},{"base_weights":[1.7354849E-3,-1.1512091E0,3.9453503E-1,-1.333148E0,-4.4115144E-1,6.4943564E-1,-1.4731749E0,-8.7396336E-1,-1.3752587E0,-1.1582148E0,1.21247485E-1,1.6926041E-1,1.0869149E0,-1.3268234E0,-7.626691E-2,-1.1581597E0,-1.3950777E-1,-1.4200681E0,-1.0867125E0,-1.4566919E0,-8.143349E-1,3.620664E-1,-8.0719486E-2,8.066333E-2,8.243006E-2,-6.2769455E-1,1.2076489E0,-1.4077102E0,-8.581528E-2,-9.5009786E-1,-7.7530764E-2,-1.2467976E0,2.2627468E-1,-1.3760356E0,-7.6543935E-2,-1.1936289E0,-4.7702514E-2,-1.4629108E0,-4.6853852E-1,2.0173563E-1,-1.0300093E0,2.0922457E-1,9.289362E-2,7.778818E-1,-8.319961E-2,-8.9677364E-1,1.1451479E0,1.4302082E0,1.0690361E0,-1.4309958E0,-2.7498698E-1,-1.2528452E0,8.163999E-1,-7.426667E-2,-2.264654E-2,-7.464695E-2,-1.1438622E-2,3.4920584E-2,-7.6239526E-2,-6.995074E-2,1.0548276E-1,-7.49077E-2,-5.3309716E-2,-4.1716404E-2,2.6450356E-2,-7.55388E-2,-6.568604E-2,2.6667748E-2,-5.083212E-2,-2.8199235E-2,3.8476713E-2,-6.352595E-2,-2.4247648E-2,-1.365736E-2,3.5376653E-2,4.243396E-2,-4.133239E-2,-3.0078867E-2,5.151703E-3,-5.120157E-2,8.111452E-2,-6.389447E-2,7.2909385E-2,7.199352E-2,-2.4383813E-2,-1.4950087E-3,5.626755E-2,-4.303341E-2,-7.361165E-2,-5.750032E-2,3.752447E-2,-1.9702353E-2,-6.6876605E-2,-6.5014236E-2,6.035877E-2],"categories":[],"categories_nodes":[],"categories_segments":[],"categories_sizes":[],"default_left":[0,0,0,0,0,0,0,0,0,0,0,0,0,0,0,0,0,0,0,0,0,0,0,0,0,0,0,0,0,0,0,0,0,0,0,0,0,0,0,0,0,0,0,0,0,0,0,0,0,0,0,0,0,0,0,0,0,0,0,0,0,0,0,0,0,0,0,0,0,0,0,0,0,0,0,0,0,0,0,0,0,0,0,0,0,0,0,0,0,0,0,0,0,0,0],"id":8,"left_children":[1,3,5,7,9,11,13,15,17,19,21,23,25,27,-1,29,31,33,35,37,39,41,-1,43,-1,45,47,49,51,53,-1,55,57,59,-1,61,63,65,67,69,71,73,-1,75,77,79,81,83,85,87,89,91,93,-1,-1,-1,-1,-1,-1,-1,-1,-1,-1,-1,-1,-1,-1,-1,-1,-1,-1,-1,-1,-1,-1,-1,-1,-1,-1,-1,-1,-1,-1,-1,-1,-1,-1,-1,-1,-1,-1,-1,-1,-1,-1],"loss_changes":[1.5890765E4,1.1513193E3,1.246091E4,1.3603711E2,7.3418097E2,4.837589E3,2.1972168E1,1.2485721E2,8.249219E1,8.094409E1,4.2734363E2,1.4390002E3,2.495338E3,8.355957E1,0E0,3.3778137E1,6.842383E1,2.5328125E1,9.746777E1,1.939209E0,8.218335E1,2.0478326E2,0E0,1.1837781E3,0E0,3.794913E2,3.4577734E2,2.0247314E1,5.585276E1,7.5091156E1,0E0,1.0165123E1,1.0631767E2,3.2603174E2,0E0,2.9291504E1,3.8072838E1,1.0427246E0,2.8169355E0,2.9275215E1,3.985724E1,1.9618094E2,0E0,2.2468665E2,8.100393E2,2.2265643E2,8.149695E1,8.071484E1,4.296079E2,1.6761108E1,1.6118204E1,1.1529655E0,2.636337E1,0E0,0E0,0E0,0E0,0E0,0E0,0E0,0E0,0E0,0E0,0E0,0E0,0E0,0E0,0E0,0E0,0E0,0E0,0E0,0E0,0E0,0E0,0E0,0E0,0E0,0E0,0E0,0E0,0E0,0E0,0E0,0E0,0E0,0E0,0E0,0E0,0E0,0E0,0E0,0E0,0E0,0E0],"parents":[2147483647,0,0,1,1,2,2,3,3,4,4,5,5,6,6,7,7,8,8,9,9,10,10,11,11,12,12,13,13,15,15,16,16,17,17,18,18,19,19,20,20,21,21,23,23,25,25,26,26,27,27,28,28,29,29,31,31,32,32,33,33,35,35,36,36,37,37,38,38,39,39,40,40,41,41,43,43,44,44,45,45,46,46,47,47,48,48,49,49,50,50,51,51,52,52],"right_children":[2,4,6,8,10,12,14,16,18,20,22,24,26,28,-1,30,32,34,36,38,40,42,-1,44,-1,46,48,50,52,54,-1,56,58,60,-1,62,64,66,68,70,72,74,-1,76,78,80,82,84,86,88,90,92,94,-1,-1,-1,-1,-1,-1,-1,-1,-1,-1,-1,-1,-1,-1,-1,-1,-1,-1,-1,-1,-1,-1,-1,-1,-1,-1,-1,-1,-1,-1,-1,-1,-1,-1,-1,-1,-1,-1,-1,-1,-1,-1],"split_conditions":[1.1E1,1.9398201E-3,2.1E1,5E0,1.6443842E1,1.0427529E-3,2.2E1,6.997111E-4,7.63868E0,8.689632E0,8E0,1.6E1,7.878913E0,4.3362163E-2,-7.626691E-2,8E0,6E0,8E0,1.3E1,8.038835E0,5E0,7E0,-8.0719486E-2,5E0,8.243006E-2,1.4682982E1,5E0,3.982197E-3,1.1846782E-3,6E0,-7.7530764E-2,6.916715E0,8E0,7E0,-7.6543935E-2,6E0,8.294049E0,7.4849305E0,1.4433111E1,5.362826E-3,6.920707E-2,5.3119447E-2,9.289362E-2,1.4978662E1,8E0,1.6E1,1.2E1,2.3736258E1,1.3986014E-2,4E0,1.2782689E1,2E0,9.034915E0,-7.426667E-2,-2.264654E-2,-7.464695E-2,-1.1438622E-2,3.4920584E-2,-7.6239526E-2,-6.995074E-2,1.0548276E-1,-7.49077E-2,-5.3309716E-2,-4.1716404E-2,2.6450356E-2,-7.55388E-2,-6.568604E-2,2.6667748E-2,-5.083212E-2,-2.8199235E-2,3.8476713E-2,-6.352595E-2,-2.4247648E-2,-1.365736E-2,3.5376653E-2,4.243396E-2,-4.133239E-2,-3.0078867E-2,5.151703E-3,-5.120157E-2,8.111452E-2,-6.389447E-2,7.2909385E-2,7.199352E-2,-2.4383813E-2,-1.4950087E-3,5.626755E-2,-4.303341E-2,-7.361165E-2,-5.750032E-2,3.752447E-2,-1.9702353E-2,-6.6876605E-2,-6.5014236E-2,6.035877E-2],"split_indices":[8,5,8,9,1,5,8,5,2,0,8,8,0,4,0,8,8,8,9,2,9,8,0,9,0,1,9,5,5,8,0,2,8,8,0,8,2,0,1,5,4,4,0,0,9,8,8,1,4,9,0,6,0,0,0,0,0,0,0,0,0,0,0,0,0,0,0,0,0,0,0,0,0,0,0,0,0,0,0,0,0,0,0,0,0,0,0,0,0,0,0,0,0,0,0],"split_type":[0,0,0,0,0,0,0,0,0,0,0,0,0,0,0,0,0,0,0,0,0,0,0,0,0,0,0,0,0,0,0,0,0,0,0,0,0,0,0,0,0,0,0,0,0,0,0,0,0,0,0,0,0,0,0,0,0,0,0,0,0,0,0,0,0,0,0,0,0,0,0,0,0,0,0,0,0,0,0,0,0,0,0,0,0,0,0,0,0,0,0,0,0,0,0],"sum_hessian":[3.5086543E4,8.915589E3,2.6170953E4,7.0963936E3,1.8191956E3,2.3028703E4,3.1422502E3,5.97951E2,6.498443E3,7.9917773E2,1.02001776E3,1.097928E4,1.2049423E4,8.3262616E2,2.309624E3,4.3071115E2,1.6723984E2,5.6215317E3,8.7691113E2,4.2610007E2,3.730777E2,8.9642993E2,1.2358787E2,1.0359886E4,6.1939465E2,7.9236835E2,1.1257054E4,7.8155164E2,5.1074574E1,2.837179E2,1.4699326E2,4.0929688E1,1.2631016E2,4.0325425E3,1.588989E3,7.949593E2,8.195183E1,4.2295776E2,3.1422918E0,6.533595E1,3.0774173E2,8.1435846E2,8.2071465E1,1.970763E3,8.389123E3,6.8838116E2,1.039872E2,4.316722E3,6.940332E3,7.6555066E2,1.6000933E1,2.2099667E1,2.8974907E1,1.3567091E2,1.4804697E2,3.2584736E1,8.344951E0,9.995941E1,2.635075E1,4.006727E3,2.581544E1,2.3135162E2,5.6360767E2,3.4477795E1,4.7474033E1,3.1331064E2,1.0964715E2,1.12068E0,2.021612E0,2.7822237E1,3.751372E1,2.1259972E2,9.514202E1,4.140258E2,4.0033267E2,1.887932E3,8.2830864E1,2.2167139E3,6.172409E3,6.558429E2,3.25383E1,1.1544732E1,9.244246E1,4.2953315E3,2.1390594E1,3.3834213E2,6.6019897E3,5.3094883E1,7.124558E2,8.5683155E0,7.432617E0,2.4910688E0,1.9608597E1,4.152878E0,2.482203E1],"tree_param":{"num_deleted":"0","num_feature":"10","num_nodes":"95","size_leaf_vector":"1"}},{"base_weights":[-5.1317827E-5,-1.4106916E0,6.302766E-1,-1.4488994E0,-9.541427E-1,-7.322871E-1,8.9121366E-1,-1.46595E0,-1.1998764E0,-1.0895506E0,-2.3412062E-1,-1.0335842E0,-8.3206326E-2,1.0556988E0,-1.4149332E0,-1.4691817E0,-8.813281E-1,-1.3818612E0,4.0551144E-1,-4.0437883E-1,-1.1577557E0,-8.438342E-1,4.633395E-1,-8.725548E-1,-7.735736E-2,1.8980773E-1,-7.816831E-2,8.113898E-1,1.2845725E0,-1.1582714E0,-7.564864E-2,-1.476416E0,-1.3678164E0,-1.2680259E0,-1.0248062E-1,-1.4336174E0,-8.348594E-1,-7.008711E-1,5.3792024E-1,-8.925213E-1,4.8944137E-1,-6.512815E-1,-1.210172E0,5.210085E-1,-1.0938519E0,-1.7575593E-1,8.4775513E-1,-1.4629072E0,-4.8696938E-1,-6.9677615E-1,4.9634102E-1,8.963329E-1,-1.3063779E-2,1.2792788E-1,1.2966778E0,-1.3120246E0,7.948603E-2,-7.260617E-2,-7.483903E-2,2.6065243E-2,-6.8943225E-2,6.230709E-3,-6.65253E-2,-5.9450563E-2,3.617735E-2,-7.304355E-2,-5.551217E-2,-1.03217205E-2,-6.580925E-2,1.5381101E-2,-6.569314E-2,3.569491E-2,-6.6651343E-3,-7.592075E-2,-8.776545E-3,5.750636E-2,-6.61444E-2,-6.1772045E-2,1.999831E-2,-7.2279E-2,-5.38475E-2,-5.428952E-2,4.5173537E-2,-7.208146E-2,-3.4525607E-2,1.617814E-2,-4.375755E-2,9.468383E-3,5.280241E-2,-3.716503E-2,-7.369511E-2,-3.1784955E-2,5.8950275E-2,2.4120837E-2,-6.533452E-2,-3.6551803E-2,3.33524E-2,6.344743E-2,3.8501523E-2,2.6065154E-2,-3.5759497E-2,-7.9946026E-2,4.4466816E-2,7.156396E-2,6.0407456E-2,-7.073474E-2,1.9423965E-2,-4.4687867E-2,6.822278E-2],"categories":[],"categories_nodes":[],"categories_segments":[],"categories_sizes":[],"default_left":[0,0,0,0,0,0,0,0,0,0,0,0,0,0,0,0,0,0,0,0,0,0,0,0,0,0,0,0,0,0,0,0,0,0,0,0,0,0,0,0,0,0,0,0,0,0,0,0,0,0,0,0,0,0,0,0,0,0,0,0,0,0,0,0,0,0,0,0,0,0,0,0,0,0,0,0,0,0,0,0,0,0,0,0,0,0,0,0,0,0,0,0,0,0,0,0,0,0,0,0,0,0,0,0,0,0,0,0,0],"id":9,"left_children":[1,3,5,7,9,11,13,15,17,19,21,23,25,27,29,31,33,35,37,39,41,43,45,47,-1,49,-1,51,53,55,-1,57,59,61,63,65,67,69,71,73,75,77,79,81,83,85,87,89,91,93,95,97,99,101,103,105,107,-1,-1,-1,-1,-1,-1,-1,-1,-1,-1,-1,-1,-1,-1,-1,-1,-1,-1,-1,-1,-1,-1,-1,-1,-1,-1,-1,-1,-1,-1,-1,-1,-1,-1,-1,-1,-1,-1,-1,-1,-1,-1,-1,-1,-1,-1,-1,-1,-1,-1,-1,-1],"loss_changes":[3.0702611E4,1.8463867E2,8.48591E3,4.001367E1,8.032251E1,7.501736E2,7.599509E3,1.609375E1,1.863681E2,3.2028015E1,5.6565247E1,2.15323E2,4.9222092E2,1.0444316E3,3.1814209E1,4.689453E0,1.5860966E1,1.4981567E1,9.976443E0,2.8574697E1,1.5986572E1,2.4741776E1,1.5444997E1,4.5384534E2,0E0,2.798977E2,0E0,6.3354736E2,1.3497559E2,7.1084656E1,0E0,2.046875E0,1.372644E1,3.2452583E0,1.7646587E1,2.966919E0,1.5393856E1,5.00243E0,7.074814E0,1.861052E1,2.9570549E1,3.8216183E1,1.6364868E1,8.13698E0,7.4478073E0,8.73862E0,5.1549606E0,5.142578E0,3.0042477E2,1.9099928E2,1.6076138E2,3.8500098E2,3.177765E2,1.343251E2,1.1209082E2,5.84823E1,5.3936962E1,0E0,0E0,0E0,0E0,0E0,0E0,0E0,0E0,0E0,0E0,0E0,0E0,0E0,0E0,0E0,0E0,0E0,0E0,0E0,0E0,0E0,0E0,0E0,0E0,0E0,0E0,0E0,0E0,0E0,0E0,0E0,0E0,0E0,0E0,0E0,0E0,0E0,0E0,0E0,0E0,0E0,0E0,0E0,0E0,0E0,0E0,0E0,0E0,0E0,0E0,0E0,0E0],"parents":[2147483647,0,0,1,1,2,2,3,3,4,4,5,5,6,6,7,7,8,8,9,9,10,10,11,11,12,12,13,13,14,14,15,15,16,16,17,17,18,18,19,19,20,20,21,21,22,22,23,23,25,25,27,27,28,28,29,29,31,31,32,32,33,33,34,34,35,35,36,36,37,37,38,38,39,39,40,40,41,41,42,42,43,43,44,44,45,45,46,46,47,47,48,48,49,49,50,50,51,51,52,52,53,53,54,54,55,55,56,56],"right_children":[2,4,6,8,10,12,14,16,18,20,22,24,26,28,30,32,34,36,38,40,42,44,46,48,-1,50,-1,52,54,56,-1,58,60,62,64,66,68,70,72,74,76,78,80,82,84,86,88,90,92,94,96,98,100,102,104,106,108,-1,-1,-1,-1,-1,-1,-1,-1,-1,-1,-1,-1,-1,-1,-1,-1,-1,-1,-1,-1,-1,-1,-1,-1,-1,-1,-1,-1,-1,-1,-1,-1,-1,-1,-1,-1,-1,-1,-1,-1,-1,-1,-1,-1,-1,-1,-1,-1,-1,-1,-1,-1],"split_conditions":[4.7184987E0,4.3307333E0,1.1E1,3.8932147E-3,3.493912E-3,2.1344717E-3,2.1E1,9.855767E0,1.2301388E1,5E0,1.11648E1,8E0,8E0,1.4420158E-3,2.2E1,4.1271343E0,7.6628535E-4,1.0764287E1,6E0,1.4E1,3.2580965E0,5E0,7E0,6E0,-7.735736E-2,6E0,-7.816831E-2,1.5045152E1,6.1717005E0,2.4416712E-3,-7.564864E-2,1.1E1,1.0986123E0,3E0,9E0,1.3E1,6.2690964E0,1.2E1,1.2E1,7.273445E-4,1.9E1,1.5E1,9.166636E-5,3E0,1E1,1.5E1,4.465908E0,1E0,9.031333E0,5E0,9.878221E0,5E0,1.2E1,1.5E1,5E0,8.690138E0,6.9431224E0,-7.260617E-2,-7.483903E-2,2.6065243E-2,-6.8943225E-2,6.230709E-3,-6.65253E-2,-5.9450563E-2,3.617735E-2,-7.304355E-2,-5.551217E-2,-1.03217205E-2,-6.580925E-2,1.5381101E-2,-6.569314E-2,3.569491E-2,-6.6651343E-3,-7.592075E-2,-8.776545E-3,5.750636E-2,-6.61444E-2,-6.1772045E-2,1.999831E-2,-7.2279E-2,-5.38475E-2,-5.428952E-2,4.5173537E-2,-7.208146E-2,-3.4525607E-2,1.617814E-2,-4.375755E-2,9.468383E-3,5.280241E-2,-3.716503E-2,-7.369511E-2,-3.1784955E-2,5.8950275E-2,2.4120837E-2,-6.533452E-2,-3.6551803E-2,3.33524E-2,6.344743E-2,3.8501523E-2,2.6065154E-2,-3.5759497E-2,-7.9946026E-2,4.4466816E-2,7.156396E-2,6.0407456E-2,-7.073474E-2,1.9423965E-2,-4.4687867E-2,6.822278E-2],"split_indices":[3,3,8,5,5,5,8,2,0,9,0,8,8,5,8,3,5,0,8,8,2,9,8,8,0,8,0,0,0,5,0,8,2,9,9,9,2,6,8,5,8,8,5,7,9,6,3,9,3,8,0,9,8,8,9,3,3,0,0,0,0,0,0,0,0,0,0,0,0,0,0,0,0,0,0,0,0,0,0,0,0,0,0,0,0,0,0,0,0,0,0,0,0,0,0,0,0,0,0,0,0,0,0,0,0,0,0,0,0],"split_type":[0,0,0,0,0,0,0,0,0,0,0,0,0,0,0,0,0,0,0,0,0,0,0,0,0,0,0,0,0,0,0,0,0,0,0,0,0,0,0,0,0,0,0,0,0,0,0,0,0,0,0,0,0,0,0,0,0,0,0,0,0,0,0,0,0,0,0,0,0,0,0,0,0,0,0,0,0,0,0,0,0,0,0,0,0,0,0,0,0,0,0,0,0,0,0,0,0,0,0,0,0,0,0,0,0,0,0,0,0],"sum_hessian":[3.452767E4,1.0663064E4,2.3864607E4,9.837599E3,8.254658E2,3.8353462E3,2.002926E4,9.202611E3,6.3498785E2,6.943691E2,1.3109674E2,2.6190266E3,1.2163195E3,1.8696295E4,1.3329645E3,9.150517E3,5.209444E1,5.704604E2,6.452745E1,6.3490284E1,6.308788E2,6.983646E1,6.126029E1,1.9959033E3,6.231233E2,1.0276434E3,1.8867607E2,9.045409E3,9.650887E3,3.7197382E2,9.6099066E2,8.528294E3,6.222227E2,3.439115E1,1.7703289E1,5.196695E2,5.0790905E1,6.438163E0,5.8089287E1,4.1064926E1,2.2425356E1,6.042694E1,5.7045184E2,1.06444845E1,5.9191967E1,2.3212326E1,3.8047966E1,7.874619E2,1.2084414E3,2.6369302E2,7.639504E2,8.200435E3,8.449745E2,1.0007956E2,9.550808E3,3.3081967E2,4.1154144E1,3.922043E3,4.6062505E3,3.3492658E0,6.188734E2,1.4339893E0,3.2957165E1,7.4562025E0,1.0247086E1,4.7603235E2,4.3637127E1,2.2648987E1,2.8141918E1,2.6222324E0,3.8159301E0,4.597279E1,1.2116495E1,2.1328522E1,1.9736406E1,1.6702013E1,5.723343E0,3.8730106E1,2.1696835E1,2.0259999E2,3.6785184E2,1.6929832E0,8.951502E0,3.0402967E1,2.8789001E1,1.3856867E1,9.355458E0,9.603063E0,2.8444902E1,1.2882971E1,7.74579E2,1.1099677E3,9.84738E1,8.996533E1,1.737277E2,9.287804E1,6.710723E2,2.0736726E3,6.126762E3,4.799538E2,3.650207E2,3.0287832E1,6.9791725E1,3.783347E3,5.7674604E3,3.1214178E2,1.8677895E1,2.3590796E1,1.756335E1],"tree_param":{"num_deleted":"0","num_feature":"10","num_nodes":"109","size_leaf_vector":"1"}},{"base_weights":[-2.2659844E-3,-1.3739173E0,6.0202676E-1,-1.4101638E0,-8.889927E-1,-7.1588206E-1,8.5449696E-1,-1.4263364E0,-1.1690141E0,-1.0516088E0,-9.121731E-2,-1.011062E0,-7.517362E-2,1.0130286E0,-1.3674349E0,-1.4335704E0,-1.1766931E0,-1.3172423E0,3.2500502E-1,-9.3626016E-1,-1.4300512E0,-8.1222624E-1,5.374695E-1,-8.535626E-1,-7.531769E-2,1.7093895E-1,-7.605167E-2,7.18838E-1,1.220048E0,-1.084335E0,-1.4750795E0,-1.0318801E0,-1.4354149E0,1.531028E0,-1.2171576E0,-1.4103794E0,-9.732979E-1,-4.8076203E-1,7.545125E-1,-1.2517868E0,-7.1672416E-1,2.8506367E-2,-1.4683796E0,5.8388032E-2,-9.077045E-1,-4.058734E-2,8.093884E-1,-1.4288981E0,-4.8208374E-1,-7.196357E-1,4.6992788E-1,7.972398E-1,-2.4315684E-1,-1.035665E0,1.228249E0,-1.2749207E0,1.0909463E0,-7.4838586E-2,-1.3577774E0,-7.241949E-2,-1.5911952E-2,-7.2110064E-2,-6.746961E-2,9.523655E-2,1.9503577E-2,-6.895641E-2,-2.056818E-2,-7.103581E-2,-3.4349594E-2,8.651159E-3,-5.858255E-2,-2.346999E-3,-7.808032E-2,7.707798E-2,2.2124898E-2,-7.3515944E-2,-3.800931E-2,-2.8572535E-2,-7.276682E-2,-2.1791654E-2,-7.419639E-2,2.0428417E-2,-5.0468113E-2,6.0859025E-2,-1.5472213E-2,4.673515E-2,-5.7828214E-2,-6.1359353E-2,-7.434203E-2,3.774662E-2,-3.3951614E-2,1.854896E-2,-6.3707784E-2,6.4813726E-2,1.104046E-2,6.1012108E-2,3.2051336E-2,-7.0752524E-2,-5.5672805E-4,-1.4088819E-2,-9.909967E-2,6.890812E-2,5.725801E-2,-6.8359405E-2,5.5029793E-3,-5.309844E-2,6.359681E-2,-7.101699E-2,-2.5913713E-2],"categories":[],"categories_nodes":[],"categories_segments":[],"categories_sizes":[],"default_left":[0,0,0,0,0,0,0,0,0,0,0,0,0,0,0,0,0,0,0,0,0,0,0,0,0,0,0,0,0,0,0,0,0,0,0,0,0,0,0,0,0,0,0,0,0,0,0,0,0,0,0,0,0,0,0,0,0,0,0,0,0,0,0,0,0,0,0,0,0,0,0,0,0,0,0,0,0,0,0,0,0,0,0,0,0,0,0,0,0,0,0,0,0,0,0,0,0,0,0,0,0,0,0,0,0,0,0,0,0],"id":10,"left_children":[1,3,5,7,9,11,13,15,17,19,21,23,25,27,29,31,33,35,37,39,41,43,45,47,-1,49,-1,51,53,55,57,59,61,63,65,67,69,71,73,75,77,-1,79,-1,81,83,85,87,89,91,93,95,97,99,101,103,105,-1,107,-1,-1,-1,-1,-1,-1,-1,-1,-1,-1,-1,-1,-1,-1,-1,-1,-1,-1,-1,-1,-1,-1,-1,-1,-1,-1,-1,-1,-1,-1,-1,-1,-1,-1,-1,-1,-1,-1,-1,-1,-1,-1,-1,-1,-1,-1,-1,-1,-1,-1],"loss_changes":[2.8050203E4,1.806543E2,7.8170596E3,3.5884766E1,9.3633545E1,7.143043E2,6.9460615E3,1.4595703E1,1.3566174E2,2.485553E1,5.6385563E1,2.0043237E2,4.2458496E2,1.1199199E3,3.842578E1,5.0097656E0,3.030127E1,1.642987E1,1.9715601E1,3.1159668E1,1.1437988E1,1.2004078E1,1.0491556E1,4.1912573E2,0E0,2.7190704E2,0E0,5.7367163E2,2.0107031E2,1.5296097E2,3.8208008E-1,1.2497578E1,3.140625E0,1.0753117E0,3.288153E1,2.2774048E0,2.7862709E1,9.329996E0,8.37093E0,1.913733E1,2.870221E1,0E0,1.5359192E0,0E0,7.8777275E0,7.896838E0,1.2241056E1,7.17688E0,2.9167523E2,1.5573973E2,1.5702132E2,4.638037E2,1.5599095E2,2.7741024E1,1.3247168E2,4.3165466E1,1.3036686E1,0E0,7.6066284E0,0E0,0E0,0E0,0E0,0E0,0E0,0E0,0E0,0E0,0E0,0E0,0E0,0E0,0E0,0E0,0E0,0E0,0E0,0E0,0E0,0E0,0E0,0E0,0E0,0E0,0E0,0E0,0E0,0E0,0E0,0E0,0E0,0E0,0E0,0E0,0E0,0E0,0E0,0E0,0E0,0E0,0E0,0E0,0E0,0E0,0E0,0E0,0E0,0E0,0E0],"parents":[2147483647,0,0,1,1,2,2,3,3,4,4,5,5,6,6,7,7,8,8,9,9,10,10,11,11,12,12,13,13,14,14,15,15,16,16,17,17,18,18,19,19,20,20,21,21,22,22,23,23,25,25,27,27,28,28,29,29,30,30,31,31,32,32,33,33,34,34,35,35,36,36,37,37,38,38,39,39,40,40,42,42,44,44,45,45,46,46,47,47,48,48,49,49,50,50,51,51,52,52,53,53,54,54,55,55,56,56,58,58],"right_children":[2,4,6,8,10,12,14,16,18,20,22,24,26,28,30,32,34,36,38,40,42,44,46,48,-1,50,-1,52,54,56,58,60,62,64,66,68,70,72,74,76,78,-1,80,-1,82,84,86,88,90,92,94,96,98,100,102,104,106,-1,108,-1,-1,-1,-1,-1,-1,-1,-1,-1,-1,-1,-1,-1,-1,-1,-1,-1,-1,-1,-1,-1,-1,-1,-1,-1,-1,-1,-1,-1,-1,-1,-1,-1,-1,-1,-1,-1,-1,-1,-1,-1,-1,-1,-1,-1,-1,-1,-1,-1,-1],"split_conditions":[4.7184987E0,4.3694477E0,1.1E1,3.8932147E-3,3.493912E-3,2.1344717E-3,2.1E1,8.604837E0,1.856941E1,4.283258E-2,1.6443842E1,8E0,8E0,2.1881927E-2,2.2E1,1.0986123E0,1E0,1.4797703E1,5.3119447E-2,6.971041E-5,2E0,1E0,7E0,6E0,-7.531769E-2,6E0,-7.605167E-2,2.1601559E1,9.153559E0,3.6528833E-2,5.6338027E-2,1.5E1,4.1271343E0,8.714732E0,1.1235955E-3,4.3307333E0,4.8441873E0,2.0394852E1,6.016157E0,1.5E1,1.9E1,2.8506367E-2,3E0,5.8388032E-2,2.1972246E0,5E0,2.2E1,5E0,5E0,5E0,5E0,5E0,4.3043186E-5,1.0185028E-1,5E0,8.229511E0,5.2040067E0,-7.4838586E-2,1.974684E1,-7.241949E-2,-1.5911952E-2,-7.2110064E-2,-6.746961E-2,9.523655E-2,1.9503577E-2,-6.895641E-2,-2.056818E-2,-7.103581E-2,-3.4349594E-2,8.651159E-3,-5.858255E-2,-2.346999E-3,-7.808032E-2,7.707798E-2,2.2124898E-2,-7.3515944E-2,-3.800931E-2,-2.8572535E-2,-7.276682E-2,-2.1791654E-2,-7.419639E-2,2.0428417E-2,-5.0468113E-2,6.0859025E-2,-1.5472213E-2,4.673515E-2,-5.7828214E-2,-6.1359353E-2,-7.434203E-2,3.774662E-2,-3.3951614E-2,1.854896E-2,-6.3707784E-2,6.4813726E-2,1.104046E-2,6.1012108E-2,3.2051336E-2,-7.0752524E-2,-5.5672805E-4,-1.4088819E-2,-9.909967E-2,6.890812E-2,5.725801E-2,-6.8359405E-2,5.5029793E-3,-5.309844E-2,6.359681E-2,-7.101699E-2,-2.5913713E-2],"split_indices":[3,3,8,5,5,5,8,2,1,4,1,8,8,4,8,2,9,1,4,5,9,9,8,8,0,8,0,1,1,4,4,8,3,2,5,3,2,1,2,8,8,0,9,0,2,8,8,8,9,8,9,9,5,4,9,3,3,0,1,0,0,0,0,0,0,0,0,0,0,0,0,0,0,0,0,0,0,0,0,0,0,0,0,0,0,0,0,0,0,0,0,0,0,0,0,0,0,0,0,0,0,0,0,0,0,0,0,0,0],"split_type":[0,0,0,0,0,0,0,0,0,0,0,0,0,0,0,0,0,0,0,0,0,0,0,0,0,0,0,0,0,0,0,0,0,0,0,0,0,0,0,0,0,0,0,0,0,0,0,0,0,0,0,0,0,0,0,0,0,0,0,0,0,0,0,0,0,0,0,0,0,0,0,0,0,0,0,0,0,0,0,0,0,0,0,0,0,0,0,0,0,0,0,0,0,0,0,0,0,0,0,0,0,0,0,0,0,0,0,0,0],"sum_hessian":[3.3839137E4,1.0348458E4,2.3490678E4,9.626968E3,7.2149084E2,3.776306E3,1.9714371E4,9.017309E3,6.096584E2,5.990618E2,1.2242907E2,2.5848604E3,1.1914457E3,1.840196E4,1.3124103E3,8.758761E3,2.5854813E2,5.547387E2,5.4919712E1,4.6178464E2,1.3727716E2,5.689134E1,6.553773E1,1.9632754E3,6.2158496E2,1.0188927E3,1.7255296E2,7.602575E3,1.0799386E4,3.6460132E2,9.4780896E2,4.2596367E1,8.716164E3,3.2645025E0,2.5528362E2,4.3409027E2,1.2064842E2,1.9054205E1,3.586551E1,1.8754083E2,2.742438E2,2.3202324E0,1.3495692E2,2.100541E0,5.47908E1,2.1238579E1,4.429915E1,7.6916644E2,1.194109E3,2.5573833E2,7.6315436E2,7.0298213E3,5.727536E2,3.8667034E1,1.0760719E4,3.356109E2,2.8990404E1,7.8996466E2,1.5784428E2,2.6247622E1,1.6348743E1,8.06421E3,6.519545E2,1.9548163E0,1.3096863E0,2.1196547E2,4.3318142E1,4.2702438E2,7.0658903E0,1.7815706E1,1.0283271E2,1.4341385E1,4.7128196E0,9.063202E0,2.6802307E1,1.284499E2,5.909092E1,2.3065187E2,4.3591934E1,2.4326997E0,1.3252423E2,3.7117493E0,5.107905E1,3.1191785E0,1.8119402E1,4.213774E1,2.1614075E0,1.7659084E2,5.925756E2,1.6361632E2,1.0304927E3,8.63124E1,1.6942592E2,1.7580194E2,5.873524E2,1.8940896E3,5.135732E3,9.381515E1,4.7893848E2,2.224411E1,1.6422922E1,3.8317256E3,6.928993E3,3.1466104E2,2.0949873E1,1.8706799E0,2.7119724E1,1.4625314E2,1.1591128E1],"tree_param":{"num_deleted":"0","num_feature":"10","num_nodes":"109","size_leaf_vector":"1"}},{"base_weights":[-1.512219E-3,-1.0518688E0,3.523112E-1,-1.2546725E0,-4.733322E-1,5.804064E-1,-1.3789971E0,-1.3223252E0,-1.0797406E0,-1.1148837E0,-2.7996749E-2,1.5407906E-1,1.0098132E0,-1.2522862E0,-7.116652E-2,-1.282047E0,-7.117042E-2,-1.3839136E0,-9.273673E-1,-3.4365433E-1,-1.2149738E0,1.807643E-1,-7.415407E-2,7.171328E-2,7.760494E-2,-6.01007E-1,1.122287E0,-1.3252054E0,-1.16816886E-1,-1.3038367E0,1.00325085E-1,-1.2123674E0,-7.242766E-2,-6.3045764E-1,-7.211886E-2,-1.3603249E0,1.3381186E-1,-1.3473542E0,-9.1107E-1,1.1495882E0,-6.0314465E-2,7.0451707E-1,-8.051634E-2,-8.89723E-1,9.967257E-1,1.3345212E0,9.926014E-1,-1.341169E0,2.175057E-3,-1.1535877E0,7.1910083E-1,-7.0407696E-2,-6.0255587E-2,-7.168478E-2,1.2471565E-1,-3.931196E-2,1.03131294E-1,-6.6440827E-3,-7.135466E-2,-3.3176463E-2,3.2360822E-2,-7.05539E-2,-6.251548E-2,-5.8841478E-2,-1.338667E-2,-5.912728E-2,5.8944512E-2,-1.0562924E-2,9.031988E-2,3.8734127E-2,-4.5568664E-2,-2.9060075E-2,5.0942935E-3,-5.1002223E-2,7.640808E-2,-5.5244494E-2,6.57884E-2,6.7255355E-2,-3.2316975E-2,2.875393E-2,5.567205E-2,-4.0884368E-2,-6.897741E-2,5.0380904E-2,-5.9974093E-2,1.1538649E-3,-6.2341344E-2,-6.1374314E-2,5.6683194E-2],"categories":[],"categories_nodes":[],"categories_segments":[],"categories_sizes":[],"default_left":[0,0,0,0,0,0,0,0,0,0,0,0,0,0,0,0,0,0,0,0,0,0,0,0,0,0,0,0,0,0,0,0,0,0,0,0,0,0,0,0,0,0,0,0,0,0,0,0,0,0,0,0,0,0,0,0,0,0,0,0,0,0,0,0,0,0,0,0,0,0,0,0,0,0,0,0,0,0,0,0,0,0,0,0,0,0,0,0,0],"id":11,"left_children":[1,3,5,7,9,11,13,15,17,19,21,23,25,27,-1,29,-1,31,33,35,37,39,-1,41,-1,43,45,47,49,51,-1,53,-1,55,-1,57,59,61,63,65,67,69,71,73,75,77,79,81,83,85,87,-1,-1,-1,-1,-1,-1,-1,-1,-1,-1,-1,-1,-1,-1,-1,-1,-1,-1,-1,-1,-1,-1,-1,-1,-1,-1,-1,-1,-1,-1,-1,-1,-1,-1,-1,-1,-1,-1],"loss_changes":[1.2327934E4,9.801094E2,9.79957E3,7.181055E1,6.202754E2,4.0136611E3,1.4445801E1,1.6325195E1,7.895825E1,6.825012E1,3.89869E2,1.2669048E3,1.9796533E3,6.2529175E1,0E0,2.3176807E2,0E0,4.62854E0,1.759328E2,5.0462646E1,3.0433594E1,2.622534E2,0E0,1.0011455E3,0E0,3.3004617E2,2.7970605E2,1.5075195E1,4.137324E1,3.1027344E1,0E0,1.3788748E2,0E0,3.1012848E2,0E0,2.5304108E0,2.9653854E1,1.612915E0,4.1039948E1,1.6682373E1,2.5392302E2,2.2919891E2,7.65174E2,1.9215817E2,7.499491E1,8.20166E1,3.1931787E2,1.2992554E1,1.2627368E1,2.3619118E0,2.2789257E1,0E0,0E0,0E0,0E0,0E0,0E0,0E0,0E0,0E0,0E0,0E0,0E0,0E0,0E0,0E0,0E0,0E0,0E0,0E0,0E0,0E0,0E0,0E0,0E0,0E0,0E0,0E0,0E0,0E0,0E0,0E0,0E0,0E0,0E0,0E0,0E0,0E0,0E0],"parents":[2147483647,0,0,1,1,2,2,3,3,4,4,5,5,6,6,7,7,8,8,9,9,10,10,11,11,12,12,13,13,15,15,17,17,18,18,19,19,20,20,21,21,23,23,25,25,26,26,27,27,28,28,29,29,31,31,33,33,35,35,36,36,37,37,38,38,39,39,40,40,41,41,42,42,43,43,44,44,45,45,46,46,47,47,48,48,49,49,50,50],"right_children":[2,4,6,8,10,12,14,16,18,20,22,24,26,28,-1,30,-1,32,34,36,38,40,-1,42,-1,44,46,48,50,52,-1,54,-1,56,-1,58,60,62,64,66,68,70,72,74,76,78,80,82,84,86,88,-1,-1,-1,-1,-1,-1,-1,-1,-1,-1,-1,-1,-1,-1,-1,-1,-1,-1,-1,-1,-1,-1,-1,-1,-1,-1,-1,-1,-1,-1,-1,-1,-1,-1,-1,-1,-1,-1],"split_conditions":[1.1E1,1.3927576E-3,2.1E1,4.0191316E-4,1.6314623E1,1.1641444E-3,2.2E1,8E0,6E0,5E0,8E0,1.6E1,7.878913E0,4.283258E-2,-7.116652E-2,7E0,-7.117042E-2,5E0,8E0,8.425297E0,9.622517E0,5E0,-7.415407E-2,5E0,7.760494E-2,1.4495682E1,5E0,5.362826E-3,1.1846782E-3,6E0,1.00325085E-1,3E0,-7.242766E-2,7E0,-7.211886E-2,1.5522594E-3,4.376131E-3,7.340187E0,6.920707E-2,2E0,7E0,1.52337885E1,8E0,1.6E1,1.5E1,2.3736258E1,6E0,4E0,9E0,2E0,1.5959483E1,-7.0407696E-2,-6.0255587E-2,-7.168478E-2,1.2471565E-1,-3.931196E-2,1.03131294E-1,-6.6440827E-3,-7.135466E-2,-3.3176463E-2,3.2360822E-2,-7.05539E-2,-6.251548E-2,-5.8841478E-2,-1.338667E-2,-5.912728E-2,5.8944512E-2,-1.0562924E-2,9.031988E-2,3.8734127E-2,-4.5568664E-2,-2.9060075E-2,5.0942935E-3,-5.1002223E-2,7.640808E-2,-5.5244494E-2,6.57884E-2,6.7255355E-2,-3.2316975E-2,2.875393E-2,5.567205E-2,-4.0884368E-2,-6.897741E-2,5.0380904E-2,-5.9974093E-2,1.1538649E-3,-6.2341344E-2,-6.1374314E-2,5.6683194E-2],"split_indices":[8,5,8,5,1,5,8,8,8,9,8,8,0,4,0,8,0,8,8,0,0,9,0,9,0,1,9,5,5,8,0,8,0,8,0,5,5,0,4,8,8,0,9,8,8,1,9,9,9,6,1,0,0,0,0,0,0,0,0,0,0,0,0,0,0,0,0,0,0,0,0,0,0,0,0,0,0,0,0,0,0,0,0,0,0,0,0,0,0],"split_type":[0,0,0,0,0,0,0,0,0,0,0,0,0,0,0,0,0,0,0,0,0,0,0,0,0,0,0,0,0,0,0,0,0,0,0,0,0,0,0,0,0,0,0,0,0,0,0,0,0,0,0,0,0,0,0,0,0,0,0,0,0,0,0,0,0,0,0,0,0,0,0,0,0,0,0,0,0,0,0,0,0,0,0,0,0,0,0,0,0],"sum_hessian":[3.316964E4,8.357545E3,2.4812096E4,6.187406E3,2.1701392E3,2.1924295E4,2.887802E3,4.4571143E3,1.7302915E3,8.8856555E2,1.2815735E3,1.1002277E4,1.0922018E4,7.560762E2,2.1317258E3,3.1969294E3,1.260185E3,5.7479083E2,1.1555007E3,1.0258045E2,7.859851E2,1.1215416E3,1.6003186E2,1.0391125E4,6.111526E2,7.125614E2,1.0209456E4,7.102944E2,4.578181E1,3.1764858E3,2.044364E1,1.6271599E2,4.1207486E2,7.3435803E2,4.2114267E2,3.218972E1,7.039073E1,5.4510443E2,2.4088069E2,2.2272151E2,8.988201E2,2.0142897E3,8.376835E3,6.038811E2,1.0868032E2,3.8687886E3,6.340667E3,7.018433E2,8.451062E0,2.0266134E1,2.5515676E1,1.5380492E3,1.6384366E3,1.5412622E2,8.589759E0,6.948712E2,3.9486816E1,1.8149294E0,3.0374788E1,2.7456736E1,4.2934E1,3.2086743E2,2.24237E2,1.6987627E2,7.100442E1,2.2752855E0,2.2044623E2,8.3239844E2,6.642166E1,1.9309636E3,8.332599E1,2.2362505E3,6.1405845E3,5.735457E2,3.033538E1,1.3999408E1,9.4680916E1,3.8485422E3,2.0246166E1,1.4245039E3,4.916163E3,4.946454E1,6.523788E2,4.689102E0,3.7619605E0,1.5432352E0,1.8722898E1,4.1356673E0,2.1380009E1],"tree_param":{"num_deleted":"0","num_feature":"10","num_nodes":"89","size_leaf_vector":"1"}},{"base_weights":[2.6599427E-3,-1.0135522E0,3.4413412E-1,-2.7718657E-1,-1.0983914E0,5.6210774E-1,-1.3413187E0,4.229262E-2,-7.113864E-2,-1.1814487E0,-6.277827E-1,2.730117E-1,9.695292E-1,-1.207524E0,-6.943791E-2,-9.639948E-1,5.568115E-1,-1.2512629E0,-9.0259254E-1,-1.2453759E0,-2.4266052E-1,8.995364E-1,8.114444E-2,-1.772798E-2,1.0557551E0,-1.2853079E0,-4.9744036E-2,-3.5118148E-1,-1.3339111E0,-3.8667017E-1,8.3274144E-1,-1.1983589E0,-6.9868356E-2,-1.0694381E0,-4.2381933E-1,-1.3696821E0,-8.349909E-1,1.03039995E-1,-7.121121E-2,1.605261E-1,1.0020981E0,-1.2582027E-2,7.6608144E-2,3.307063E-1,-1.0727283E0,1.2771786E0,9.377572E-1,-8.4849507E-1,-1.3175336E0,-1.0626563E0,6.584246E-1,-7.090827E-2,8.714845E-2,-6.8431444E-2,-2.8373977E-2,-7.112417E-2,-7.858964E-3,4.4759292E-2,-7.7040404E-2,-6.1612796E-2,9.6615754E-2,1.09177E-2,-5.5158652E-2,-9.439445E-3,-6.980891E-2,-6.887557E-2,1.5960965E-2,-2.1919103E-3,-6.127116E-2,-4.0006373E-2,2.2701753E-2,2.847794E-2,-4.8901748E-2,5.3011257E-2,-2.8005524E-2,-3.7429076E-2,6.2033404E-3,-4.2476207E-2,3.681973E-2,-6.569686E-2,6.761545E-2,5.3736664E-2,6.735896E-2,3.7492465E-2,5.718422E-2,-5.7668872E-2,7.237382E-2,-6.1584003E-2,-7.0844844E-2,-6.6648416E-2,-1.4544015E-2,5.1068343E-2,-6.0419153E-2],"categories":[],"categories_nodes":[],"categories_segments":[],"categories_sizes":[],"default_left":[0,0,0,0,0,0,0,0,0,0,0,0,0,0,0,0,0,0,0,0,0,0,0,0,0,0,0,0,0,0,0,0,0,0,0,0,0,0,0,0,0,0,0,0,0,0,0,0,0,0,0,0,0,0,0,0,0,0,0,0,0,0,0,0,0,0,0,0,0,0,0,0,0,0,0,0,0,0,0,0,0,0,0,0,0,0,0,0,0,0,0,0,0],"id":12,"left_children":[1,3,5,7,9,11,13,15,-1,17,19,21,23,25,-1,27,29,31,33,35,37,39,41,43,45,47,49,51,53,55,57,59,-1,61,63,65,67,69,-1,71,73,75,-1,77,79,81,83,85,87,89,91,-1,-1,-1,-1,-1,-1,-1,-1,-1,-1,-1,-1,-1,-1,-1,-1,-1,-1,-1,-1,-1,-1,-1,-1,-1,-1,-1,-1,-1,-1,-1,-1,-1,-1,-1,-1,-1,-1,-1,-1,-1,-1],"loss_changes":[1.1389926E4,5.1543066E2,9.026519E3,3.126919E2,2.8859082E2,2.5621196E3,1.6182129E1,3.4686487E2,0E0,1.2133789E2,2.643188E2,1.529804E3,7.6864844E2,6.6953735E1,0E0,5.09153E1,1.157115E2,3.719287E1,1.0044922E2,2.0642517E1,2.8055557E2,2.2597949E2,1.3252101E3,2.673195E2,2.1576367E2,8.697388E0,3.505103E1,1.9615132E2,2.9749146E0,2.3780025E1,5.225499E1,3.9489258E2,0E0,4.090686E1,7.471629E1,4.753418E0,3.140615E1,1.6902196E2,0E0,1.7044821E2,2.3848999E2,9.20733E2,0E0,2.6238828E2,1.07382675E2,3.942285E1,2.0890674E2,3.717101E1,3.7790527E0,3.8028831E0,2.0748558E1,0E0,0E0,0E0,0E0,0E0,0E0,0E0,0E0,0E0,0E0,0E0,0E0,0E0,0E0,0E0,0E0,0E0,0E0,0E0,0E0,0E0,0E0,0E0,0E0,0E0,0E0,0E0,0E0,0E0,0E0,0E0,0E0,0E0,0E0,0E0,0E0,0E0,0E0,0E0,0E0,0E0,0E0],"parents":[2147483647,0,0,1,1,2,2,3,3,4,4,5,5,6,6,7,7,9,9,10,10,11,11,12,12,13,13,15,15,16,16,17,17,18,18,19,19,20,20,21,21,22,22,23,23,24,24,25,25,26,26,27,27,28,28,29,29,30,30,31,31,33,33,34,34,35,35,36,36,37,37,39,39,40,40,41,41,43,43,44,44,45,45,46,46,47,47,48,48,49,49,50,50],"right_children":[2,4,6,8,10,12,14,16,-1,18,20,22,24,26,-1,28,30,32,34,36,38,40,42,44,46,48,50,52,54,56,58,60,-1,62,64,66,68,70,-1,72,74,76,-1,78,80,82,84,86,88,90,92,-1,-1,-1,-1,-1,-1,-1,-1,-1,-1,-1,-1,-1,-1,-1,-1,-1,-1,-1,-1,-1,-1,-1,-1,-1,-1,-1,-1,-1,-1,-1,-1,-1,-1,-1,-1,-1,-1,-1,-1,-1,-1],"split_conditions":[1.1E1,5E0,2.1E1,8E0,5.3119447E-2,3.2771535E-2,2.2E1,6E0,-7.113864E-2,7.2710085E0,1.0764287E1,5E0,8.425297E0,4.283258E-2,-6.943791E-2,5E0,9.82558E0,8E0,1E1,9.472781E0,8E0,1.3852293E1,1.6E1,4.9767337E0,5E0,4E0,1.6314623E1,3E0,7.8351836E0,6.1717005E0,2.2408714E1,7E0,-6.9868356E-2,7.2943773E0,8E0,1.6940228E1,4.8441873E0,6E0,-7.121121E-2,4.553877E0,1.5386208E1,1.3104393E1,7.6608144E-2,1.0683706E1,1.653484E1,3E0,6.258039E-2,7.6643467E0,1.3457407E1,8.754792E0,2.142628E1,-7.090827E-2,8.714845E-2,-6.8431444E-2,-2.8373977E-2,-7.112417E-2,-7.858964E-3,4.4759292E-2,-7.7040404E-2,-6.1612796E-2,9.6615754E-2,1.09177E-2,-5.5158652E-2,-9.439445E-3,-6.980891E-2,-6.887557E-2,1.5960965E-2,-2.1919103E-3,-6.127116E-2,-4.0006373E-2,2.2701753E-2,2.847794E-2,-4.8901748E-2,5.3011257E-2,-2.8005524E-2,-3.7429076E-2,6.2033404E-3,-4.2476207E-2,3.681973E-2,-6.569686E-2,6.761545E-2,5.3736664E-2,6.735896E-2,3.7492465E-2,5.718422E-2,-5.7668872E-2,7.237382E-2,-6.1584003E-2,-7.0844844E-2,-6.6648416E-2,-1.4544015E-2,5.1068343E-2,-6.0419153E-2],"split_indices":[8,9,8,8,4,4,8,8,0,2,0,9,0,4,0,8,0,8,9,0,8,1,8,2,9,9,1,8,2,0,1,8,0,2,8,1,2,8,0,2,0,1,0,1,1,9,4,2,0,0,1,0,0,0,0,0,0,0,0,0,0,0,0,0,0,0,0,0,0,0,0,0,0,0,0,0,0,0,0,0,0,0,0,0,0,0,0,0,0,0,0,0,0],"split_type":[0,0,0,0,0,0,0,0,0,0,0,0,0,0,0,0,0,0,0,0,0,0,0,0,0,0,0,0,0,0,0,0,0,0,0,0,0,0,0,0,0,0,0,0,0,0,0,0,0,0,0,0,0,0,0,0,0,0,0,0,0,0,0,0,0,0,0,0,0,0,0,0,0,0,0,0,0,0,0,0,0,0,0,0,0,0,0,0,0,0,0,0,0],"sum_hessian":[3.2821023E4,8.254381E3,2.4566643E4,8.53206E2,7.401175E3,2.175395E4,2.8126943E3,6.679049E2,1.8530112E2,6.289615E3,1.1115594E3,1.2725748E4,9.0282E3,7.431708E2,2.0695234E3,2.2566989E2,4.42235E2,5.027459E3,1.2621564E3,4.2606906E2,6.854904E2,2.9826138E3,9.743135E3,7.252405E2,8.30296E3,6.962818E2,4.6888947E1,8.567979E1,1.399901E2,9.997866E1,3.4225635E2,3.697724E3,1.3297347E3,9.3506555E2,3.2709076E2,3.252214E2,1.00847664E2,5.3103394E2,1.5445648E2,3.6380136E2,2.6188123E3,9.152907E3,5.9022766E2,5.456993E2,1.7954123E2,2.8830625E3,5.4198975E3,4.9716377E1,6.465654E2,1.9087303E1,2.7801641E1,5.697396E1,2.8705828E1,1.3317197E2,6.818129E0,1.7190493E1,8.278816E1,3.340898E2,8.166535E0,3.658716E3,3.900802E1,2.3729908E1,9.113357E2,2.6438095E2,6.27098E1,3.2390424E2,1.3171619E0,3.3690723E1,6.7156944E1,1.4825922E2,3.8277472E2,2.6801547E2,9.5785904E1,2.5251763E3,9.3636024E1,1.4325613E3,7.7203457E3,1.3931355E2,4.063857E2,1.637153E2,1.5825929E1,7.4495776E2,2.1381047E3,2.8363647E3,2.5835325E3,4.4327744E1,5.3886347E0,3.5404926E2,2.925162E2,1.3597634E1,5.489669E0,2.365546E1,4.1461816E0],"tree_param":{"num_deleted":"0","num_feature":"10","num_nodes":"93","size_leaf_vector":"1"}},{"base_weights":[-1.1570484E-3,-9.836632E-1,3.2470962E-1,-1.1708618E0,-3.9428943E-1,5.3365505E-1,-1.3170366E0,-1.2091585E0,-7.224766E-1,-9.602622E-1,6.479907E-2,1.4914137E-1,9.732076E-1,-1.1831187E0,-6.824626E-2,-6.749649E-2,-1.1341093E0,-1.3049061E0,-5.56491E-1,-1.299785E0,-6.365464E-1,2.512957E-1,-7.1073405E-2,7.427816E-2,7.38328E-2,-5.7946116E-1,1.0791926E0,-1.2395825E0,3.2357097E-1,-9.6151304E-1,-6.859776E-2,-6.644802E-2,-7.0425624E-1,-3.8667312E-1,-6.911663E-2,-1.3499702E0,-1.0365133E0,-3.8926452E-1,-7.097966E-2,8.992854E-2,8.6259365E-2,-1.0989773E0,1.46025E-1,-8.1817245E-1,1.0617069E0,6.7690945E-1,1.1365377E0,-1.2760481E0,-3.7633112E-1,-6.1745238E-2,8.8528574E-1,-5.0947875E-2,9.893831E-2,-5.5890203E-2,3.5627995E-2,-2.9384235E-2,9.5612824E-2,-3.079435E-2,-6.7876615E-2,-6.676536E-2,-2.9451063E-2,-5.4756105E-2,3.8197904E-3,-1.3482185E-2,3.244203E-2,-6.891325E-2,-2.0811757E-2,-3.4019098E-2,9.515035E-3,-4.7860175E-2,7.394355E-2,-5.455301E-2,6.508504E-2,5.1778615E-2,3.7793347E-3,4.5671828E-2,6.115494E-2,-5.899414E-2,-6.860635E-2,-5.351547E-2,3.5407692E-2,-3.2636363E-2,6.3068606E-2],"categories":[],"categories_nodes":[],"categories_segments":[],"categories_sizes":[],"default_left":[0,0,0,0,0,0,0,0,0,0,0,0,0,0,0,0,0,0,0,0,0,0,0,0,0,0,0,0,0,0,0,0,0,0,0,0,0,0,0,0,0,0,0,0,0,0,0,0,0,0,0,0,0,0,0,0,0,0,0,0,0,0,0,0,0,0,0,0,0,0,0,0,0,0,0,0,0,0,0,0,0,0,0],"id":13,"left_children":[1,3,5,7,9,11,13,15,17,19,21,23,25,27,-1,-1,29,31,33,35,37,39,-1,41,-1,43,45,47,49,51,-1,-1,53,55,-1,57,59,61,-1,63,-1,65,67,69,71,73,75,77,79,-1,81,-1,-1,-1,-1,-1,-1,-1,-1,-1,-1,-1,-1,-1,-1,-1,-1,-1,-1,-1,-1,-1,-1,-1,-1,-1,-1,-1,-1,-1,-1,-1,-1],"loss_changes":[1.0307671E4,8.842207E2,8.294016E3,1.03618164E2,5.0268845E2,3.624772E3,1.589209E1,5.768164E1,4.580484E1,9.440057E1,2.9666803E2,1.1369332E3,1.6474238E3,6.2211487E1,0E0,0E0,1.4901123E2,5.9562683E-1,5.224035E1,4.175415E0,8.571054E1,2.2595029E2,0E0,9.1192114E2,0E0,2.5163747E2,2.1534668E2,2.1571411E1,2.4762272E1,3.6100806E2,0E0,0E0,4.4344935E0,1.460033E2,0E0,1.1127319E0,8.82151E0,1.1182334E2,0E0,1.7258928E2,0E0,1.1847052E2,3.736417E2,1.8006042E2,4.3639122E1,2.5253589E2,1.572002E2,4.5872803E0,2.3193377E1,0E0,1.2655985E1,0E0,0E0,0E0,0E0,0E0,0E0,0E0,0E0,0E0,0E0,0E0,0E0,0E0,0E0,0E0,0E0,0E0,0E0,0E0,0E0,0E0,0E0,0E0,0E0,0E0,0E0,0E0,0E0,0E0,0E0,0E0,0E0],"parents":[2147483647,0,0,1,1,2,2,3,3,4,4,5,5,6,6,7,7,8,8,9,9,10,10,11,11,12,12,13,13,16,16,17,17,18,18,19,19,20,20,21,21,23,23,25,25,26,26,27,27,28,28,29,29,32,32,33,33,35,35,36,36,37,37,39,39,41,41,42,42,43,43,44,44,45,45,46,46,47,47,48,48,50,50],"right_children":[2,4,6,8,10,12,14,16,18,20,22,24,26,28,-1,-1,30,32,34,36,38,40,-1,42,-1,44,46,48,50,52,-1,-1,54,56,-1,58,60,62,-1,64,-1,66,68,70,72,74,76,78,80,-1,82,-1,-1,-1,-1,-1,-1,-1,-1,-1,-1,-1,-1,-1,-1,-1,-1,-1,-1,-1,-1,-1,-1,-1,-1,-1,-1,-1,-1,-1,-1,-1,-1],"split_conditions":[1.1E1,1.6100669E-3,2.1E1,8.164795E0,1.6643991E1,1.3200132E-3,2.2E1,6E0,6E0,8.689632E0,8E0,1.6E1,7.816417E0,3.982197E-3,-6.824626E-2,-6.749649E-2,8E0,2.3484852E1,8E0,8.019941E0,8E0,7E0,-7.1073405E-2,9.807993E-4,7.38328E-2,1.462282E1,1.03449955E1,4.725495E-2,9.472781E0,7E0,-6.859776E-2,-6.644802E-2,1.2928142E-2,7E0,-6.911663E-2,1.6397578E-3,6.3619623E-3,6E0,-7.097966E-2,5.7971016E-2,8.6259365E-2,1.0682836E1,1.0968112E1,1.6E1,1.5E1,5.3612924E0,2.491067E-3,1.893161E1,1.1846782E-3,-6.1745238E-2,1.9002376E-2,-5.0947875E-2,9.893831E-2,-5.5890203E-2,3.5627995E-2,-2.9384235E-2,9.5612824E-2,-3.079435E-2,-6.7876615E-2,-6.676536E-2,-2.9451063E-2,-5.4756105E-2,3.8197904E-3,-1.3482185E-2,3.244203E-2,-6.891325E-2,-2.0811757E-2,-3.4019098E-2,9.515035E-3,-4.7860175E-2,7.394355E-2,-5.455301E-2,6.508504E-2,5.1778615E-2,3.7793347E-3,4.5671828E-2,6.115494E-2,-5.899414E-2,-6.860635E-2,-5.351547E-2,3.5407692E-2,-3.2636363E-2,6.3068606E-2],"split_indices":[8,5,8,2,1,5,8,8,8,0,8,8,0,5,0,0,8,1,8,0,8,8,0,4,0,1,0,4,0,8,0,0,4,8,0,5,5,8,0,4,0,0,1,8,8,2,5,1,5,0,4,0,0,0,0,0,0,0,0,0,0,0,0,0,0,0,0,0,0,0,0,0,0,0,0,0,0,0,0,0,0,0,0],"split_type":[0,0,0,0,0,0,0,0,0,0,0,0,0,0,0,0,0,0,0,0,0,0,0,0,0,0,0,0,0,0,0,0,0,0,0,0,0,0,0,0,0,0,0,0,0,0,0,0,0,0,0,0,0,0,0,0,0,0,0,0,0,0,0,0,0,0,0,0,0,0,0,0,0,0,0,0,0,0,0,0,0,0,0],"sum_hessian":[3.2192771E4,8.017511E3,2.4175262E4,6.08408E3,1.9334309E3,2.1446441E4,2.7288188E3,5.6037656E3,4.8031467E2,8.654261E2,1.0680049E3,1.1440133E4,1.000631E4,7.25553E2,2.0032659E3,1.9427424E3,3.6610232E3,1.0500374E2,3.7531094E2,4.2092847E2,4.4449762E2,9.4967114E2,1.18333694E2,1.0830424E4,6.097096E2,6.390996E2,9.36721E3,6.995156E2,2.6037376E1,2.124438E3,1.5365852E3,9.979473E1,5.209012E0,3.125164E2,6.2794556E1,3.500701E2,7.085837E1,3.3895474E2,1.055429E2,8.56914E2,9.275713E1,6.233092E2,1.0207114E4,5.583831E2,8.071649E1,1.1702886E3,8.196921E3,6.707054E2,2.881021E1,6.5807233E0,1.9456652E1,2.0843691E3,4.006899E1,4.195463E0,1.0135491E0,2.8807254E2,2.4443838E1,4.4100466E0,3.4566006E2,4.1298832E1,2.9559534E1,1.3419199E2,2.0476274E2,5.217605E2,3.351535E2,4.4163284E2,1.8167635E2,5.183185E2,9.688796E3,5.270652E2,3.1317911E1,7.7401767E0,7.297632E1,7.3260156E2,4.3768704E2,2.2945466E3,5.9023745E3,3.4183914E2,3.2886624E2,1.757608E1,1.1234129E1,3.6783574E0,1.5778295E1],"tree_param":{"num_deleted":"0","num_feature":"10","num_nodes":"83","size_leaf_vector":"1"}},{"base_weights":[2.6302119E-3,-1.2907333E0,5.6747526E-1,-1.3385204E0,-7.4424344E-1,-5.8504534E-1,7.855221E-1,-1.3504527E0,-1.0834398E0,-9.202776E-1,-2.9938656E-1,-3.8532513E-1,-6.929492E-2,9.214853E-1,-1.2292119E0,-1.2981541E0,-1.3926516E0,-1.2409596E0,3.4258252E-1,-1.2617419E0,-5.4152113E-1,7.031493E-1,-1.3083078E0,-1.1095133E0,-2.7336137E-2,6.741447E-1,1.1287899E0,-9.35847E-1,-6.733924E-2,-1.3263193E0,-1.2107688E0,-1.4035547E0,-1.177422E0,-1.3233972E0,-8.6244696E-1,-5.8888364E-1,8.2312137E-1,-1.2759688E0,4.2453405E-2,-7.993677E-1,2.8249323E-1,-7.180788E-2,8.214379E-1,-3.7723964E-3,-6.6497885E-2,-5.911476E-1,-1.2938457E0,-3.8035247E-1,5.318486E-1,7.3565096E-1,-3.846221E-1,-7.7829087E-1,1.1365334E0,-1.1017292E0,8.4685963E-1,-5.132268E-2,-6.644771E-2,-6.4717166E-2,-4.718078E-2,-7.171473E-2,-6.60665E-2,-1.51383905E-2,-6.310381E-2,-6.69181E-2,-2.831912E-2,-7.506937E-2,-1.9363848E-2,1.0444038E-2,-6.0700472E-2,4.6132356E-2,-2.2399949E-2,-6.665826E-2,-5.0145276E-2,-2.2134144E-2,-6.0923696E-2,4.670365E-2,-2.089881E-3,5.086855E-2,1.7201245E-2,-7.5490326E-2,9.738018E-2,-6.589633E-2,-3.492656E-2,-2.5100498E-2,7.938179E-2,-3.799573E-2,3.3285152E-2,5.6552507E-2,2.9663647E-2,-4.7709733E-2,1.4762941E-2,4.6582157E-3,-9.216922E-2,6.40112E-2,5.2925106E-2,-6.106149E-2,2.0130197E-2,-4.0300906E-2,5.871115E-2],"categories":[],"categories_nodes":[],"categories_segments":[],"categories_sizes":[],"default_left":[0,0,0,0,0,0,0,0,0,0,0,0,0,0,0,0,0,0,0,0,0,0,0,0,0,0,0,0,0,0,0,0,0,0,0,0,0,0,0,0,0,0,0,0,0,0,0,0,0,0,0,0,0,0,0,0,0,0,0,0,0,0,0,0,0,0,0,0,0,0,0,0,0,0,0,0,0,0,0,0,0,0,0,0,0,0,0,0,0,0,0,0,0,0,0,0,0,0,0],"id":14,"left_children":[1,3,5,7,9,11,13,15,17,19,21,23,-1,25,27,29,31,33,35,37,39,41,43,45,47,49,51,53,-1,55,57,59,61,63,65,67,69,71,-1,73,75,-1,77,-1,-1,79,81,83,85,87,89,91,93,95,97,-1,-1,-1,-1,-1,-1,-1,-1,-1,-1,-1,-1,-1,-1,-1,-1,-1,-1,-1,-1,-1,-1,-1,-1,-1,-1,-1,-1,-1,-1,-1,-1,-1,-1,-1,-1,-1,-1,-1,-1,-1,-1,-1,-1],"loss_changes":[2.3276357E4,2.5192773E2,5.573468E3,2.5640625E1,6.0888092E1,5.638645E2,5.1095723E3,1.6958008E1,9.095105E1,7.1628876E1,2.2640181E2,7.3253955E2,0E0,8.950303E2,3.941809E1,7.776367E0,9.358398E0,1.0189697E1,1.8779217E1,9.890808E0,5.692054E1,2.9639786E1,2.8746033E0,8.855029E1,3.7368158E2,5.1919507E2,1.412168E2,1.0168591E2,0E0,9.0478516E-1,1.9779541E1,9.380859E0,1.6828583E1,2.598816E0,2.0007496E1,7.4810987E0,3.8770733E0,3.2191162E0,0E0,2.9881805E1,1.3633298E1,0E0,9.678436E0,0E0,0E0,5.791014E2,8.9522705E0,2.7861523E2,1.2717868E2,4.2331177E2,1.6995084E2,3.6391975E1,1.04768555E2,5.660382E1,1.694618E1,0E0,0E0,0E0,0E0,0E0,0E0,0E0,0E0,0E0,0E0,0E0,0E0,0E0,0E0,0E0,0E0,0E0,0E0,0E0,0E0,0E0,0E0,0E0,0E0,0E0,0E0,0E0,0E0,0E0,0E0,0E0,0E0,0E0,0E0,0E0,0E0,0E0,0E0,0E0,0E0,0E0,0E0,0E0,0E0],"parents":[2147483647,0,0,1,1,2,2,3,3,4,4,5,5,6,6,7,7,8,8,9,9,10,10,11,11,13,13,14,14,15,15,16,16,17,17,18,18,19,19,20,20,21,21,22,22,23,23,24,24,25,25,26,26,27,27,29,29,30,30,31,31,32,32,33,33,34,34,35,35,36,36,37,37,39,39,40,40,42,42,45,45,46,46,47,47,48,48,49,49,50,50,51,51,52,52,53,53,54,54],"right_children":[2,4,6,8,10,12,14,16,18,20,22,24,-1,26,28,30,32,34,36,38,40,42,44,46,48,50,52,54,-1,56,58,60,62,64,66,68,70,72,-1,74,76,-1,78,-1,-1,80,82,84,86,88,90,92,94,96,98,-1,-1,-1,-1,-1,-1,-1,-1,-1,-1,-1,-1,-1,-1,-1,-1,-1,-1,-1,-1,-1,-1,-1,-1,-1,-1,-1,-1,-1,-1,-1,-1,-1,-1,-1,-1,-1,-1,-1,-1,-1,-1,-1,-1],"split_conditions":[4.7706847E0,4.3694477E0,1.1E1,5.362826E-3,1.5E1,8E0,2.1E1,1.1E1,1.2301388E1,1.109287E1,1.9E1,6E0,-6.929492E-2,2.4380356E-2,2.2E1,4.0191316E-4,4.1431346E0,9.314791E0,5.5555556E-2,1.8527803E1,2.7605244E-3,9.807993E-4,2E0,5E0,3.5736173E-2,2.1987621E1,9.153559E0,3.5736173E-2,-6.733924E-2,1E0,1.8731722E1,1.6E1,5E0,4.3307333E0,3.5263605E0,6.3619623E-3,1.9081824E-1,9.878221E0,4.2453405E-2,2.8037382E-2,4.1780822E-2,-7.180788E-2,1.1279744E1,-3.7723964E-3,-6.6497885E-2,3E0,1.25E-1,7E0,9.472781E0,5E0,7E0,7.801855E-2,5E0,8.273082E0,1.1641444E-3,-5.132268E-2,-6.644771E-2,-6.4717166E-2,-4.718078E-2,-7.171473E-2,-6.60665E-2,-1.51383905E-2,-6.310381E-2,-6.69181E-2,-2.831912E-2,-7.506937E-2,-1.9363848E-2,1.0444038E-2,-6.0700472E-2,4.6132356E-2,-2.2399949E-2,-6.665826E-2,-5.0145276E-2,-2.2134144E-2,-6.0923696E-2,4.670365E-2,-2.089881E-3,5.086855E-2,1.7201245E-2,-7.5490326E-2,9.738018E-2,-6.589633E-2,-3.492656E-2,-2.5100498E-2,7.938179E-2,-3.799573E-2,3.3285152E-2,5.6552507E-2,2.9663647E-2,-4.7709733E-2,1.4762941E-2,4.6582157E-3,-9.216922E-2,6.40112E-2,5.2925106E-2,-6.106149E-2,2.0130197E-2,-4.0300906E-2,5.871115E-2],"split_indices":[3,3,8,5,8,8,8,8,0,0,8,8,0,4,8,5,3,0,4,1,5,4,9,8,4,1,1,4,0,9,1,8,9,3,3,5,4,0,0,4,4,0,0,0,0,8,4,8,0,9,9,4,9,3,5,0,0,0,0,0,0,0,0,0,0,0,0,0,0,0,0,0,0,0,0,0,0,0,0,0,0,0,0,0,0,0,0,0,0,0,0,0,0,0,0,0,0,0,0],"split_type":[0,0,0,0,0,0,0,0,0,0,0,0,0,0,0,0,0,0,0,0,0,0,0,0,0,0,0,0,0,0,0,0,0,0,0,0,0,0,0,0,0,0,0,0,0,0,0,0,0,0,0,0,0,0,0,0,0,0,0,0,0,0,0,0,0,0,0,0,0,0,0,0,0,0,0,0,0,0,0,0,0,0,0,0,0,0,0,0,0,0,0,0,0,0,0,0,0,0,0],"sum_hessian":[3.1859414E4,9.684008E3,2.2175406E4,8.903964E3,7.8004425E2,3.5276702E3,1.8647734E4,8.501958E3,4.02006E2,5.5812146E2,2.2192279E2,2.8247124E3,7.029579E2,1.7469367E4,1.1783674E3,3.8108225E3,4.6911353E3,3.621341E2,3.9871895E1,2.922842E2,2.6583728E2,1.1146566E2,1.1045714E2,9.337329E2,1.8909795E3,7.9674473E3,9.50192E3,3.3970453E2,8.386629E2,2.8712207E3,9.396018E2,4.4596934E3,2.3144206E2,2.9531924E2,6.681485E1,1.3492623E1,2.6379272E1,2.9072025E2,1.5639609E0,2.0250142E2,6.333586E1,5.2565875E0,1.0620907E2,1.9836388E0,1.08473495E2,2.4604114E2,6.876918E2,1.1593778E3,7.316016E2,7.5302993E3,4.37148E2,3.802281E1,9.463897E3,3.1113516E2,2.8569366E1,2.8411346E1,2.8428093E3,7.1277625E2,2.2682553E2,3.2341533E3,1.2255398E3,2.0827448E1,2.1061462E2,2.8884146E2,6.4778104E0,2.7575535E1,3.923931E1,6.2203193E0,7.2723036E0,2.4718054E1,1.6612191E0,2.3716162E2,5.3558628E1,1.1050834E2,9.199307E1,2.0422234E1,4.2913628E1,7.4502014E1,3.1707054E1,1.8096384E2,6.507731E1,6.597888E2,2.7902927E1,1.0925813E3,6.6796486E1,6.825254E1,6.6334906E2,1.9918297E3,5.5384697E3,2.3765132E2,1.9949669E2,2.1414268E1,1.6608541E1,3.3252349E3,6.1386626E3,2.8841254E2,2.2722616E1,4.481226E0,2.408814E1],"tree_param":{"num_deleted":"0","num_feature":"10","num_nodes":"99","size_leaf_vector":"1"}},{"base_weights":[-2.5165963E-3,-3.666379E-1,5.894545E-1,3.6677414E-1,-4.977145E-1,-5.761946E-1,8.0614316E-1,1.3020672E-1,7.4925214E-1,-8.243459E-1,-3.7096238E-1,-1.008175E0,-1.2153888E-1,1.2046454E0,6.0687757E-1,-2.237196E-1,4.550298E-1,8.16265E-1,-8.482659E-1,-5.514812E-1,-9.1666156E-1,6.099467E-1,-4.4062197E-1,-1.3299514E-1,-1.1621001E0,6.8567944E-1,-3.4781283E-1,1.2140915E0,-3.466391E-1,3.2904688E-1,8.853097E-1,-4.316383E-1,3.962641E-1,-1.2277527E0,5.228597E-1,1.1224253E-1,9.654966E-1,-1.2582499E0,3.871554E-1,-3.198553E-1,-1.3726249E0,-1.2845268E0,-8.740891E-1,-4.197602E-1,8.9173144E-1,-1.1435219E0,-3.6723614E-1,-6.7919177E-1,4.3901113E-1,-1.2613323E0,-8.255227E-1,-4.8624253E-1,8.50679E-1,-4.847003E-1,1.2934632E0,1.0755258E0,1.2488147E0,-1.155685E0,8.280264E-1,6.0461173E-3,7.0636135E-1,-1.8790752E-1,9.348168E-1,-1.5152656E-2,-6.277665E-2,2.8276164E-2,-7.281085E-2,-7.581506E-2,-2.859476E-2,4.073551E-2,1.4886396E-2,1.5528192E-2,-3.2001294E-2,5.0219007E-2,1.9591028E-2,4.009245E-2,-7.642664E-2,5.927062E-2,-2.4556775E-2,-6.1509937E-2,6.0139986E-4,-8.330257E-2,-6.2447518E-2,1.3443851E-3,-6.521308E-2,-2.1673827E-2,-4.7094133E-2,1.5486225E-3,-5.774621E-2,5.6393333E-2,3.4287512E-2,-6.4015396E-2,-2.9536834E-2,-3.4631163E-2,-1.0664181E-2,-5.2014183E-2,-1.0562296E-2,4.736821E-2,-3.700969E-3,-6.355974E-2,2.22444E-2,-9.849023E-3,-5.2790064E-2,-4.2356458E-2,4.4688646E-2,5.1185828E-2,-6.649042E-5,3.8524568E-3,-4.022139E-2,6.81167E-2,5.351509E-3,5.641928E-2,3.3053648E-2,6.251995E-2,-6.0529005E-2,-7.556437E-2,-1.3390578E-2,5.6131493E-2,-8.97736E-4,-2.6571218E-2,1.3109135E-2,3.0406022E-3,4.3028362E-2,3.7591513E-2,-4.7712855E-2,2.1917464E-2,5.060432E-2],"categories":[],"categories_nodes":[],"categories_segments":[],"categories_sizes":[],"default_left":[0,0,0,0,0,0,0,0,0,0,0,0,0,0,0,0,0,0,0,0,0,0,0,0,0,0,0,0,0,0,0,0,0,0,0,0,0,0,0,0,0,0,0,0,0,0,0,0,0,0,0,0,0,0,0,0,0,0,0,0,0,0,0,0,0,0,0,0,0,0,0,0,0,0,0,0,0,0,0,0,0,0,0,0,0,0,0,0,0,0,0,0,0,0,0,0,0,0,0,0,0,0,0,0,0,0,0,0,0,0,0,0,0,0,0,0,0,0,0,0,0,0,0,0,0,0,0],"id":15,"left_children":[1,3,5,7,9,11,13,15,17,19,21,23,25,27,29,31,33,35,37,39,41,43,45,47,49,51,53,55,57,59,61,63,65,67,69,71,73,75,77,79,81,83,85,87,89,91,93,95,97,99,101,103,105,107,109,111,113,115,117,119,121,123,125,-1,-1,-1,-1,-1,-1,-1,-1,-1,-1,-1,-1,-1,-1,-1,-1,-1,-1,-1,-1,-1,-1,-1,-1,-1,-1,-1,-1,-1,-1,-1,-1,-1,-1,-1,-1,-1,-1,-1,-1,-1,-1,-1,-1,-1,-1,-1,-1,-1,-1,-1,-1,-1,-1,-1,-1,-1,-1,-1,-1,-1,-1,-1,-1],"loss_changes":[6.7017876E3,1.8508049E3,2.9913135E3,2.640566E2,6.7586694E2,3.6454382E2,7.9218115E2,2.0760797E2,1.201051E2,1.144895E2,