{"learner":{"attributes":{"scikit_learn":"{\"_estimator_type\": \"classifier\"}"},"feature_names":["subscriber_count","view_count","video_count","duration_seconds","like_rate","comment_rate","topic","country_region"],"feature_types":["float","float","float","float","float","float","int","int"],"gradient_booster":{"model":{"cats":{"enc":[],"feature_segments":[],"sorted_idx":[]},"gbtree_model_param":{"num_parallel_tree":"1","num_trees":"300"},"iteration_indptr":[0,1,2,3,4,5,6,7,8,9,10,11,12,13,14,15,16,17,18,19,20,21,22,23,24,25,26,27,28,29,30,31,32,33,34,35,36,37,38,39,40,41,42,43,44,45,46,47,48,49,50,51,52,53,54,55,56,57,58,59,60,61,62,63,64,65,66,67,68,69,70,71,72,73,74,75,76,77,78,79,80,81,82,83,84,85,86,87,88,89,90,91,92,93,94,95,96,97,98,99,100,101,102,103,104,105,106,107,108,109,110,111,112,113,114,115,116,117,118,119,120,121,122,123,124,125,126,127,128,129,130,131,132,133,134,135,136,137,138,139,140,141,142,143,144,145,146,147,148,149,150,151,152,153,154,155,156,157,158,159,160,161,162,163,164,165,166,167,168,169,170,171,172,173,174,175,176,177,178,179,180,181,182,183,184,185,186,187,188,189,190,191,192,193,194,195,196,197,198,199,200,201,202,203,204,205,206,207,208,209,210,211,212,213,214,215,216,217,218,219,220,221,222,223,224,225,226,227,228,229,230,231,232,233,234,235,236,237,238,239,240,241,242,243,244,245,246,247,248,249,250,251,252,253,254,255,256,257,258,259,260,261,262,263,264,265,266,267,268,269,270,271,272,273,274,275,276,277,278,279,280,281,282,283,284,285,286,287,288,289,290,291,292,293,294,295,296,297,298,299,300],"tree_info":[0,0,0,0,0,0,0,0,0,0,0,0,0,0,0,0,0,0,0,0,0,0,0,0,0,0,0,0,0,0,0,0,0,0,0,0,0,0,0,0,0,0,0,0,0,0,0,0,0,0,0,0,0,0,0,0,0,0,0,0,0,0,0,0,0,0,0,0,0,0,0,0,0,0,0,0,0,0,0,0,0,0,0,0,0,0,0,0,0,0,0,0,0,0,0,0,0,0,0,0,0,0,0,0,0,0,0,0,0,0,0,0,0,0,0,0,0,0,0,0,0,0,0,0,0,0,0,0,0,0,0,0,0,0,0,0,0,0,0,0,0,0,0,0,0,0,0,0,0,0,0,0,0,0,0,0,0,0,0,0,0,0,0,0,0,0,0,0,0,0,0,0,0,0,0,0,0,0,0,0,0,0,0,0,0,0,0,0,0,0,0,0,0,0,0,0,0,0,0,0,0,0,0,0,0,0,0,0,0,0,0,0,0,0,0,0,0,0,0,0,0,0,0,0,0,0,0,0,0,0,0,0,0,0,0,0,0,0,0,0,0,0,0,0,0,0,0,0,0,0,0,0,0,0,0,0,0,0,0,0,0,0,0,0,0,0,0,0,0,0,0,0,0,0,0,0,0,0,0,0,0,0,0,0,0,0,0,0,0,0,0,0,0,0,0,0,0,0,0,0],"trees":[{"base_weights":[9.6465356E-4,-1.8891767E0,8.9942497E-1,-1.9311954E0,-9.0296674E-1,-9.907716E-1,1.2501928E0,-1.9598821E0,-1.6188673E0,-1.161294E0,1.4181758E-1,-1.4178462E0,-1.2813048E-1,1.4692467E0,-1.8344625E0,-1.9743574E0,-1.7322801E0,-1.7280849E0,-8.672324E-1,-1.4560714E0,-5.430446E-1,-1.4462531E0,8.07227E-1,-4.705191E-1,-1.5387849E0,2.1343361E-1,-9.95104E-2,1.0901269E0,1.7553746E0,-1.5246813E0,-9.8039865E-2,-9.917933E-2,-9.58683E-2,-9.402294E-2,6.603231E-3,-5.9468012E-2,-8.8692985E-2,-8.0128476E-2,1.4674789E-2,-9.209167E-2,-5.637E-2,3.5498403E-2,-9.836066E-2,-8.362996E-2,-2.3038307E-2,-1.4573409E-2,6.3029915E-2,1.1643548E-2,-9.896104E-2,-9.641343E-2,-6.7073755E-2,-5.2048147E-2,3.1810623E-2,6.051392E-2,-2.134213E-3,9.6849814E-2,8.1706904E-2,-8.6995654E-2,-4.2591947E-3],"categories":[],"categories_nodes":[],"categories_segments":[],"categories_sizes":[],"default_left":[0,0,0,0,0,0,0,0,0,0,0,0,0,0,0,0,0,0,0,0,0,0,0,0,0,0,0,0,0,0,0,0,0,0,0,0,0,0,0,0,0,0,0,0,0,0,0,0,0,0,0,0,0,0,0,0,0,0,0],"id":0,"left_children":[1,3,5,7,9,11,13,15,17,19,21,23,25,27,29,31,33,35,37,39,41,43,45,47,49,51,-1,53,55,57,-1,-1,-1,-1,-1,-1,-1,-1,-1,-1,-1,-1,-1,-1,-1,-1,-1,-1,-1,-1,-1,-1,-1,-1,-1,-1,-1,-1,-1],"loss_changes":[6.3605137E4,4.983164E2,1.6833148E4,1.00515625E2,1.3376617E2,1.463971E3,1.4471934E4,3.1488281E1,7.889502E1,7.155902E1,1.0580516E2,3.0381104E2,8.3813696E2,2.166996E3,5.259424E1,1.4296875E0,1.775216E2,1.8951172E1,1.0823161E2,3.1931335E1,2.3296371E2,5.8313446E0,3.5446873E1,3.2133304E2,1.7852637E2,5.913827E2,0E0,1.1709004E3,2.476914E2,1.2871552E2,0E0,0E0,0E0,0E0,0E0,0E0,0E0,0E0,0E0,0E0,0E0,0E0,0E0,0E0,0E0,0E0,0E0,0E0,0E0,0E0,0E0,0E0,0E0,0E0,0E0,0E0,0E0,0E0,0E0],"parents":[2147483647,0,0,1,1,2,2,3,3,4,4,5,5,6,6,7,7,8,8,9,9,10,10,11,11,12,12,13,13,14,14,15,15,16,16,17,17,18,18,19,19,20,20,21,21,22,22,23,23,24,24,25,25,27,27,28,28,29,29],"right_children":[2,4,6,8,10,12,14,16,18,20,22,24,26,28,30,32,34,36,38,40,42,44,46,48,50,52,-1,54,56,58,-1,-1,-1,-1,-1,-1,-1,-1,-1,-1,-1,-1,-1,-1,-1,-1,-1,-1,-1,-1,-1,-1,-1,-1,-1,-1,-1,-1,-1],"split_conditions":[4.7791233E0,4.553877E0,1.1E1,4.1743875E0,3.144654E-3,1.9069413E-3,2.1E1,3.8940203E-3,3.496149E-3,1.5E1,1.4358598E1,5E0,8E0,1.1890606E-3,2.2E1,1.3687678E1,1.2301388E1,5E0,1.108523E1,1.0591647E1,1.9E1,7.875119E0,7E0,8E0,6E0,6E0,-9.95104E-2,1.4920768E1,5E0,2.2216716E-3,-9.8039865E-2,-9.917933E-2,-9.58683E-2,-9.402294E-2,6.603231E-3,-5.9468012E-2,-8.8692985E-2,-8.0128476E-2,1.4674789E-2,-9.209167E-2,-5.637E-2,3.5498403E-2,-9.836066E-2,-8.362996E-2,-2.3038307E-2,-1.4573409E-2,6.3029915E-2,1.1643548E-2,-9.896104E-2,-9.641343E-2,-6.7073755E-2,-5.2048147E-2,3.1810623E-2,6.051392E-2,-2.134213E-3,9.6849814E-2,8.1706904E-2,-8.6995654E-2,-4.2591947E-3],"split_indices":[3,3,6,3,5,5,6,5,5,6,1,7,6,5,6,0,0,7,0,0,6,0,6,6,6,6,0,0,7,5,0,0,0,0,0,0,0,0,0,0,0,0,0,0,0,0,0,0,0,0,0,0,0,0,0,0,0,0,0],"split_type":[0,0,0,0,0,0,0,0,0,0,0,0,0,0,0,0,0,0,0,0,0,0,0,0,0,0,0,0,0,0,0,0,0,0,0,0,0,0,0,0,0,0,0,0,0,0,0,0,0,0,0,0,0,0,0,0,0,0,0],"sum_hessian":[3.7452066E4,1.2066335E4,2.5385729E4,1.1572324E4,4.9401083E2,3.9732253E3,2.1412504E4,1.0594013E4,9.7831195E2,3.9598935E2,9.802149E1,2.6571067E3,1.3161185E3,1.9993227E4,1.4192772E3,9.953313E3,6.4069885E2,8.530578E2,1.2525415E2,2.6722363E2,1.2876572E2,2.8597363E1,6.942413E1,3.013656E2,2.3557412E3,1.1128685E3,2.0325E2,8.601298E3,1.1391929E4,4.1492413E2,1.00435315E3,8.537035E3,1.4162789E3,5.9351733E2,4.7181538E1,6.8919975E1,7.841378E2,7.6444725E1,4.880943E1,1.2081683E2,1.4640678E2,6.876572E1,6E1,2.2688946E1,5.9084177E0,2.038367E1,4.9040462E1,2.061156E2,9.525E1,7.8917E2,1.5665712E3,2.8016095E2,8.327075E2,7.7764243E3,8.248741E2,4.554283E3,6.8376455E3,3.6077313E2,5.4151012E1],"tree_param":{"num_deleted":"0","num_feature":"8","num_nodes":"59","size_leaf_vector":"1"}},{"base_weights":[1.7091564E-3,-1.8023033E0,8.551176E-1,-1.8556057E0,-1.1598086E0,4.07587E-1,1.3516054E0,-1.873048E0,-1.5885653E0,-1.3429507E0,-1.8497945E-1,1.2938198E0,1.5780377E-1,1.7822568E0,1.1008209E0,-1.8775564E0,-1.0230469E0,-1.8206359E0,-2.458947E-1,-4.5904303E-1,-1.4315182E0,-1.493494E0,6.219556E-1,1.3549016E0,-9.0012014E-1,-6.5826184E-1,5.1443917E-1,4.817846E-3,1.7958184E0,-1.4036874E-2,1.2442962E0,-9.426432E-2,-8.714663E-2,-7.8248136E-2,6.271738E-3,-9.257277E-2,-5.65822E-2,4.6915937E-2,-2.7475202E-2,8.106888E-2,-3.0718213E-2,-4.7545284E-2,-7.6874666E-2,4.4854634E-2,-7.915696E-2,6.3284053E-3,5.2640643E-2,5.5879045E-2,7.870542E-2,-6.538739E-2,4.449743E-2,-4.5085274E-2,1.0890138E-2,1.751313E-2,5.3806376E-2,2.5913784E-2,-7.3699705E-2,9.0164244E-2,-1.0481722E-3,-7.707466E-2,8.606117E-3,4.4832844E-2,7.741458E-2],"categories":[],"categories_nodes":[],"categories_segments":[],"categories_sizes":[],"default_left":[0,0,0,0,0,0,0,0,0,0,0,0,0,0,0,0,0,0,0,0,0,0,0,0,0,0,0,0,0,0,0,0,0,0,0,0,0,0,0,0,0,0,0,0,0,0,0,0,0,0,0,0,0,0,0,0,0,0,0,0,0,0,0],"id":1,"left_children":[1,3,5,7,9,11,13,15,17,19,21,23,25,27,29,31,33,35,37,39,41,43,45,47,49,51,53,55,57,59,61,-1,-1,-1,-1,-1,-1,-1,-1,-1,-1,-1,-1,-1,-1,-1,-1,-1,-1,-1,-1,-1,-1,-1,-1,-1,-1,-1,-1,-1,-1,-1,-1],"loss_changes":[5.785675E4,4.1115234E2,5.6679453E3,4.8921875E1,1.6528491E2,2.9702458E3,1.3041816E3,3.8140625E1,2.144718E2,6.0435913E1,1.5699103E2,3.965913E2,3.04733E3,1.0723828E2,1.2229688E3,7.5351562E0,3.5891582E1,1.0389282E1,3.7477493E1,2.4437958E1,3.464148E1,1.3565453E1,1.953091E1,1.4758643E2,5.9914993E1,6.79327E2,6.7151526E2,2.7106121E1,5.9933594E1,2.484301E2,7.1448145E2,0E0,0E0,0E0,0E0,0E0,0E0,0E0,0E0,0E0,0E0,0E0,0E0,0E0,0E0,0E0,0E0,0E0,0E0,0E0,0E0,0E0,0E0,0E0,0E0,0E0,0E0,0E0,0E0,0E0,0E0,0E0,0E0],"parents":[2147483647,0,0,1,1,2,2,3,3,4,4,5,5,6,6,7,7,8,8,9,9,10,10,11,11,12,12,13,13,14,14,15,15,16,16,17,17,18,18,19,19,20,20,21,21,22,22,23,23,24,24,25,25,26,26,27,27,28,28,29,29,30,30],"right_children":[2,4,6,8,10,12,14,16,18,20,22,24,26,28,30,32,34,36,38,40,42,44,46,48,50,52,54,56,58,60,62,-1,-1,-1,-1,-1,-1,-1,-1,-1,-1,-1,-1,-1,-1,-1,-1,-1,-1,-1,-1,-1,-1,-1,-1,-1,-1,-1,-1,-1,-1,-1,-1],"split_conditions":[4.7791233E0,4.3694477E0,1.6438435E-3,3.8940203E-3,3.496149E-3,5E0,5E0,9.855767E0,1.677015E1,5E0,1.4844781E1,2.1978525E1,8E0,1.1585228E1,1.5131833E1,4.1431346E0,8.417508E-4,4.248495E0,5E0,1.609438E0,4.0430512E0,3E0,1.8794748E1,3E0,7.0958934E0,8.327968E0,8.389359E0,1.598579E-2,2.3659203E1,1.0866624E1,5.041808E-2,-9.426432E-2,-8.714663E-2,-7.8248136E-2,6.271738E-3,-9.257277E-2,-5.65822E-2,4.6915937E-2,-2.7475202E-2,8.106888E-2,-3.0718213E-2,-4.7545284E-2,-7.6874666E-2,4.4854634E-2,-7.915696E-2,6.3284053E-3,5.2640643E-2,5.5879045E-2,7.870542E-2,-6.538739E-2,4.449743E-2,-4.5085274E-2,1.0890138E-2,1.751313E-2,5.3806376E-2,2.5913784E-2,-7.3699705E-2,9.0164244E-2,-1.0481722E-3,-7.707466E-2,8.606117E-3,4.4832844E-2,7.741458E-2],"split_indices":[3,3,5,5,5,7,7,2,1,7,1,1,7,1,1,3,5,3,7,2,2,7,1,7,3,3,3,5,1,1,4,0,0,0,0,0,0,0,0,0,0,0,0,0,0,0,0,0,0,0,0,0,0,0,0,0,0,0,0,0,0,0,0],"split_type":[0,0,0,0,0,0,0,0,0,0,0,0,0,0,0,0,0,0,0,0,0,0,0,0,0,0,0,0,0,0,0,0,0,0,0,0,0,0,0,0,0,0,0,0,0,0,0,0,0,0,0,0,0,0,0,0,0,0,0,0,0,0,0],"sum_hessian":[3.7578062E4,1.2067522E4,2.5510541E4,1.1141332E4,9.261904E2,1.3417721E4,1.209282E4,1.0452591E4,6.887414E2,7.7938837E2,1.4680205E2,2.949322E3,1.0468398E4,4.448195E3,7.644625E3,1.0396238E4,5.635285E1,5.869376E2,1.0180376E2,7.154539E1,7.0784296E2,5.567287E1,9.112917E1,2.869806E3,7.95162E1,3.1833347E3,7.285064E3,3.3692375E1,4.4145024E3,8.7174384E2,6.7728813E3,9.819415E3,5.768229E2,3.80406E1,1.8312252E1,5.601924E2,2.6745249E1,2.0347761E1,8.1456E1,4.314657E0,6.723073E1,1.296832E2,5.781598E2,1.6866765E0,5.3986195E1,4.2991974E1,4.81372E1,1.3808982E3,1.4889077E3,6.498704E1,1.4529154E1,2.491077E3,6.922576E2,5.63858E3,1.6464838E3,2.5491138E1,8.201238E0,4.396442E3,1.8060713E1,9.391127E1,7.778325E2,3.161473E3,3.6114082E3],"tree_param":{"num_deleted":"0","num_feature":"8","num_nodes":"63","size_leaf_vector":"1"}},{"base_weights":[-1.7487528E-3,-1.720768E0,8.115931E-1,-1.7585789E0,-8.2576E-1,1.5186656E0,5.248273E-1,-1.7858176E0,-1.4644225E0,2.0718752E-1,-9.6575624E-1,1.5343149E0,-1.0142375E0,1.553595E-1,1.0633291E0,-1.7898034E0,-9.646344E-1,-7.694536E-1,-1.5332882E0,-8.13699E-2,4.5443758E-1,-8.61233E-2,-8.117008E-1,1.3279698E0,1.6759627E0,-1.5816667E0,5.850102E-1,-5.522173E-1,4.8701826E-1,1.0291827E-1,1.2149653E0,-8.973824E-2,-7.954853E-2,-5.4464042E-2,5.848939E-2,-5.6394752E-2,1.1632751E-2,-8.00306E-2,-4.893312E-2,-7.8033893E-3,4.2795967E-2,5.5318434E-2,-4.649967E-2,7.160157E-2,1.2893303E-2,-2.5289836E-3,8.456846E-2,-8.282223E-2,1.1604008E-2,-3.6680564E-2,5.096863E-2,-2.0839354E-2,-6.148971E-2,7.424844E-2,1.958646E-2,-5.75837E-2,1.7568244E-2,4.313199E-2,7.693165E-2],"categories":[],"categories_nodes":[],"categories_segments":[],"categories_sizes":[],"default_left":[0,0,0,0,0,0,0,0,0,0,0,0,0,0,0,0,0,0,0,0,0,0,0,0,0,0,0,0,0,0,0,0,0,0,0,0,0,0,0,0,0,0,0,0,0,0,0,0,0,0,0,0,0,0,0,0,0,0,0],"id":2,"left_children":[1,3,5,7,9,11,13,15,17,19,21,23,25,27,29,31,33,35,37,-1,39,-1,41,43,45,47,49,51,53,55,57,-1,-1,-1,-1,-1,-1,-1,-1,-1,-1,-1,-1,-1,-1,-1,-1,-1,-1,-1,-1,-1,-1,-1,-1,-1,-1,-1,-1],"loss_changes":[5.216414E4,4.040664E2,5.1344863E3,8.949609E1,7.0711975E1,2.9120312E2,3.5851055E3,3.269922E1,4.571753E1,2.7511658E1,4.8680664E1,2.1005273E2,4.21893E1,2.5086108E3,1.0677344E3,7.4726562E0,1.5367275E1,3.271684E1,3.1685791E1,0E0,1.3073566E1,0E0,8.2440704E1,3.2936572E2,1.1453613E2,4.9731903E0,7.9867134E0,3.125514E2,6.915122E2,3.1239648E2,7.208174E2,0E0,0E0,0E0,0E0,0E0,0E0,0E0,0E0,0E0,0E0,0E0,0E0,0E0,0E0,0E0,0E0,0E0,0E0,0E0,0E0,0E0,0E0,0E0,0E0,0E0,0E0,0E0,0E0],"parents":[2147483647,0,0,1,1,2,2,3,3,4,4,5,5,6,6,7,7,8,8,9,9,10,10,11,11,12,12,13,13,14,14,15,15,16,16,17,17,18,18,20,20,22,22,23,23,24,24,25,25,26,26,27,27,28,28,29,29,30,30],"right_children":[2,4,6,8,10,12,14,16,18,20,22,24,26,28,30,32,34,36,38,-1,40,-1,42,44,46,48,50,52,54,56,58,-1,-1,-1,-1,-1,-1,-1,-1,-1,-1,-1,-1,-1,-1,-1,-1,-1,-1,-1,-1,-1,-1,-1,-1,-1,-1,-1,-1],"split_conditions":[4.7791233E0,4.553877E0,5E0,4.1743875E0,5E0,2.3659203E1,3.316894E-2,9.855767E0,5E0,7.222948E-3,1.1413425E1,2.7503826E-2,3.539823E-2,8E0,1.4844781E1,9.883515E-2,4.1431346E0,1.1661354E1,7.967973E0,-8.13699E-2,9.87308E0,-8.61233E-2,3.3322046E0,1.4304091E1,6.505784E0,3E0,8.036573E0,1.5646491E1,9E0,1.0866624E1,1E1,-8.973824E-2,-7.954853E-2,-5.4464042E-2,5.848939E-2,-5.6394752E-2,1.1632751E-2,-8.00306E-2,-4.893312E-2,-7.8033893E-3,4.2795967E-2,5.5318434E-2,-4.649967E-2,7.160157E-2,1.2893303E-2,-2.5289836E-3,8.456846E-2,-8.282223E-2,1.1604008E-2,-3.6680564E-2,5.096863E-2,-2.0839354E-2,-6.148971E-2,7.424844E-2,1.958646E-2,-5.75837E-2,1.7568244E-2,4.313199E-2,7.693165E-2],"split_indices":[3,3,7,3,7,1,4,2,7,4,1,4,4,7,1,4,3,0,2,0,0,0,2,0,0,7,2,0,7,1,7,0,0,0,0,0,0,0,0,0,0,0,0,0,0,0,0,0,0,0,0,0,0,0,0,0,0,0,0],"split_type":[0,0,0,0,0,0,0,0,0,0,0,0,0,0,0,0,0,0,0,0,0,0,0,0,0,0,0,0,0,0,0,0,0,0,0,0,0,0,0,0,0,0,0,0,0,0,0,0,0,0,0,0,0,0,0,0,0,0,0],"sum_hessian":[3.730739E4,1.1982002E4,2.5325389E4,1.1495397E4,4.866046E2,7.3062437E3,1.8019146E4,1.0516504E4,9.788938E2,5.8021225E1,4.285834E2,7.2617715E3,4.447199E1,1.0687623E4,7.331523E3,1.0464532E4,5.1971794E1,8.935266E1,8.8954114E2,6.2279677E0,5.1793255E1,7.077256E1,3.5781085E2,2.9600696E3,4.3017017E3,3.283337E1,1.1638618E1,3.410606E3,7.277017E3,9.9993884E2,6.331584E3,1.0201945E4,2.6258633E2,4.956684E1,2.4049544E0,6.571995E1,2.3632708E1,7.915699E2,9.797124E1,2.0790247E1,3.100301E1,2.0300066E1,3.3751077E2,2.697422E3,2.626474E2,3.8025753E1,4.2636763E3,3.1616596E1,1.2167757E0,2.7131624E0,8.925456E0,2.8438152E3,5.6679065E2,6.3300885E2,6.644008E3,1.6468515E2,8.3525366E2,3.0333367E3,3.2982473E3],"tree_param":{"num_deleted":"0","num_feature":"8","num_nodes":"59","size_leaf_vector":"1"}},{"base_weights":[3.3132376E-3,-1.3892475E0,4.8578823E-1,-1.619817E0,-6.053094E-1,8.0000407E-1,-1.7697073E0,-1.5440968E0,-9.085045E-2,-1.3718235E0,-3.6570128E-2,2.3834874E-1,1.3212296E0,-1.6325662E0,-9.090231E-2,-1.5851157E0,1.0336578E-1,-1.6959692E0,-9.823083E-1,2.3369008E-1,-9.678358E-2,1.3866986E-1,9.459567E-2,-7.45628E-1,1.4649506E0,-1.7172945E0,-2.509764E-1,-8.901552E-2,-7.007875E-2,-8.754975E-2,-7.332825E-2,1.12132095E-2,-6.1758846E-2,7.0541084E-2,-4.014179E-3,4.8726227E-2,-3.5346418E-3,-5.2582663E-2,6.8501666E-2,4.7167033E-2,7.639333E-2,-7.9735175E-2,-9.3687296E-2,-7.91257E-2,3.751922E-2],"categories":[],"categories_nodes":[],"categories_segments":[],"categories_sizes":[],"default_left":[0,0,0,0,0,0,0,0,0,0,0,0,0,0,0,0,0,0,0,0,0,0,0,0,0,0,0,0,0,0,0,0,0,0,0,0,0,0,0,0,0,0,0,0,0],"id":3,"left_children":[1,3,5,7,9,11,13,15,-1,17,19,21,23,25,-1,27,-1,29,31,33,-1,35,-1,37,39,41,43,-1,-1,-1,-1,-1,-1,-1,-1,-1,-1,-1,-1,-1,-1,-1,-1,-1,-1],"loss_changes":[2.4940418E4,1.7255098E3,1.9539834E4,1.07390625E2,9.47014E2,7.083787E3,1.938086E1,7.9421094E2,0E0,1.1516211E2,6.410575E2,1.9197502E3,3.7293125E3,1.0356738E2,0E0,1.8666211E2,0E0,3.789795E0,1.292291E2,4.0426932E2,0E0,1.9228572E3,0E0,5.301795E2,3.836797E2,1.3063721E1,7.119759E1,0E0,0E0,0E0,0E0,0E0,0E0,0E0,0E0,0E0,0E0,0E0,0E0,0E0,0E0,0E0,0E0,0E0,0E0],"parents":[2147483647,0,0,1,1,2,2,3,3,4,4,5,5,6,6,7,7,9,9,10,10,11,11,12,12,13,13,15,15,17,17,18,18,19,19,21,21,23,23,24,24,25,25,26,26],"right_children":[2,4,6,8,10,12,14,16,-1,18,20,22,24,26,-1,28,-1,30,32,34,-1,36,-1,38,40,42,44,-1,-1,-1,-1,-1,-1,-1,-1,-1,-1,-1,-1,-1,-1,-1,-1,-1,-1],"split_conditions":[1.1E1,1.6138979E-3,2.1E1,8E0,1.6361584E1,1.1235955E-3,2.2E1,7E0,-9.085045E-2,8.676076E0,8E0,1.6E1,7.875119E0,4.347826E-2,-9.090231E-2,6E0,1.0336578E-1,7.7497535E0,5E0,5E0,-9.678358E-2,5E0,9.459567E-2,1.4667798E1,1.0146473E1,1.3450229E1,1.1890606E-3,-8.901552E-2,-7.007875E-2,-8.754975E-2,-7.332825E-2,1.12132095E-2,-6.1758846E-2,7.0541084E-2,-4.014179E-3,4.8726227E-2,-3.5346418E-3,-5.2582663E-2,6.8501666E-2,4.7167033E-2,7.639333E-2,-7.9735175E-2,-9.3687296E-2,-7.91257E-2,3.751922E-2],"split_indices":[6,5,6,6,1,5,6,6,0,0,6,6,0,4,0,6,0,0,7,7,0,7,0,1,0,0,5,0,0,0,0,0,0,0,0,0,0,0,0,0,0,0,0,0,0],"split_type":[0,0,0,0,0,0,0,0,0,0,0,0,0,0,0,0,0,0,0,0,0,0,0,0,0,0,0,0,0,0,0,0,0,0,0,0,0,0,0,0,0,0,0,0,0],"sum_hessian":[3.711858E4,9.550687E3,2.756789E4,7.3792554E3,2.1714312E3,2.4197547E4,3.3703445E3,5.33824E3,2.0410153E3,9.2430023E2,1.2471309E3,1.1647762E4,1.2549784E4,8.874248E2,2.4829197E3,5.2788438E3,5.939671E1,5.026513E2,4.2164893E2,1.0925303E3,1.5460052E2,1.09865625E4,6.6119934E2,8.156532E2,1.1734132E4,8.359179E2,5.150694E1,2.5539878E3,2.7248557E3,4.0005887E2,1.0259246E2,7.307619E1,3.4857272E2,2.2931238E2,8.6321796E2,2.199936E3,8.786627E3,7.1301953E2,1.02633644E2,1.2647369E3,1.0469395E4,4.749519E2,3.6096597E2,2.1859451E1,2.9647488E1],"tree_param":{"num_deleted":"0","num_feature":"8","num_nodes":"45","size_leaf_vector":"1"}},{"base_weights":[-5.037445E-3,-1.6152451E0,7.516784E-1,-1.6536263E0,-7.3468417E-1,-9.519729E-1,1.0726323E0,-1.6795394E0,-1.4063141E0,-1.0488346E0,-8.7183364E-2,-6.920911E-1,-9.3551256E-2,1.2727056E0,-1.703716E0,-1.682931E0,-9.7059697E-1,6.3366103E-1,-1.4220134E0,-1.5793506E0,-6.533534E-1,9.9232817E-1,-8.5683666E-2,-1.5735401E0,-2.036208E-1,9.252926E-1,1.4771874E0,-1.4229473E0,-9.062762E-2,-8.45561E-2,-7.948623E-2,-8.4067956E-2,-2.2206238E-2,-6.358731E-2,8.299142E-2,-7.427021E-2,-4.5448147E-2,-7.988781E-2,1.5260561E-2,-5.3203173E-2,-6.3735815E-3,6.7143075E-2,9.738423E-3,-4.590496E-2,-8.937542E-2,-2.6797751E-2,4.3397978E-2,5.1312126E-2,-1.8678892E-2,-2.5160113E-2,7.429073E-2,-8.117229E-2,4.686245E-2],"categories":[],"categories_nodes":[],"categories_segments":[],"categories_sizes":[],"default_left":[0,0,0,0,0,0,0,0,0,0,0,0,0,0,0,0,0,0,0,0,0,0,0,0,0,0,0,0,0,0,0,0,0,0,0,0,0,0,0,0,0,0,0,0,0,0,0,0,0,0,0,0,0],"id":4,"left_children":[1,3,5,7,9,11,13,15,17,19,21,23,-1,25,27,29,31,33,35,37,39,41,-1,43,45,47,49,51,-1,-1,-1,-1,-1,-1,-1,-1,-1,-1,-1,-1,-1,-1,-1,-1,-1,-1,-1,-1,-1,-1,-1,-1,-1],"loss_changes":[4.494982E4,3.9738477E2,1.3723558E4,7.006055E1,1.004751E2,9.4906323E2,1.1732875E4,2.2951172E1,3.542285E1,6.879208E1,2.871947E2,1.3359039E3,0E0,1.3980723E3,4.081299E1,5.076172E0,1.8351727E1,1.9559385E1,3.3448486E1,5.3932495E0,4.1413292E1,2.7238876E1,0E0,1.5353052E2,7.119994E2,9.577588E2,2.1258594E2,1.9143628E2,0E0,0E0,0E0,0E0,0E0,0E0,0E0,0E0,0E0,0E0,0E0,0E0,0E0,0E0,0E0,0E0,0E0,0E0,0E0,0E0,0E0,0E0,0E0,0E0,0E0],"parents":[2147483647,0,0,1,1,2,2,3,3,4,4,5,5,6,6,7,7,8,8,9,9,10,10,11,11,13,13,14,14,15,15,16,16,17,17,18,18,19,19,20,20,21,21,23,23,24,24,25,25,26,26,27,27],"right_children":[2,4,6,8,10,12,14,16,18,20,22,24,-1,26,28,30,32,34,36,38,40,42,-1,44,46,48,50,52,-1,-1,-1,-1,-1,-1,-1,-1,-1,-1,-1,-1,-1,-1,-1,-1,-1,-1,-1,-1,-1,-1,-1,-1,-1],"split_conditions":[4.7791233E0,4.553877E0,1.1E1,4.1431346E0,1.5E1,8E0,2.1E1,9.855767E0,1.0986123E0,1.622093E1,1.9E1,6E0,-9.3551256E-2,1.9569471E-2,2.2E1,5.6405995E-2,3.2580965E0,1.2E1,7.9345136E0,1.2400821E1,7E0,5.5174527E0,-8.5683666E-2,5E0,5.3237267E-2,2.1601559E1,9.669473E0,3.6170874E-2,-9.062762E-2,-8.45561E-2,-7.948623E-2,-8.4067956E-2,-2.2206238E-2,-6.358731E-2,8.299142E-2,-7.427021E-2,-4.5448147E-2,-7.988781E-2,1.5260561E-2,-5.3203173E-2,-6.3735815E-3,6.7143075E-2,9.738423E-3,-4.590496E-2,-8.937542E-2,-2.6797751E-2,4.3397978E-2,5.1312126E-2,-1.8678892E-2,-2.5160113E-2,7.429073E-2,-8.117229E-2,4.686245E-2],"split_indices":[3,3,6,3,6,6,6,2,2,1,6,6,0,4,6,4,3,6,2,0,6,2,0,6,4,1,1,4,0,0,0,0,0,0,0,0,0,0,0,0,0,0,0,0,0,0,0,0,0,0,0,0,0],"split_type":[0,0,0,0,0,0,0,0,0,0,0,0,0,0,0,0,0,0,0,0,0,0,0,0,0,0,0,0,0,0,0,0,0,0,0,0,0,0,0,0,0,0,0,0,0,0,0,0,0,0,0,0,0],"sum_hessian":[3.68884E4,1.179302E4,2.5095377E4,1.1299623E4,4.9339667E2,3.9779749E3,2.1117402E4,1.0222705E4,1.0769185E3,3.317974E2,1.6159926E2,3.1024448E3,8.7552997E2,1.9698408E4,1.4189941E3,1.0172666E4,5.0038586E1,7.92385E0,1.0689945E3,1.4042783E2,1.9136958E2,9.736644E1,6.423282E1,1.1054426E3,1.9970023E3,7.3004766E3,1.2397932E4,4.003278E2,1.0186663E3,9.335132E3,8.3753436E2,2.035915E1,2.9679436E1,2.6898913E0,5.2339587E0,9.497515E2,1.1924305E2,1.3922032E2,1.2075053E0,1.06876434E2,8.449314E1,6.7163765E1,3.0202671E1,2.7336002E2,8.320826E2,1.524654E3,4.7234824E2,6.774188E3,5.262886E2,5.352653E1,1.2344405E4,3.6927045E2,3.1057352E1],"tree_param":{"num_deleted":"0","num_feature":"8","num_nodes":"53","size_leaf_vector":"1"}},{"base_weights":[6.396218E-3,-1.5533195E0,7.291614E-1,-1.6058322E0,-9.967198E-1,-8.734416E-1,1.0297363E0,-1.6235831E0,-1.3354381E0,-1.16627E0,-1.05729334E-1,-1.2790424E0,-1.7804581E-1,1.220424E0,-1.6285752E0,-1.6269479E0,-9.9402344E-1,-1.525973E0,6.086027E-1,-1.3415895E0,-7.2867286E-1,-8.7380534E-1,6.715677E-1,-1.1047815E0,-8.917614E-2,1.162436E-1,-9.065673E-2,9.231814E-1,1.4545078E0,-1.3640248E0,-1.7322122E0,-8.181374E-2,-7.7233605E-2,-7.279069E-2,7.682676E-3,-7.970033E-2,-3.6007717E-2,-1.1658298E-2,4.841104E-2,-8.254802E-2,-5.479331E-2,2.5736887E-2,-8.209079E-2,2.7577354E-2,-5.7270166E-2,-1.5311497E-2,5.583467E-2,-8.424865E-2,-3.4095865E-2,-5.015712E-2,2.4999999E-2,5.219956E-2,5.5844057E-3,8.0149546E-2,6.775808E-2,-7.65574E-2,1.0728407E-2,-8.377399E-2,-8.9374445E-2],"categories":[],"categories_nodes":[],"categories_segments":[],"categories_sizes":[],"default_left":[0,0,0,0,0,0,0,0,0,0,0,0,0,0,0,0,0,0,0,0,0,0,0,0,0,0,0,0,0,0,0,0,0,0,0,0,0,0,0,0,0,0,0,0,0,0,0,0,0,0,0,0,0,0,0,0,0,0,0],"id":5,"left_children":[1,3,5,7,9,11,13,15,17,19,21,23,25,27,29,31,33,35,37,39,41,43,45,47,-1,49,-1,51,53,55,57,-1,-1,-1,-1,-1,-1,-1,-1,-1,-1,-1,-1,-1,-1,-1,-1,-1,-1,-1,-1,-1,-1,-1,-1,-1,-1,-1,-1],"loss_changes":[4.1223914E4,3.3685938E2,1.2038044E4,4.861328E1,1.5108691E2,1.113063E3,1.0668672E4,1.9402344E1,2.4443018E2,6.352954E1,9.6780464E1,2.1717871E2,7.004612E2,1.3648398E3,3.626416E1,5.046875E0,2.9545551E1,3.1690308E1,1.8205261E1,4.3736084E1,2.764077E2,3.2173077E1,3.5442463E1,4.5407324E2,0E0,5.3068677E2,0E0,8.4820557E2,1.5983789E2,1.0618994E2,1.6796875E-1,0E0,0E0,0E0,0E0,0E0,0E0,0E0,0E0,0E0,0E0,0E0,0E0,0E0,0E0,0E0,0E0,0E0,0E0,0E0,0E0,0E0,0E0,0E0,0E0,0E0,0E0,0E0,0E0],"parents":[2147483647,0,0,1,1,2,2,3,3,4,4,5,5,6,6,7,7,8,8,9,9,10,10,11,11,12,12,13,13,14,14,15,15,16,16,17,17,18,18,19,19,20,20,21,21,22,22,23,23,25,25,27,27,28,28,29,29,30,30],"right_children":[2,4,6,8,10,12,14,16,18,20,22,24,26,28,30,32,34,36,38,40,42,44,46,48,-1,50,-1,52,54,56,58,-1,-1,-1,-1,-1,-1,-1,-1,-1,-1,-1,-1,-1,-1,-1,-1,-1,-1,-1,-1,-1,-1,-1,-1,-1,-1,-1,-1],"split_conditions":[4.7791233E0,4.3307333E0,1.1E1,3.8940203E-3,3.496149E-3,1.6138979E-3,2.1E1,9.855767E0,1.2301388E1,1.5E1,1.08799515E1,8E0,8E0,1.2318197E-3,2.2E1,1.4266587E1,8.417508E-4,1.076005E1,7E0,9.82016E0,1.9E1,5E0,7E0,6E0,-8.917614E-2,6E0,-9.065673E-2,1.4513646E1,5E0,8.009695E0,2.4E1,-8.181374E-2,-7.7233605E-2,-7.279069E-2,7.682676E-3,-7.970033E-2,-3.6007717E-2,-1.1658298E-2,4.841104E-2,-8.254802E-2,-5.479331E-2,2.5736887E-2,-8.209079E-2,2.7577354E-2,-5.7270166E-2,-1.5311497E-2,5.583467E-2,-8.424865E-2,-3.4095865E-2,-5.015712E-2,2.4999999E-2,5.219956E-2,5.5844057E-3,8.0149546E-2,6.775808E-2,-7.65574E-2,1.0728407E-2,-8.377399E-2,-8.9374445E-2],"split_indices":[3,3,6,5,5,5,6,2,0,6,0,6,6,5,6,0,5,0,6,0,6,7,6,6,0,6,0,0,7,3,6,0,0,0,0,0,0,0,0,0,0,0,0,0,0,0,0,0,0,0,0,0,0,0,0,0,0,0,0],"split_type":[0,0,0,0,0,0,0,0,0,0,0,0,0,0,0,0,0,0,0,0,0,0,0,0,0,0,0,0,0,0,0,0,0,0,0,0,0,0,0,0,0,0,0,0,0,0,0,0,0,0,0,0,0,0,0,0,0,0,0],"sum_hessian":[3.656645E4,1.1578685E4,2.4987766E4,1.0578741E4,9.999436E2,3.9460964E3,2.104167E4,9.922353E3,6.5638776E2,8.398215E2,1.6012212E2,2.4918472E3,1.4542491E3,1.9633824E4,1.4078453E3,9.868027E3,5.432571E1,5.979936E2,5.839411E1,5.9812305E2,2.4169844E2,8.047632E1,7.964579E1,1.8544583E3,6.373889E2,1.2332188E3,2.2103043E2,8.652153E3,1.0981671E4,4.002649E2,1.0075804E3,8.846313E3,1.0217138E3,3.854706E1,1.5778653E1,5.50535E2,4.7458668E1,1.7584707E1,4.0809406E1,2.6223923E2,3.358838E2,1.02526375E2,1.3917206E2,1.2715313E1,6.776101E1,2.501279E1,5.4633003E1,7.8053687E2,1.0739214E3,3.1443207E2,9.187867E2,7.53074E3,1.1214133E3,4.3961045E3,6.585566E3,3.619734E2,3.8291527E1,5.1269525E2,4.9488516E2],"tree_param":{"num_deleted":"0","num_feature":"8","num_nodes":"59","size_leaf_vector":"1"}},{"base_weights":[-1.3350572E-3,-5.230756E-1,7.447194E-1,4.5996544E-1,-6.9454837E-1,-8.344337E-1,9.8325145E-1,5.4375887E-1,-1.1515155E0,-1.2135661E0,-5.955694E-1,-9.414804E-1,1.4933736E0,1.4695439E0,7.259379E-1,2.938251E-1,1.0183069E0,-1.4423555E0,-2.4037746E-1,-7.1513397E-3,-1.3413547E0,1.9446974E-1,-6.8097824E-1,2.0902087E-1,-1.157334E0,-5.2719887E-2,1.5492504E0,1.4792334E0,-4.581754E-1,3.793305E-1,1.0652416E0,-4.474486E-3,3.1139532E-2,1.0194389E-2,5.975402E-2,-2.693081E-3,-8.161545E-2,-5.7927787E-2,4.8299856E-2,-4.8957832E-2,6.621455E-2,-7.2771005E-2,-4.923502E-2,2.604187E-2,-1.8679317E-2,-5.2765366E-2,-2.5711654E-2,-3.2098707E-2,3.8586613E-2,-6.974135E-2,-3.1974345E-2,2.7614845E-2,7.95541E-2,6.1781254E-2,7.548865E-2,-8.5152455E-2,2.5939194E-2,8.755368E-4,4.513408E-2,-1.668751E-2,5.6063224E-2],"categories":[],"categories_nodes":[],"categories_segments":[],"categories_sizes":[],"default_left":[0,0,0,0,0,0,0,0,0,0,0,0,0,0,0,0,0,0,0,0,0,0,0,0,0,0,0,0,0,0,0,0,0,0,0,0,0,0,0,0,0,0,0,0,0,0,0,0,0,0,0,0,0,0,0,0,0,0,0,0,0],"id":6,"left_children":[1,3,5,7,9,11,13,15,17,19,21,23,25,27,29,31,33,35,37,39,41,43,45,47,49,-1,51,53,55,57,59,-1,-1,-1,-1,-1,-1,-1,-1,-1,-1,-1,-1,-1,-1,-1,-1,-1,-1,-1,-1,-1,-1,-1,-1,-1,-1,-1,-1,-1,-1],"loss_changes":[1.4036752E4,3.5774087E3,5.5909023E3,4.263001E2,9.275381E2,4.8682434E2,1.6122822E3,3.551936E2,4.1028793E1,4.4600195E2,1.0242476E3,4.6289905E2,1.388092E1,8.399609E1,9.9145703E2,2.4779507E2,1.4856128E2,3.1075806E1,4.429606E1,3.612045E2,1.0498877E2,2.748552E2,8.5438525E2,1.4183688E2,1.9205225E2,0E0,2.649002E0,3.115625E1,2.894376E1,7.902848E2,3.3435205E2,0E0,0E0,0E0,0E0,0E0,0E0,0E0,0E0,0E0,0E0,0E0,0E0,0E0,0E0,0E0,0E0,0E0,0E0,0E0,0E0,0E0,0E0,0E0,0E0,0E0,0E0,0E0,0E0,0E0,0E0],"parents":[2147483647,0,0,1,1,2,2,3,3,4,4,5,5,6,6,7,7,8,8,9,9,10,10,11,11,12,12,13,13,14,14,15,15,16,16,17,17,18,18,19,19,20,20,21,21,22,22,23,23,24,24,26,26,27,27,28,28,29,29,30,30],"right_children":[2,4,6,8,10,12,14,16,18,20,22,24,26,28,30,32,34,36,38,40,42,44,46,48,50,-1,52,54,56,58,60,-1,-1,-1,-1,-1,-1,-1,-1,-1,-1,-1,-1,-1,-1,-1,-1,-1,-1,-1,-1,-1,-1,-1,-1,-1,-1,-1,-1,-1,-1],"split_conditions":[1.2754464E-3,5E0,8.859506E0,1.4975532E1,1.24504175E1,1.622093E1,5E0,5.265925E-4,3E0,1.7917595E0,3.8918202E0,5E0,5.894444E-3,2.3659203E1,1E1,3E0,1.5811775E1,2E0,5.592974E-4,8.913819E0,5.8081427E0,1.5516486E1,8E0,7.327123E0,7.473637E0,-5.2719887E-2,1.6404215E1,1.5811775E1,4.0004674E-2,5.6405995E-2,1.3506049E-2,-4.474486E-3,3.1139532E-2,1.0194389E-2,5.975402E-2,-2.693081E-3,-8.161545E-2,-5.7927787E-2,4.8299856E-2,-4.8957832E-2,6.621455E-2,-7.2771005E-2,-4.923502E-2,2.604187E-2,-1.8679317E-2,-5.2765366E-2,-2.5711654E-2,-3.2098707E-2,3.8586613E-2,-6.974135E-2,-3.1974345E-2,2.7614845E-2,7.95541E-2,6.1781254E-2,7.548865E-2,-8.5152455E-2,2.5939194E-2,8.755368E-4,4.513408E-2,-1.668751E-2,5.6063224E-2],"split_indices":[5,7,0,0,1,1,7,5,7,2,2,7,4,1,7,7,1,7,5,1,0,1,7,0,0,0,1,1,4,4,4,0,0,0,0,0,0,0,0,0,0,0,0,0,0,0,0,0,0,0,0,0,0,0,0,0,0,0,0,0,0],"split_type":[0,0,0,0,0,0,0,0,0,0,0,0,0,0,0,0,0,0,0,0,0,0,0,0,0,0,0,0,0,0,0,0,0,0,0,0,0,0,0,0,0,0,0,0,0,0,0,0,0,0,0,0,0,0,0,0,0,0,0,0,0],"sum_hessian":[3.6059312E4,2.121986E4,1.4839451E4,3.151404E3,1.8068455E4,1.947031E3,1.289242E4,2.9962673E3,1.5513672E2,2.892059E3,1.5176396E4,1.8620005E3,8.5030525E1,4.4595957E3,8.432824E3,1.9636671E3,1.0326002E3,1.1715668E2,3.7980038E1,2.7709958E2,2.6149595E3,1.4804879E3,1.3695909E4,2.9415955E2,1.567841E3,1.4413276E0,8.3589195E1,4.4375234E3,2.2072239E1,4.172563E3,4.260261E3,9.072527E2,1.0564143E3,1.8454239E2,8.4805786E2,1.4253332E1,1.0290334E2,2.158853E1,1.639151E1,1.6032246E2,1.1677712E2,1.9789652E3,6.359943E2,9.403232E2,5.4016473E2,4.219085E3,9.476824E3,1.1703113E2,1.771284E2,1.0737214E3,4.9411942E2,3.9380615E0,7.965113E1,4.989506E2,3.938573E3,9.378557E0,1.2693681E1,2.4676096E3,1.7049534E3,1.6384302E2,4.0964185E3],"tree_param":{"num_deleted":"0","num_feature":"8","num_nodes":"61","size_leaf_vector":"1"}},{"base_weights":[1.674449E-3,-1.475956E0,6.9438976E-1,-1.5213451E0,-6.3653344E-1,-8.562194E-1,9.835882E-1,-1.5469823E0,-1.2475462E0,-8.4647626E-1,2.4172401E-1,-1.239032E0,-2.8445897E-1,1.1653944E0,-1.5510166E0,-1.562623E0,-1.3833114E0,-1.328906E0,-6.324169E-1,-1.1688046E0,-2.5486267E-1,-1.0513003E0,8.965674E-1,-1.0759709E0,-8.481462E-2,-1.8471507E-2,-8.765865E-2,9.1983163E-1,1.3896617E0,-1.2781539E0,-1.6585253E0,-7.843124E-2,-7.555576E-2,-7.4571796E-2,6.0034962E-3,-4.037219E-2,-6.882149E-2,-5.9158243E-2,2.3084786E-2,-7.864354E-2,-4.6174496E-2,3.996273E-2,-8.019211E-2,6.03998E-2,-6.0604274E-2,8.0866384E-4,6.33799E-2,-5.7347734E-2,9.8564126E-2,-5.125782E-2,1.7465776E-2,5.09954E-2,5.1214905E-3,-1.4610328E-2,6.9889866E-2,-7.285664E-2,9.287186E-3,-8.000574E-2,-8.575244E-2],"categories":[],"categories_nodes":[],"categories_segments":[],"categories_sizes":[],"default_left":[0,0,0,0,0,0,0,0,0,0,0,0,0,0,0,0,0,0,0,0,0,0,0,0,0,0,0,0,0,0,0,0,0,0,0,0,0,0,0,0,0,0,0,0,0,0,0,0,0,0,0,0,0,0,0,0,0,0,0],"id":7,"left_children":[1,3,5,7,9,11,13,15,17,19,21,23,25,27,29,31,33,35,37,39,41,43,45,47,-1,49,-1,51,53,55,57,-1,-1,-1,-1,-1,-1,-1,-1,-1,-1,-1,-1,-1,-1,-1,-1,-1,-1,-1,-1,-1,-1,-1,-1,-1,-1,-1,-1],"loss_changes":[3.6685746E4,4.348789E2,1.0943228E4,7.424609E1,1.08721466E2,8.392969E2,9.478836E3,2.3228516E1,4.591736E1,9.0322784E1,9.774267E1,1.6947632E2,6.014729E2,1.0555625E3,3.827173E1,4.2578125E-1,1.4222913E2,1.9314575E1,6.745993E1,2.901181E1,2.4142265E2,1.5592804E1,2.4945187E1,3.691725E2,0E0,4.833947E2,0E0,7.494668E2,1.3762305E2,1.0337787E2,5.0561523E-1,0E0,0E0,0E0,0E0,0E0,0E0,0E0,0E0,0E0,0E0,0E0,0E0,0E0,0E0,0E0,0E0,0E0,0E0,0E0,0E0,0E0,0E0,0E0,0E0,0E0,0E0,0E0,0E0],"parents":[2147483647,0,0,1,1,2,2,3,3,4,4,5,5,6,6,7,7,8,8,9,9,10,10,11,11,12,12,13,13,14,14,15,15,16,16,17,17,18,18,19,19,20,20,21,21,22,22,23,23,25,25,27,27,28,28,29,29,30,30],"right_children":[2,4,6,8,10,12,14,16,18,20,22,24,26,28,30,32,34,36,38,40,42,44,46,48,-1,50,-1,52,54,56,58,-1,-1,-1,-1,-1,-1,-1,-1,-1,-1,-1,-1,-1,-1,-1,-1,-1,-1,-1,-1,-1,-1,-1,-1,-1,-1,-1,-1],"split_conditions":[4.8202815E0,4.553877E0,1.1E1,4.1743875E0,3.5771066E-3,1.3959982E-3,2.1E1,2.65625E-3,3.8940203E-3,1.5E1,1.5719435E1,8E0,8E0,1.4479638E-3,2.2E1,1.4266587E1,1.8794748E1,5E0,1.1870607E1,9.82016E0,1.9E1,1E0,7E0,7E0,-8.481462E-2,6E0,-8.765865E-2,2.0982775E1,1.0866624E1,7.7084107E0,2.4E1,-7.843124E-2,-7.555576E-2,-7.4571796E-2,6.0034962E-3,-4.037219E-2,-6.882149E-2,-5.9158243E-2,2.3084786E-2,-7.864354E-2,-4.6174496E-2,3.996273E-2,-8.019211E-2,6.03998E-2,-6.0604274E-2,8.0866384E-4,6.33799E-2,-5.7347734E-2,9.8564126E-2,-5.125782E-2,1.7465776E-2,5.09954E-2,5.1214905E-3,-1.4610328E-2,6.9889866E-2,-7.285664E-2,9.287186E-3,-8.000574E-2,-8.575244E-2],"split_indices":[3,3,6,3,5,5,6,5,5,6,1,6,6,5,6,0,1,7,0,0,6,7,6,6,0,6,0,1,1,3,6,0,0,0,0,0,0,0,0,0,0,0,0,0,0,0,0,0,0,0,0,0,0,0,0,0,0,0,0],"split_type":[0,0,0,0,0,0,0,0,0,0,0,0,0,0,0,0,0,0,0,0,0,0,0,0,0,0,0,0,0,0,0,0,0,0,0,0,0,0,0,0,0,0,0,0,0,0,0,0,0,0,0,0,0,0,0,0,0,0,0],"sum_hessian":[3.5838723E4,1.1438385E4,2.440034E4,1.0850847E4,5.875378E2,3.8351692E3,2.056517E4,9.917565E3,9.332807E2,4.742153E2,1.133225E2,2.2964517E3,1.5387175E3,1.9189271E4,1.3758982E3,9.044692E3,8.728735E2,8.232355E2,1.1004525E2,3.0633786E2,1.6787744E2,3.7893764E1,7.542874E1,1.6952656E3,6.01186E2,1.3036383E3,2.3507928E2,9.162186E3,1.0027086E4,3.9252902E2,9.833692E2,8.0744067E3,9.702859E2,8.143151E2,5.855833E1,7.02622E1,7.5297327E2,7.314471E1,3.690054E1,1.1368002E2,1.9265784E2,9.4466835E1,7.34106E1,2.0848663E0,3.5808895E1,2.2673016E1,5.2755726E1,1.6572839E3,3.7981693E1,3.483548E2,9.552835E2,8.162576E3,9.9960956E2,4.8101883E1,9.978983E3,3.497701E2,4.275893E1,4.9802554E2,4.8534366E2],"tree_param":{"num_deleted":"0","num_feature":"8","num_nodes":"59","size_leaf_vector":"1"}},{"base_weights":[4.802484E-5,-1.443816E0,6.570217E-1,-1.4796537E0,-6.353645E-1,-8.143649E-1,9.387395E-1,-1.5017731E0,-1.2399615E0,-1.1676867E0,-3.3744118E-1,-5.841677E-1,-8.2831495E-2,1.1138659E0,-1.4979632E0,-7.604085E-2,-1.4375126E0,-1.3459599E0,-9.109192E-1,4.2908764E-1,-1.2168009E0,9.726596E-2,-5.037251E-1,-1.4060357E0,-1.4097297E-1,7.7516973E-1,1.290931E0,-1.2280844E0,-1.6052027E0,-7.258985E-2,-3.598611E-3,-4.2484816E-2,-6.995348E-2,-3.814995E-2,-7.386364E-2,-4.4450503E-2,4.8124894E-2,-7.5698964E-2,-5.0886787E-2,-1.0403081E-2,-7.728215E-2,-3.9571624E-2,-8.032035E-2,5.719293E-2,-2.04817E-2,4.5198906E-2,-9.622171E-3,7.307578E-2,5.9757918E-2,-7.122724E-2,5.0339818E-2,-7.7553205E-2,-8.287295E-2],"categories":[],"categories_nodes":[],"categories_segments":[],"categories_sizes":[],"default_left":[0,0,0,0,0,0,0,0,0,0,0,0,0,0,0,0,0,0,0,0,0,0,0,0,0,0,0,0,0,0,0,0,0,0,0,0,0,0,0,0,0,0,0,0,0,0,0,0,0,0,0,0,0],"id":8,"left_children":[1,3,5,7,9,11,13,15,17,19,21,23,-1,25,27,-1,29,31,33,35,37,-1,39,41,43,45,47,49,51,-1,-1,-1,-1,-1,-1,-1,-1,-1,-1,-1,-1,-1,-1,-1,-1,-1,-1,-1,-1,-1,-1,-1,-1],"loss_changes":[3.3616945E4,3.201582E2,1.0096983E4,5.439453E1,7.448917E1,7.580161E2,8.725369E3,9.697266E0,3.0242554E1,1.3778107E1,1.164307E2,1.1201816E3,0E0,1.1428281E3,3.7712402E1,0E0,4.3550293E1,1.6741943E1,1.7548676E1,4.921772E0,8.175583E0,0E0,8.725665E1,1.3141821E2,6.906304E2,8.1659375E2,2.0285547E2,1.7449963E2,1.9604492E-1,0E0,0E0,0E0,0E0,0E0,0E0,0E0,0E0,0E0,0E0,0E0,0E0,0E0,0E0,0E0,0E0,0E0,0E0,0E0,0E0,0E0,0E0,0E0,0E0],"parents":[2147483647,0,0,1,1,2,2,3,3,4,4,5,5,6,6,7,7,8,8,9,9,10,10,11,11,13,13,14,14,16,16,17,17,18,18,19,19,20,20,22,22,23,23,24,24,25,25,26,26,27,27,28,28],"right_children":[2,4,6,8,10,12,14,16,18,20,22,24,-1,26,28,-1,30,32,34,36,38,-1,40,42,44,46,48,50,52,-1,-1,-1,-1,-1,-1,-1,-1,-1,-1,-1,-1,-1,-1,-1,-1,-1,-1,-1,-1,-1,-1,-1,-1],"split_conditions":[4.7791233E0,4.553877E0,1.1E1,4.1743875E0,7E0,8E0,2.1E1,1.8758244E1,1.28584E1,1E0,8E0,6E0,-8.2831495E-2,1.730419E-2,2.2E1,-7.604085E-2,1.0206436E-1,5E0,1.9E1,1.2485185E-2,1.0626218E1,9.726596E-2,1.9E1,5E0,5E0,2.093956E1,5E0,3.6170874E-2,2.4E1,-7.258985E-2,-3.598611E-3,-4.2484816E-2,-6.995348E-2,-3.814995E-2,-7.386364E-2,-4.4450503E-2,4.8124894E-2,-7.5698964E-2,-5.0886787E-2,-1.0403081E-2,-7.728215E-2,-3.9571624E-2,-8.032035E-2,5.719293E-2,-2.04817E-2,4.5198906E-2,-9.622171E-3,7.307578E-2,5.9757918E-2,-7.122724E-2,5.0339818E-2,-7.7553205E-2,-8.287295E-2],"split_indices":[3,3,6,3,6,6,6,1,0,7,6,6,0,4,6,0,4,7,6,4,0,0,6,6,7,1,7,4,6,0,0,0,0,0,0,0,0,0,0,0,0,0,0,0,0,0,0,0,0,0,0,0,0],"split_type":[0,0,0,0,0,0,0,0,0,0,0,0,0,0,0,0,0,0,0,0,0,0,0,0,0,0,0,0,0,0,0,0,0,0,0,0,0,0,0,0,0,0,0,0,0,0,0,0,0,0,0,0,0],"sum_hessian":[3.5437207E4,1.1081545E4,2.4355664E4,1.0610367E4,4.7117755E2,3.9135664E3,2.0442098E4,9.70912E3,9.012475E2,1.6802863E2,3.0314893E2,3.0748743E3,8.386922E2,1.9071936E4,1.3701611E3,7.4720864E3,2.2370334E3,6.793195E2,2.2192798E2,4.7832136E0,1.632454E2,1.9856628E1,2.832923E2,1.0764725E3,1.9984016E3,6.5494004E3,1.2522535E4,3.9316782E2,9.7699335E2,2.2138125E3,2.3220917E1,6.731538E1,6.1200415E2,1.7782964E2,4.4098347E1,1.1859607E0,3.597253E0,6.2835228E1,1.0041018E2,2.2160692E2,6.1685383E1,2.6588092E2,8.105917E2,3.4504025E2,1.6533615E3,5.780031E3,7.6937E2,4.4975317E3,8.0250034E3,3.6173187E2,3.143595E1,4.949247E2,4.8206863E2],"tree_param":{"num_deleted":"0","num_feature":"8","num_nodes":"53","size_leaf_vector":"1"}},{"base_weights":[3.5095433E-4,-1.4146292E0,6.2609684E-1,-1.4604985E0,-9.812482E-1,-7.9338706E-1,9.002777E-1,-1.4785248E0,-1.2762513E0,-1.1319294E0,-1.5895502E-1,-1.0941727E0,-1.2434394E-1,1.0684654E0,-1.4451187E0,-9.180499E-1,-1.4806714E0,-1.4091779E0,1.8834385E-1,9.390111E-1,-1.1494721E0,-8.974302E-1,5.8832E-1,-1.541664E0,-8.9677197E-1,1.553819E-1,-8.174993E-2,7.935954E-1,1.2770149E0,-1.1767734E0,-7.775226E-2,-5.917839E-2,3.8395446E-2,-7.4122034E-2,-5.4738607E-2,-7.36474E-2,-5.692451E-2,-2.0918852E-2,3.3219717E-2,-5.0734665E-2,8.552356E-2,-5.2367397E-2,-7.358174E-2,-6.399163E-2,-2.7361726E-2,-5.328866E-3,4.6093795E-2,-7.158727E-2,-7.8624435E-2,-2.6610373E-2,-7.962453E-2,-3.9445877E-2,2.3212615E-2,4.2491022E-2,-3.7859365E-2,-4.239009E-2,6.428373E-2,-6.775406E-2,6.2382497E-2],"categories":[],"categories_nodes":[],"categories_segments":[],"categories_sizes":[],"default_left":[0,0,0,0,0,0,0,0,0,0,0,0,0,0,0,0,0,0,0,0,0,0,0,0,0,0,0,0,0,0,0,0,0,0,0,0,0,0,0,0,0,0,0,0,0,0,0,0,0,0,0,0,0,0,0,0,0,0,0],"id":9,"left_children":[1,3,5,7,9,11,13,15,17,19,21,23,25,27,29,31,33,35,37,39,41,43,45,47,49,51,-1,53,55,57,-1,-1,-1,-1,-1,-1,-1,-1,-1,-1,-1,-1,-1,-1,-1,-1,-1,-1,-1,-1,-1,-1,-1,-1,-1,-1,-1,-1,-1],"loss_changes":[3.0825318E4,2.1077539E2,9.395617E3,3.0169922E1,1.2679303E2,7.863745E2,7.982383E3,9.208984E0,1.6913843E2,3.2537598E1,8.874893E1,2.3677563E2,5.1294696E2,1.0811914E3,3.8115967E1,1.7091095E1,4.3496094E0,1.2052368E1,2.137947E1,1.3527603E1,2.67229E1,1.0120316E1,1.8655924E1,5.39917E-1,4.7426013E2,2.9921582E2,0E0,7.1100684E2,1.9857617E2,1.7358661E2,0E0,0E0,0E0,0E0,0E0,0E0,0E0,0E0,0E0,0E0,0E0,0E0,0E0,0E0,0E0,0E0,0E0,0E0,0E0,0E0,0E0,0E0,0E0,0E0,0E0,0E0,0E0,0E0,0E0],"parents":[2147483647,0,0,1,1,2,2,3,3,4,4,5,5,6,6,7,7,8,8,9,9,10,10,11,11,12,12,13,13,14,14,15,15,16,16,17,17,18,18,19,19,20,20,21,21,22,22,23,23,24,24,25,25,27,27,28,28,29,29],"right_children":[2,4,6,8,10,12,14,16,18,20,22,24,26,28,30,32,34,36,38,40,42,44,46,48,50,52,-1,54,56,58,-1,-1,-1,-1,-1,-1,-1,-1,-1,-1,-1,-1,-1,-1,-1,-1,-1,-1,-1,-1,-1,-1,-1,-1,-1,-1,-1,-1,-1],"split_conditions":[4.7184987E0,4.248495E0,1.1E1,2.65625E-3,3.496149E-3,2.1368947E-3,2.1E1,1.0986123E0,1.8794748E1,1.0986123E0,1.6443842E1,6E0,8E0,2.3222368E-2,2.2E1,4.0775375E0,9.855767E0,1.5252285E1,2.0191668E1,1.2E1,4.23642E-2,1.2595293E1,7E0,5E0,8E0,6E0,-8.174993E-2,2.2531002E1,9.331053E0,4.23642E-2,-7.775226E-2,-5.917839E-2,3.8395446E-2,-7.4122034E-2,-5.4738607E-2,-7.36474E-2,-5.692451E-2,-2.0918852E-2,3.3219717E-2,-5.0734665E-2,8.552356E-2,-5.2367397E-2,-7.358174E-2,-6.399163E-2,-2.7361726E-2,-5.328866E-3,4.6093795E-2,-7.158727E-2,-7.8624435E-2,-2.6610373E-2,-7.962453E-2,-3.9445877E-2,2.3212615E-2,4.2491022E-2,-3.7859365E-2,-4.239009E-2,6.428373E-2,-6.775406E-2,6.2382497E-2],"split_indices":[3,3,6,5,5,5,6,2,1,2,1,6,6,4,6,3,2,1,1,6,4,1,6,6,6,6,0,1,1,4,0,0,0,0,0,0,0,0,0,0,0,0,0,0,0,0,0,0,0,0,0,0,0,0,0,0,0,0,0],"split_type":[0,0,0,0,0,0,0,0,0,0,0,0,0,0,0,0,0,0,0,0,0,0,0,0,0,0,0,0,0,0,0,0,0,0,0,0,0,0,0,0,0,0,0,0,0,0,0,0,0,0,0,0,0,0,0,0,0,0,0],"sum_hessian":[3.481242E4,1.0674113E4,2.4138309E4,9.650346E3,1.0237685E3,3.9073503E3,2.0230959E4,8.783922E3,8.664232E2,8.649028E2,1.5886572E2,2.6950745E3,1.2122758E3,1.8877781E4,1.353176E3,3.5149094E1,8.748772E3,7.943646E2,7.205862E1,6.823753E0,8.5807904E2,7.980227E1,7.906345E1,8.228748E2,1.8721996E3,1.02362897E3,1.8864682E2,8.14604E3,1.0731742E4,3.966373E2,9.5653876E2,3.0624151E1,4.5249434E0,8.706019E3,4.2754578E1,6.3931055E2,1.5505411E2,3.1734505E1,4.0324116E1,1.842465E0,4.981288E0,6.547705E2,2.0330852E2,3.687803E1,4.292424E1,2.5863167E1,5.3200287E1,1.9061249E2,6.322623E2,1.2296265E3,6.4257324E2,2.5191208E2,7.717169E2,7.8614673E3,2.845728E2,4.316618E1,1.0688576E4,3.6987537E2,2.6761953E1],"tree_param":{"num_deleted":"0","num_feature":"8","num_nodes":"59","size_leaf_vector":"1"}},{"base_weights":[-3.4962017E-3,-1.3775902E0,6.024022E-1,-1.4242175E0,-9.889042E-1,1.1916175E0,3.7576914E-1,-1.4279648E0,-6.8109095E-1,-1.1338612E0,-2.1567252E-1,8.343267E-1,1.325218E0,-2.502144E-1,5.993881E-1,-1.4388187E0,-1.2162848E0,-1.2151376E0,3.7096995E-1,-4.8736787E-1,-1.203772E0,-1.1398163E0,2.7575907E-1,9.643834E-1,-7.560627E-1,1.3369628E0,-9.2470385E-2,-5.5185485E-1,4.6245217E-1,3.7895408E-1,9.364182E-1,-7.232555E-2,-6.845902E-2,-6.792966E-2,1.1306435E-2,2.5384758E-2,-6.467899E-2,-3.6668543E-2,5.5420406E-2,4.5981433E-2,-3.2119796E-2,-5.5399247E-2,-7.446202E-2,5.0512534E-2,-6.513541E-2,5.731942E-2,3.60103E-3,3.8907193E-2,6.95559E-2,-5.4900754E-2,5.3719904E-2,1.2539086E-2,6.734577E-2,-5.4278024E-2,4.816943E-2,-3.670351E-2,7.820862E-3,-2.2946587E-2,3.5469845E-2,-3.3304643E-2,2.1486497E-2,8.559379E-3,5.254702E-2],"categories":[],"categories_nodes":[],"categories_segments":[],"categories_sizes":[],"default_left":[0,0,0,0,0,0,0,0,0,0,0,0,0,0,0,0,0,0,0,0,0,0,0,0,0,0,0,0,0,0,0,0,0,0,0,0,0,0,0,0,0,0,0,0,0,0,0,0,0,0,0,0,0,0,0,0,0,0,0,0,0,0,0],"id":10,"left_children":[1,3,5,7,9,11,13,15,17,19,21,23,25,27,29,31,33,35,37,39,41,43,45,47,49,51,53,55,57,59,61,-1,-1,-1,-1,-1,-1,-1,-1,-1,-1,-1,-1,-1,-1,-1,-1,-1,-1,-1,-1,-1,-1,-1,-1,-1,-1,-1,-1,-1,-1,-1,-1],"loss_changes":[2.8402377E4,1.8778906E2,3.1610205E3,2.4978516E1,1.254541E2,3.128037E2,2.3938213E3,1.9548828E1,2.7794645E1,4.2087036E1,8.128179E1,3.7148547E2,7.9791016E1,9.6793115E2,9.356924E2,2.7402344E0,9.4456604E1,5.050907E0,1.4781677E1,2.1054731E1,2.1629395E1,2.3060806E1,2.0705551E1,1.3064001E2,8.634506E1,5.0961914E1,4.3249E1,4.0835748E2,3.0503854E2,4.0457397E2,4.363706E2,0E0,0E0,0E0,0E0,0E0,0E0,0E0,0E0,0E0,0E0,0E0,0E0,0E0,0E0,0E0,0E0,0E0,0E0,0E0,0E0,0E0,0E0,0E0,0E0,0E0,0E0,0E0,0E0,0E0,0E0,0E0,0E0],"parents":[2147483647,0,0,1,1,2,2,3,3,4,4,5,5,6,6,7,7,8,8,9,9,10,10,11,11,12,12,13,13,14,14,15,15,16,16,17,17,18,18,19,19,20,20,21,21,22,22,23,23,24,24,25,25,26,26,27,27,28,28,29,29,30,30],"right_children":[2,4,6,8,10,12,14,16,18,20,22,24,26,28,30,32,34,36,38,40,42,44,46,48,50,52,54,56,58,60,62,-1,-1,-1,-1,-1,-1,-1,-1,-1,-1,-1,-1,-1,-1,-1,-1,-1,-1,-1,-1,-1,-1,-1,-1,-1,-1,-1,-1,-1,-1,-1,-1],"split_conditions":[4.7184987E0,4.204693E0,5E0,9.855767E0,3.496149E-3,8.004092E-4,6E0,4.735358E-3,8.417508E-4,5E0,8.676076E0,1.4630876E1,1.6705883E1,2.265372E-3,3.6582258E-2,1.4266587E1,1.2154784E1,3E0,9E0,2.3025851E0,4.2903975E-2,4E0,5.0369525E0,9.033126E0,8.691147E0,6.505784E0,3.144654E-3,8.327968E0,1.1456366E1,9.777554E-4,9.409273E0,-7.232555E-2,-6.845902E-2,-6.792966E-2,1.1306435E-2,2.5384758E-2,-6.467899E-2,-3.6668543E-2,5.5420406E-2,4.5981433E-2,-3.2119796E-2,-5.5399247E-2,-7.446202E-2,5.0512534E-2,-6.513541E-2,5.731942E-2,3.60103E-3,3.8907193E-2,6.95559E-2,-5.4900754E-2,5.3719904E-2,1.2539086E-2,6.734577E-2,-5.4278024E-2,4.816943E-2,-3.670351E-2,7.820862E-3,-2.2946587E-2,3.5469845E-2,-3.3304643E-2,2.1486497E-2,8.559379E-3,5.254702E-2],"split_indices":[3,3,7,2,5,5,7,5,5,7,0,0,0,5,4,0,0,7,7,2,4,7,2,3,3,0,5,3,0,4,0,0,0,0,0,0,0,0,0,0,0,0,0,0,0,0,0,0,0,0,0,0,0,0,0,0,0,0,0,0,0,0,0],"split_type":[0,0,0,0,0,0,0,0,0,0,0,0,0,0,0,0,0,0,0,0,0,0,0,0,0,0,0,0,0,0,0,0,0,0,0,0,0,0,0,0,0,0,0,0,0,0,0,0,0,0,0,0,0,0,0,0,0,0,0,0,0,0,0],"sum_hessian":[3.4112453E4,1.0438379E4,2.3674076E4,9.317924E3,1.1204554E3,6.5751978E3,1.7098879E4,9.270256E3,4.766759E1,9.431732E2,1.7728221E2,1.7914717E3,4.783726E3,4.500466E3,1.2598412E4,8.81259E3,4.5766644E2,3.151497E1,1.615262E1,9.2818054E1,8.5035516E2,6.1087315E1,1.161949E2,1.6564097E3,1.3506203E2,4.7444775E3,3.9248592E1,3.16225E3,1.3382157E3,7.617997E3,4.9804155E3,7.9181753E3,8.9441425E2,4.1662076E2,4.1045685E1,1.1341131E0,3.0380857E1,6.469629E0,9.682993E0,8.722528E0,8.409553E1,6.403658E2,2.0998944E2,3.935767E0,5.715155E1,2.1157299E1,9.50376E1,1.1551094E3,5.0130032E2,1.1413951E2,2.0922514E1,4.331621E1,4.7011616E3,2.0210983E1,1.9037607E1,2.515148E3,6.47102E2,2.8267163E2,1.0555441E3,3.5242453E2,7.2655723E3,6.486522E2,4.331763E3],"tree_param":{"num_deleted":"0","num_feature":"8","num_nodes":"63","size_leaf_vector":"1"}},{"base_weights":[-1.2024096E-3,-1.3452917E0,5.80602E-1,-1.384542E0,-8.8459986E-1,-7.621059E-1,8.454311E-1,-1.3881029E0,-6.9368774E-1,-1.3148585E-1,-9.6835005E-1,-5.507969E-1,-7.831404E-2,1.0103254E0,-1.4203465E0,-1.3971932E0,-1.2199163E0,-1.0042447E0,3.3937672E-1,-9.881254E-1,4.0617487E-1,-1.0446658E0,-3.8387385E-1,-1.3075793E0,-1.4693172E-1,6.912927E-1,1.1817964E0,-1.1695776E0,-1.5196394E0,-7.031317E-2,-6.472E-2,-3.0402793E-2,-6.4336084E-2,-6.329278E-2,-1.436716E-2,6.981196E-2,-6.466615E-2,1.23975715E-2,-6.3236214E-2,-5.200397E-3,5.3610135E-2,-5.866722E-2,-4.0570937E-2,1.0541471E-2,-3.5582736E-2,-3.401481E-2,-7.606895E-2,5.19886E-2,-1.9120391E-2,4.091874E-2,-5.221467E-3,6.755679E-2,5.448661E-2,-6.563639E-2,4.7973473E-2,-7.328539E-2,-7.859821E-2],"categories":[],"categories_nodes":[],"categories_segments":[],"categories_sizes":[],"default_left":[0,0,0,0,0,0,0,0,0,0,0,0,0,0,0,0,0,0,0,0,0,0,0,0,0,0,0,0,0,0,0,0,0,0,0,0,0,0,0,0,0,0,0,0,0,0,0,0,0,0,0,0,0,0,0,0,0],"id":11,"left_children":[1,3,5,7,9,11,13,15,17,19,21,23,-1,25,27,29,31,33,35,37,39,41,43,45,47,49,51,53,55,-1,-1,-1,-1,-1,-1,-1,-1,-1,-1,-1,-1,-1,-1,-1,-1,-1,-1,-1,-1,-1,-1,-1,-1,-1,-1,-1,-1],"loss_changes":[2.6283477E4,1.82375E2,8.341697E3,2.2048828E1,5.0326843E1,6.55896E2,7.321714E3,1.25234375E1,1.637241E1,3.780555E1,3.1701782E1,9.3573315E2,0E0,9.9834375E2,3.1328857E1,6.404297E0,1.9044495E1,6.8893013E0,2.3025019E1,1.1120039E1,1.7306396E1,1.8137207E1,1.6661213E1,1.4185059E2,5.586601E2,6.4598804E2,1.8371094E2,1.1752222E2,3.7451172E-1,0E0,0E0,0E0,0E0,0E0,0E0,0E0,0E0,0E0,0E0,0E0,0E0,0E0,0E0,0E0,0E0,0E0,0E0,0E0,0E0,0E0,0E0,0E0,0E0,0E0,0E0,0E0,0E0],"parents":[2147483647,0,0,1,1,2,2,3,3,4,4,5,5,6,6,7,7,8,8,9,9,10,10,11,11,13,13,14,14,15,15,16,16,17,17,18,18,19,19,20,20,21,21,22,22,23,23,24,24,25,25,26,26,27,27,28,28],"right_children":[2,4,6,8,10,12,14,16,18,20,22,24,-1,26,28,30,32,34,36,38,40,42,44,46,48,50,52,54,56,-1,-1,-1,-1,-1,-1,-1,-1,-1,-1,-1,-1,-1,-1,-1,-1,-1,-1,-1,-1,-1,-1,-1,-1,-1,-1,-1,-1],"split_conditions":[4.7184987E0,4.3307333E0,1.1E1,9.855767E0,5E0,8E0,2.1E1,4.1431346E0,1E1,7E0,1.3E1,6E0,-7.831404E-2,1.730419E-2,2.2E1,5.6405995E-2,5E0,3.142737E-2,1.1E1,1E0,1.071666E1,1.1870607E1,8E0,5E0,5E0,1.4386491E1,5E0,4.23642E-2,2.4E1,-7.031317E-2,-6.472E-2,-3.0402793E-2,-6.4336084E-2,-6.329278E-2,-1.436716E-2,6.981196E-2,-6.466615E-2,1.23975715E-2,-6.3236214E-2,-5.200397E-3,5.3610135E-2,-5.866722E-2,-4.0570937E-2,1.0541471E-2,-3.5582736E-2,-3.401481E-2,-7.606895E-2,5.19886E-2,-1.9120391E-2,4.091874E-2,-5.221467E-3,6.755679E-2,5.448661E-2,-6.563639E-2,4.7973473E-2,-7.328539E-2,-7.859821E-2],"split_indices":[3,3,6,2,7,6,6,3,7,6,7,6,0,4,6,4,7,4,7,7,0,0,6,6,7,0,7,4,6,0,0,0,0,0,0,0,0,0,0,0,0,0,0,0,0,0,0,0,0,0,0,0,0,0,0,0,0],"split_type":[0,0,0,0,0,0,0,0,0,0,0,0,0,0,0,0,0,0,0,0,0,0,0,0,0,0,0,0,0,0,0,0,0,0,0,0,0,0,0,0,0,0,0,0,0,0,0,0,0,0,0,0,0,0,0,0,0],"sum_hessian":[3.360871E4,1.0152653E4,2.3456057E4,9.353726E3,7.9892786E2,3.863892E3,1.9592164E4,9.304756E3,4.8969856E1,8.021082E1,7.18717E2,3.061201E3,8.026913E2,1.8263568E4,1.3285966E3,8.820699E3,4.8405652E2,3.7672695E1,1.1297161E1,3.0607285E1,4.960354E1,6.3501495E2,8.3702065E1,1.0644133E3,1.9967875E3,6.3863613E3,1.1877207E4,3.8047275E2,9.481238E2,8.0938467E3,7.2685284E2,4.864312E1,4.354134E2,2.7039677E1,1.0633019E1,6.945864E0,4.3512974E0,5.615603E0,2.4991682E1,2.8565765E1,2.1037773E1,4.066451E2,2.2836984E2,2.9868143E1,5.383392E1,2.7163242E2,7.9278094E2,3.3005066E2,1.6667368E3,5.506852E3,8.7950946E2,4.1782407E3,7.698966E3,3.5686197E2,2.3610792E1,4.8117987E2,4.6694388E2],"tree_param":{"num_deleted":"0","num_feature":"8","num_nodes":"57","size_leaf_vector":"1"}},{"base_weights":[-6.2186355E-3,-1.063131E0,3.5508746E-1,-1.2465634E0,-4.74107E-1,5.890793E-1,-1.3905262E0,-1.322385E0,-1.0608065E0,-1.0847656E0,-2.9981976E-2,1.7237324E-1,1.0019028E0,-1.257761E0,-7.194888E-2,-1.3286881E0,-6.499024E-1,-1.396102E0,-8.9714545E-1,-2.9001164E-1,-1.1982702E0,1.8414314E-1,-7.747947E-2,8.718856E-2,8.053879E-2,-4.598272E-1,1.0995829E0,-1.3324339E0,-1.2137785E-1,-5.572615E-2,-6.7335375E-2,-5.237961E-2,4.707698E-2,-5.9785366E-2,-7.357848E-2,-3.0083561E-2,-7.276379E-2,-5.9774943E-2,8.9388965E-3,-6.5669574E-2,-4.2583115E-2,5.2693504E-4,9.4179176E-2,3.7828065E-2,-3.7122339E-3,-3.500035E-2,8.043083E-2,6.572856E-2,4.85686E-2,-4.1219633E-2,-6.841614E-2,-6.4678684E-2,3.7665363E-2],"categories":[],"categories_nodes":[],"categories_segments":[],"categories_sizes":[],"default_left":[0,0,0,0,0,0,0,0,0,0,0,0,0,0,0,0,0,0,0,0,0,0,0,0,0,0,0,0,0,0,0,0,0,0,0,0,0,0,0,0,0,0,0,0,0,0,0,0,0,0,0,0,0],"id":12,"left_children":[1,3,5,7,9,11,13,15,17,19,21,23,25,27,-1,29,31,33,35,37,39,41,-1,43,-1,45,47,49,51,-1,-1,-1,-1,-1,-1,-1,-1,-1,-1,-1,-1,-1,-1,-1,-1,-1,-1,-1,-1,-1,-1,-1,-1],"loss_changes":[1.263255E4,9.0998926E2,1.0070641E4,8.9100586E1,5.431736E2,3.739646E3,1.69375E1,1.8461426E1,1.0123413E2,7.57262E1,3.7792712E2,1.3256635E3,1.5597695E3,6.663257E1,0E0,1.592627E1,2.901963E1,7.477783E0,2.0655945E2,4.5509247E1,2.8313232E1,3.003654E2,0E0,1.1040238E3,0E0,3.4131464E2,2.8088965E2,1.2337036E1,5.1865063E1,0E0,0E0,0E0,0E0,0E0,0E0,0E0,0E0,0E0,0E0,0E0,0E0,0E0,0E0,0E0,0E0,0E0,0E0,0E0,0E0,0E0,0E0,0E0,0E0],"parents":[2147483647,0,0,1,1,2,2,3,3,4,4,5,5,6,6,7,7,8,8,9,9,10,10,11,11,12,12,13,13,15,15,16,16,17,17,18,18,19,19,20,20,21,21,23,23,25,25,26,26,27,27,28,28],"right_children":[2,4,6,8,10,12,14,16,18,20,22,24,26,28,-1,30,32,34,36,38,40,42,-1,44,-1,46,48,50,52,-1,-1,-1,-1,-1,-1,-1,-1,-1,-1,-1,-1,-1,-1,-1,-1,-1,-1,-1,-1,-1,-1,-1,-1],"split_conditions":[1.1E1,1.6138979E-3,2.1E1,4.2835725E-4,1.6361584E1,1.1235955E-3,2.2E1,9.855767E0,6E0,5E0,8E0,1.6E1,1.3291929E1,4.2903975E-2,-7.194888E-2,5E0,1E1,5E0,8E0,1.3783892E1,6.707725E-2,7E0,-7.747947E-2,5E0,8.053879E-2,1.6E1,5E0,4E0,1.1890606E-3,-5.572615E-2,-6.7335375E-2,-5.237961E-2,4.707698E-2,-5.9785366E-2,-7.357848E-2,-3.0083561E-2,-7.276379E-2,-5.9774943E-2,8.9388965E-3,-6.5669574E-2,-4.2583115E-2,5.2693504E-4,9.4179176E-2,3.7828065E-2,-3.7122339E-3,-3.500035E-2,8.043083E-2,6.572856E-2,4.85686E-2,-4.1219633E-2,-6.841614E-2,-6.4678684E-2,3.7665363E-2],"split_indices":[6,5,6,5,1,5,6,2,6,7,6,6,1,4,0,7,7,6,6,1,4,6,0,7,0,6,7,7,5,0,0,0,0,0,0,0,0,0,0,0,0,0,0,0,0,0,0,0,0,0,0,0,0],"split_type":[0,0,0,0,0,0,0,0,0,0,0,0,0,0,0,0,0,0,0,0,0,0,0,0,0,0,0,0,0,0,0,0,0,0,0,0,0,0,0,0,0,0,0,0,0,0,0,0,0,0,0,0,0],"sum_hessian":[3.307887E4,8.426696E3,2.4652176E4,6.424788E3,2.0019077E3,2.1738842E4,2.9133345E3,4.558143E3,1.8666454E3,8.4231177E2,1.159596E3,1.0819251E4,1.091959E4,7.861392E2,2.127195E3,4.5148496E3,4.329336E1,6.09802E2,1.2568434E3,1.0570751E2,7.3660425E2,1.01715E3,1.4244595E2,1.0215342E4,6.039096E2,6.8376196E2,1.0235828E4,7.375045E2,4.8634735E1,3.5526608E2,4.1595835E3,3.491107E1,8.382289E0,1.7143156E2,4.3837042E2,8.231473E2,4.336961E2,3.552987E1,7.017764E1,5.5085547E2,1.857488E2,9.237877E2,9.3362305E1,1.9842183E3,8.231123E3,6.1321893E2,7.054305E1,3.8204038E3,6.4154243E3,5.0242474E1,6.87262E2,2.0578232E1,2.8056503E1],"tree_param":{"num_deleted":"0","num_feature":"8","num_nodes":"53","size_leaf_vector":"1"}},{"base_weights":[8.749233E-4,-1.2970872E0,5.5002415E-1,-1.3487875E0,-9.128718E-1,-7.1364385E-1,8.001819E-1,-1.3618227E0,-1.1398124E0,-1.0451143E0,-2.0341325E-1,-1.0339571E0,-2.0687096E-1,9.5395905E-1,-1.3278244E0,-1.3667371E0,-9.2813396E-1,-1.2929883E0,6.715816E-1,1.0510209E0,-1.0687295E0,-9.1630477E-1,4.9843678E-1,-8.9017063E-1,-7.377177E-2,1.3158841E-2,-7.614059E-2,7.2183716E-1,1.1724987E0,-1.0507286E0,-7.22387E-2,-5.0433736E-2,-6.840157E-2,-6.0305305E-2,7.402663E-3,-6.829857E-2,-5.032881E-2,-3.721125E-2,6.349637E-2,-5.1431544E-2,8.586617E-2,-4.9081337E-2,-6.883433E-2,-6.610327E-2,-3.01514E-2,-9.313857E-3,4.0839072E-2,-6.9924794E-2,-2.6832908E-2,-4.358594E-2,1.568738E-2,3.8736857E-2,-3.1016007E-2,-2.704197E-2,5.927635E-2,-6.047486E-2,5.591027E-2],"categories":[],"categories_nodes":[],"categories_segments":[],"categories_sizes":[],"default_left":[0,0,0,0,0,0,0,0,0,0,0,0,0,0,0,0,0,0,0,0,0,0,0,0,0,0,0,0,0,0,0,0,0,0,0,0,0,0,0,0,0,0,0,0,0,0,0,0,0,0,0,0,0,0,0,0,0],"id":13,"left_children":[1,3,5,7,9,11,13,15,17,19,21,23,25,27,29,31,33,35,37,39,41,43,45,47,-1,49,-1,51,53,55,-1,-1,-1,-1,-1,-1,-1,-1,-1,-1,-1,-1,-1,-1,-1,-1,-1,-1,-1,-1,-1,-1,-1,-1,-1,-1,-1],"loss_changes":[2.3212037E4,1.9108887E2,7.2345435E3,2.16875E1,1.07810486E2,6.137134E2,6.252448E3,1.5836914E1,1.4155542E2,4.9150757E1,9.158859E1,1.457727E2,4.2448438E2,9.0292285E2,4.0215332E1,2.2958984E0,2.8011093E1,8.404846E0,3.4993813E1,1.7442947E1,2.4397705E1,1.07335205E1,2.0299109E1,3.1378784E2,0E0,3.3460355E2,0E0,6.1407227E2,2.0544043E2,1.3423428E2,0E0,0E0,0E0,0E0,0E0,0E0,0E0,0E0,0E0,0E0,0E0,0E0,0E0,0E0,0E0,0E0,0E0,0E0,0E0,0E0,0E0,0E0,0E0,0E0,0E0,0E0,0E0],"parents":[2147483647,0,0,1,1,2,2,3,3,4,4,5,5,6,6,7,7,8,8,9,9,10,10,11,11,12,12,13,13,14,14,15,15,16,16,17,17,18,18,19,19,20,20,21,21,22,22,23,23,25,25,27,27,28,28,29,29],"right_children":[2,4,6,8,10,12,14,16,18,20,22,24,26,28,30,32,34,36,38,40,42,44,46,48,-1,50,-1,52,54,56,-1,-1,-1,-1,-1,-1,-1,-1,-1,-1,-1,-1,-1,-1,-1,-1,-1,-1,-1,-1,-1,-1,-1,-1,-1,-1,-1],"split_conditions":[4.7184987E0,4.1743875E0,1.1E1,3.985526E-3,3.4173103E-3,1.5278839E-3,2.1E1,9.313438E0,1.859109E1,1.0986123E0,1.6443842E1,8E0,8E0,2.6402555E-2,2.2E1,1.0986123E0,1.0094091E-3,1.4783196E1,5.5570267E-2,1.2E1,4.50543E-2,1.2667297E1,7E0,6E0,-7.377177E-2,6E0,-7.614059E-2,2.2402168E1,1.0358916E1,4.23642E-2,-7.22387E-2,-5.0433736E-2,-6.840157E-2,-6.0305305E-2,7.402663E-3,-6.829857E-2,-5.032881E-2,-3.721125E-2,6.349637E-2,-5.1431544E-2,8.586617E-2,-4.9081337E-2,-6.883433E-2,-6.610327E-2,-3.01514E-2,-9.313857E-3,4.0839072E-2,-6.9924794E-2,-2.6832908E-2,-4.358594E-2,1.568738E-2,3.8736857E-2,-3.1016007E-2,-2.704197E-2,5.927635E-2,-6.047486E-2,5.591027E-2],"split_indices":[3,3,6,5,5,5,6,2,1,2,1,6,6,4,6,2,5,1,4,6,4,1,6,6,0,6,0,1,1,4,0,0,0,0,0,0,0,0,0,0,0,0,0,0,0,0,0,0,0,0,0,0,0,0,0,0,0],"split_type":[0,0,0,0,0,0,0,0,0,0,0,0,0,0,0,0,0,0,0,0,0,0,0,0,0,0,0,0,0,0,0,0,0,0,0,0,0,0,0,0,0,0,0,0,0,0,0,0,0,0,0,0,0,0,0,0,0],"sum_hessian":[3.2563734E4,9.680847E3,2.2882887E4,8.530468E3,1.1503796E3,3.781062E3,1.9101826E4,8.0244175E3,5.0604996E2,9.692408E2,1.8113882E2,2.3160977E3,1.4649642E3,1.7815004E4,1.2868223E3,7.9323784E3,9.203866E1,4.6685754E2,3.9192436E1,1.031321E1,9.589276E2,8.971097E1,9.142785E1,1.7493594E3,5.6673834E2,1.2559543E3,2.0900986E2,8.64113E3,9.173873E3,3.8488202E2,9.0194025E2,3.1380552E1,7.900998E3,7.3049675E1,1.898898E1,3.6904803E2,9.780949E1,1.15705E1,2.7621935E1,2.3705382E0,7.942672E0,7.5076746E2,2.0816014E2,3.7683117E1,5.202785E1,2.914848E1,6.2279373E1,7.1634766E2,1.0330117E3,3.1797998E2,9.3797437E2,8.313869E3,3.272612E2,6.892621E1,9.104947E3,3.5904205E2,2.5839977E1],"tree_param":{"num_deleted":"0","num_feature":"8","num_nodes":"57","size_leaf_vector":"1"}},{"base_weights":[-2.503295E-3,-1.0011309E0,3.3550525E-1,-1.1825918E0,-3.915989E-1,5.5143636E-1,-1.3194312E0,-6.771566E-2,-1.095735E0,-1.0169312E0,4.7569655E-2,1.7462091E-1,9.5235246E-1,-1.1815546E0,-6.853381E-2,-9.0480757E-1,-6.8948366E-2,-1.3119223E0,-6.964213E-1,2.533605E-1,-7.384066E-2,9.306016E-2,7.70368E-2,-4.795135E-1,1.0626239E0,-1.272387E0,-1.8212879E-1,-4.9666505E-2,1.1001573E-1,-6.794944E-2,-5.7292502E-2,-2.2223283E-2,-7.321714E-2,6.472256E-2,-1.3939858E-3,3.5610598E-2,-2.786121E-3,-5.1270574E-2,1.1459786E-2,6.362527E-2,4.6857085E-2,-3.151E-2,-6.599473E-2,-5.795024E-2,2.760495E-2],"categories":[],"categories_nodes":[],"categories_segments":[],"categories_sizes":[],"default_left":[0,0,0,0,0,0,0,0,0,0,0,0,0,0,0,0,0,0,0,0,0,0,0,0,0,0,0,0,0,0,0,0,0,0,0,0,0,0,0,0,0,0,0,0,0],"id":14,"left_children":[1,3,5,7,9,11,13,-1,15,17,19,21,23,25,-1,27,-1,29,31,33,-1,35,-1,37,39,41,43,-1,-1,-1,-1,-1,-1,-1,-1,-1,-1,-1,-1,-1,-1,-1,-1,-1,-1],"loss_changes":[1.0811597E4,8.9542236E2,8.552291E3,9.1603516E1,5.1075897E2,3.1978735E3,1.789795E1,0E0,2.2316895E2,7.162903E1,3.4337674E2,1.2158827E3,1.6199209E3,6.837305E1,0E0,6.8437244E2,0E0,1.5569458E0,7.0909836E1,2.823499E2,0E0,9.4886084E2,0E0,2.842353E2,2.4961523E2,2.029834E1,4.6636013E1,0E0,0E0,0E0,0E0,0E0,0E0,0E0,0E0,0E0,0E0,0E0,0E0,0E0,0E0,0E0,0E0,0E0,0E0],"parents":[2147483647,0,0,1,1,2,2,3,3,4,4,5,5,6,6,8,8,9,9,10,10,11,11,12,12,13,13,15,15,17,17,18,18,19,19,21,21,23,23,24,24,25,25,26,26],"right_children":[2,4,6,8,10,12,14,-1,16,18,20,22,24,26,-1,28,-1,30,32,34,-1,36,-1,38,40,42,44,-1,-1,-1,-1,-1,-1,-1,-1,-1,-1,-1,-1,-1,-1,-1,-1,-1,-1],"split_conditions":[1.1E1,1.740644E-3,2.1E1,6E0,1.6361584E1,1.2107102E-3,2.2E1,-6.771566E-2,8E0,8.676076E0,8E0,1.6E1,8.14642E0,2.265372E-3,-6.853381E-2,7E0,-6.8948366E-2,7.7497535E0,8E0,5E0,-7.384066E-2,5E0,7.70368E-2,3.316894E-2,5E0,4E0,2E-2,-4.9666505E-2,1.1001573E-1,-6.794944E-2,-5.7292502E-2,-2.2223283E-2,-7.321714E-2,6.472256E-2,-1.3939858E-3,3.5610598E-2,-2.786121E-3,-5.1270574E-2,1.1459786E-2,6.362527E-2,4.6857085E-2,-3.151E-2,-6.599473E-2,-5.795024E-2,2.760495E-2],"split_indices":[6,5,6,6,1,5,6,0,6,0,6,6,0,5,0,6,0,0,6,7,0,7,0,4,7,7,4,0,0,0,0,0,0,0,0,0,0,0,0,0,0,0,0,0,0],"split_type":[0,0,0,0,0,0,0,0,0,0,0,0,0,0,0,0,0,0,0,0,0,0,0,0,0,0,0,0,0,0,0,0,0,0,0,0,0,0,0,0,0,0,0,0,0],"sum_hessian":[3.2028127E4,8.098777E3,2.392935E4,6.24012E3,1.8586566E3,2.1168072E4,2.761279E3,2.0911653E3,4.148955E3,7.662613E2,1.0923954E3,1.0912759E4,1.0255313E4,7.547235E2,2.0065554E3,2.480823E3,1.6681318E3,3.974045E2,3.6885675E2,9.6319794E2,1.291974E2,1.0298951E4,6.1380707E2,7.3307294E2,9.52224E3,6.9159503E2,6.3128494E1,2.41272E3,6.810305E1,3.040507E2,9.335382E1,2.7892123E2,8.9935524E1,2.0409174E2,7.591062E2,1.9946251E3,8.304326E3,4.1384973E2,3.192232E2,3.5594941E3,5.962746E3,4.862098E1,6.4297406E2,2.6839935E1,3.628856E1],"tree_param":{"num_deleted":"0","num_feature":"8","num_nodes":"45","size_leaf_vector":"1"}},{"base_weights":[-4.5114115E-4,-1.234329E0,5.330074E-1,-1.2954417E0,-6.593317E-1,-6.4792633E-1,7.6247275E-1,-1.309318E0,-1.0884743E0,-8.587824E-1,-1.933891E-1,-8.529804E-1,1.5520632E-1,9.0148944E-1,-1.2555059E0,-1.3320347E0,-1.2419064E0,-4.0745792E-1,-1.1711522E0,-1.2725348E0,-4.3571934E-1,7.2888845E-1,-1.3300171E0,-2.7972564E-2,-9.763273E-1,4.6755347E-1,-7.241002E-2,6.999284E-1,1.1469414E0,-9.7427386E-1,-1.3751285E0,-6.6622704E-2,2.6065504E-2,-6.27386E-2,-5.1157107E-3,-3.8480487E-2,2.4766807E-2,-6.2358476E-2,-2.9335737E-2,-6.494772E-2,2.0958887E-2,-3.5144206E-2,-6.058034E-3,-3.2093894E-2,4.1676443E-2,-5.5812596E-4,-6.747957E-2,2.249679E-2,-7.2753154E-2,-6.7791276E-2,-4.0785458E-2,-3.6620494E-2,4.0489238E-2,5.587383E-2,2.7302552E-2,-5.8173653E-2,5.7810754E-2,-5.6954302E-2,3.9717086E-2,-7.0148945E-2,-6.2660865E-2],"categories":[],"categories_nodes":[],"categories_segments":[],"categories_sizes":[],"default_left":[0,0,0,0,0,0,0,0,0,0,0,0,0,0,0,0,0,0,0,0,0,0,0,0,0,0,0,0,0,0,0,0,0,0,0,0,0,0,0,0,0,0,0,0,0,0,0,0,0,0,0,0,0,0,0,0,0,0,0,0,0],"id":15,"left_children":[1,3,5,7,9,11,13,15,17,19,21,23,25,27,29,31,33,35,37,39,41,43,45,47,49,51,-1,53,55,57,59,-1,-1,-1,-1,-1,-1,-1,-1,-1,-1,-1,-1,-1,-1,-1,-1,-1,-1,-1,-1,-1,-1,-1,-1,-1,-1,-1,-1,-1,-1],"loss_changes":[2.0742033E4,3.3338574E2,5.96225E3,2.3264648E1,8.494672E1,5.89692E2,5.1689736E3,1.0675781E1,3.0270508E1,1.11655E2,2.901046E2,2.9019336E2,3.657547E2,8.518672E2,3.8615845E1,5.366211E0,2.9842773E1,2.0211859E1,2.0879456E1,1.5005981E1,2.6679031E1,2.2468338E1,3.1836243E0,2.5434235E2,1.5012085E2,2.5145421E2,0E0,6.075996E2,1.6782129E2,1.05215454E2,1.0625E0,0E0,0E0,0E0,0E0,0E0,0E0,0E0,0E0,0E0,0E0,0E0,0E0,0E0,0E0,0E0,0E0,0E0,0E0,0E0,0E0,0E0,0E0,0E0,0E0,0E0,0E0,0E0,0E0,0E0,0E0],"parents":[2147483647,0,0,1,1,2,2,3,3,4,4,5,5,6,6,7,7,8,8,9,9,10,10,11,11,12,12,13,13,14,14,15,15,16,16,17,17,18,18,19,19,20,20,21,21,22,22,23,23,24,24,25,25,27,27,28,28,29,29,30,30],"right_children":[2,4,6,8,10,12,14,16,18,20,22,24,26,28,30,32,34,36,38,40,42,44,46,48,50,52,-1,54,56,58,60,-1,-1,-1,-1,-1,-1,-1,-1,-1,-1,-1,-1,-1,-1,-1,-1,-1,-1,-1,-1,-1,-1,-1,-1,-1,-1,-1,-1,-1,-1],"split_conditions":[4.8202815E0,4.3694477E0,1.1E1,4.1431346E0,1.5E1,5.4780733E-2,2.1E1,1.1944715E1,5E0,1.11619625E1,1.9E1,5E0,8E0,3.2142233E-2,2.2E1,2.052725E1,1.0571026E-1,1.8133009E1,1.4425277E1,1.809066E1,7E0,1.0469994E1,2E0,8E0,6E0,1.0550617E1,-7.241002E-2,5E0,9.139059E0,3.6170874E-2,1.9735195E1,-6.6622704E-2,2.6065504E-2,-6.27386E-2,-5.1157107E-3,-3.8480487E-2,2.4766807E-2,-6.2358476E-2,-2.9335737E-2,-6.494772E-2,2.0958887E-2,-3.5144206E-2,-6.058034E-3,-3.2093894E-2,4.1676443E-2,-5.5812596E-4,-6.747957E-2,2.249679E-2,-7.2753154E-2,-6.7791276E-2,-4.0785458E-2,-3.6620494E-2,4.0489238E-2,5.587383E-2,2.7302552E-2,-5.8173653E-2,5.7810754E-2,-5.6954302E-2,3.9717086E-2,-7.0148945E-2,-6.2660865E-2],"split_indices":[3,3,6,3,6,4,6,0,7,0,6,7,6,4,6,1,4,1,0,1,6,1,7,6,6,0,0,7,1,4,1,0,0,0,0,0,0,0,0,0,0,0,0,0,0,0,0,0,0,0,0,0,0,0,0,0,0,0,0,0,0],"split_type":[0,0,0,0,0,0,0,0,0,0,0,0,0,0,0,0,0,0,0,0,0,0,0,0,0,0,0,0,0,0,0,0,0,0,0,0,0,0,0,0,0,0,0,0,0,0,0,0,0,0,0,0,0,0,0,0,0,0,0,0,0],"sum_hessian":[3.1510188E4,9.51074E3,2.1999447E4,8.595885E3,9.14855E2,3.578911E3,1.8420535E4,8.050793E3,5.450922E2,6.40038E2,2.7481693E2,2.8509507E3,7.279604E2,1.7233865E4,1.1866716E3,6.007566E3,2.043227E3,5.9653736E1,4.8543848E2,3.225645E2,3.174735E2,1.5191196E2,1.2290498E2,3.7096597E2,2.4799846E3,6.098656E2,1.1809476E2,9.465119E3,7.768745E3,3.5685403E2,8.2981757E2,6.0064873E3,1.0782999E0,2.0203175E3,2.290957E1,4.2680264E1,1.6973473E1,4.285618E2,5.6876667E1,3.178331E2,4.731429E0,1.7100172E2,1.464718E2,1.0409934E1,1.4150201E2,1.8204255E0,1.2108456E2,2.7841443E2,9.2551544E1,7.3527765E2,1.7447069E3,1.3508342E2,4.747822E2,2.5471458E3,6.9179736E3,3.0560602E1,7.7381846E3,3.2676013E2,3.0093885E1,6.6694653E2,1.6287105E2],"tree_param":{"num_deleted":"0","num_feature":"8","num_nodes":"61","size_leaf_vector":"1"}},{"base_weights":[-2.2614337E-4,-1.2272074E0,5.042116E-1,-1.2785288E0,-8.2378095E-1,1.0391976E0,3.1113154E-1,-1.2839036E0,-3.4081033E-1,-9.307989E-2,-9.203756E-1,1.066906E0,-3.458469E-1,-2.792813E-1,5.220754E-1,-1.289634E0,-1.0562057E0,-6.9043165E-1,6.178441E-1,-4.2666265E-1,7.982977E-1,-1.1552151E0,-7.5173265E-1,8.978212E-1,1.189509E0,-1.4461863E0,8.68339E-1,-4.811004E-1,5.098733E-1,3.5078028E-1,8.265457E-1,-6.501112E-2,-5.9691887E-2,-6.272747E-2,-6.411602E-5,-4.3339904E-2,5.0683375E-2,7.9409055E-2,-3.9880335E-2,1.0947558E-2,-4.6217725E-2,-3.7049618E-2,4.8394144E-2,-3.761561E-2,-6.298174E-2,3.746659E-2,-4.2163916E-2,4.8239082E-2,-7.4032205E-3,4.00161E-2,6.1653394E-2,-8.6664274E-2,-1.5227665E-2,-6.432841E-3,6.3903555E-2,-2.955382E-2,-4.0931386E-4,-1.07414145E-2,4.0664908E-2,-2.9293252E-2,1.9727139E-2,-2.3422582E-2,4.5411516E-2],"categories":[],"categories_nodes":[],"categories_segments":[],"categories_sizes":[],"default_left":[0,0,0,0,0,0,0,0,0,0,0,0,0,0,0,0,0,0,0,0,0,0,0,0,0,0,0,0,0,0,0,0,0,0,0,0,0,0,0,0,0,0,0,0,0,0,0,0,0,0,0,0,0,0,0,0,0,0,0,0,0,0,0],"id":16,"left_children":[1,3,5,7,9,11,13,15,17,19,21,23,25,27,29,31,33,35,37,39,41,43,45,47,49,51,53,55,57,59,61,-1,-1,-1,-1,-1,-1,-1,-1,-1,-1,-1,-1,-1,-1,-1,-1,-1,-1,-1,-1,-1,-1,-1,-1,-1,-1,-1,-1,-1,-1,-1,-1],"loss_changes":[1.906642E4,1.847666E2,2.2546387E3,3.9682617E1,7.160358E1,2.2253076E2,1.9981316E3,8.964844E0,1.608824E1,3.5934338E1,3.4655823E1,1.1658838E2,1.5395271E2,6.729154E2,6.1616626E2,6.2753906E0,4.1807144E1,1.1311434E1,1.9142746E1,2.8400394E1,9.317501E0,1.4746887E1,7.27666E1,1.6749744E2,5.473535E1,1.924678E1,2.2615772E1,1.749494E2,1.8942363E2,3.1035913E2,4.505149E2,0E0,0E0,0E0,0E0,0E0,0E0,0E0,0E0,0E0,0E0,0E0,0E0,0E0,0E0,0E0,0E0,0E0,0E0,0E0,0E0,0E0,0E0,0E0,0E0,0E0,0E0,0E0,0E0,0E0,0E0,0E0,0E0],"parents":[2147483647,0,0,1,1,2,2,3,3,4,4,5,5,6,6,7,7,8,8,9,9,10,10,11,11,12,12,13,13,14,14,15,15,16,16,17,17,18,18,19,19,20,20,21,21,22,22,23,23,24,24,25,25,26,26,27,27,28,28,29,29,30,30],"right_children":[2,4,6,8,10,12,14,16,18,20,22,24,26,28,30,32,34,36,38,40,42,44,46,48,50,52,54,56,58,60,62,-1,-1,-1,-1,-1,-1,-1,-1,-1,-1,-1,-1,-1,-1,-1,-1,-1,-1,-1,-1,-1,-1,-1,-1,-1,-1,-1,-1,-1,-1,-1,-1],"split_conditions":[4.7184987E0,4.204693E0,5E0,9.855767E0,5E0,1.5967273E1,6E0,1.0206436E-1,1E1,1.8561304E1,1.5071081E1,3E0,3.7860736E-2,4.859757E-2,3.91242E-2,1.4266587E1,1.7440172E1,4.1271343E0,1.1E1,4.6151204E0,5.7899604E0,3.295837E0,4.0775375E0,1.4630876E1,1.0204081E-2,3E0,3E0,8.270525E0,1.6724138E1,9.777554E-4,1.2667297E1,-6.501112E-2,-5.9691887E-2,-6.272747E-2,-6.411602E-5,-4.3339904E-2,5.0683375E-2,7.9409055E-2,-3.9880335E-2,1.0947558E-2,-4.6217725E-2,-3.7049618E-2,4.8394144E-2,-3.761561E-2,-6.298174E-2,3.746659E-2,-4.2163916E-2,4.8239082E-2,-7.4032205E-3,4.00161E-2,6.1653394E-2,-8.6664274E-2,-1.5227665E-2,-6.432841E-3,6.3903555E-2,-2.955382E-2,-4.0931386E-4,-1.07414145E-2,4.0664908E-2,-2.9293252E-2,1.9727139E-2,-2.3422582E-2,4.5411516E-2],"split_indices":[3,3,7,2,7,0,7,4,7,1,1,7,4,4,4,0,1,3,7,2,2,2,2,0,4,7,7,3,1,4,1,0,0,0,0,0,0,0,0,0,0,0,0,0,0,0,0,0,0,0,0,0,0,0,0,0,0,0,0,0,0,0,0],"split_type":[0,0,0,0,0,0,0,0,0,0,0,0,0,0,0,0,0,0,0,0,0,0,0,0,0,0,0,0,0,0,0,0,0,0,0,0,0,0,0,0,0,0,0,0,0,0,0,0,0,0,0,0,0,0,0,0,0,0,0,0,0,0,0],"sum_hessian":[3.0803174E4,8.973889E3,2.1829285E4,7.9591997E3,1.0146892E3,5.787873E3,1.6041412E4,7.9134717E3,4.5728065E1,1.1870388E2,8.959853E2,5.6745806E3,1.132927E2,4.2225513E3,1.1818861E4,7.7146567E3,1.9881476E2,3.37128E1,1.2015267E1,8.675766E1,3.1946222E1,3.7204846E2,5.239368E2,2.3886545E3,3.285926E3,5.9332424E1,5.3960278E1,3.3629082E3,8.596429E2,7.5649614E3,4.2539E3,6.935505E3,7.791516E2,1.6719078E2,3.1623983E1,3.0996181E1,2.7166173E0,7.0560718E0,4.9591956E0,3.8010235E1,4.874742E1,2.8359003E0,2.9110321E1,7.826556E1,2.937829E2,2.9703655E1,4.942332E2,2.245001E3,1.436535E2,3.327012E2,2.9532249E3,4.6995655E1,1.2336772E1,1.5916605E1,3.804367E1,2.7282134E3,6.346947E2,2.537875E2,6.058554E2,3.3712433E2,7.2278374E3,2.521217E2,4.001778E3],"tree_param":{"num_deleted":"0","num_feature":"8","num_nodes":"63","size_leaf_vector":"1"}},{"base_weights":[2.8143704E-3,-1.2098842E0,4.9073473E-1,-1.251909E0,-6.875748E-1,-6.374548E-1,7.167378E-1,-1.2702352E0,-9.9007994E-1,-8.5198814E-1,4.7069408E-2,-4.4549996E-1,-7.0418954E-2,8.5577697E-1,-1.2417163E0,-1.2793082E0,-1.124504E0,-1.1890326E0,3.9054894E-1,-7.264108E-1,-1.2518175E0,-4.8869786E-1,6.7648804E-1,-1.1520193E0,-8.9573815E-2,6.4786726E-1,1.1006547E0,-9.9417216E-1,-1.3455408E0,-6.2035978E-2,-6.486707E-2,-5.909281E-2,-3.312123E-2,-6.28983E-2,-2.5176734E-2,-1.5418793E-2,4.0831026E-2,-3.1013697E-2,-6.549842E-2,-6.5514855E-2,-4.0883135E-2,-5.048707E-2,-4.903463E-3,-1.7568764E-3,5.2541535E-2,-2.847211E-2,-6.7643315E-2,-1.0637075E-2,8.755683E-2,3.5248306E-2,-2.0797137E-2,-2.6949639E-2,5.551339E-2,-5.7286423E-2,3.328315E-2,-6.4232014E-2,-7.024011E-2],"categories":[],"categories_nodes":[],"categories_segments":[],"categories_sizes":[],"default_left":[0,0,0,0,0,0,0,0,0,0,0,0,0,0,0,0,0,0,0,0,0,0,0,0,0,0,0,0,0,0,0,0,0,0,0,0,0,0,0,0,0,0,0,0,0,0,0,0,0,0,0,0,0,0,0,0,0],"id":17,"left_children":[1,3,5,7,9,11,13,15,17,19,21,23,-1,25,27,29,31,33,35,37,39,41,43,45,47,49,51,53,55,-1,-1,-1,-1,-1,-1,-1,-1,-1,-1,-1,-1,-1,-1,-1,-1,-1,-1,-1,-1,-1,-1,-1,-1,-1,-1,-1,-1],"loss_changes":[1.7940719E4,1.9008594E2,5.513359E3,3.7370117E1,7.855432E1,5.334352E2,4.9061543E3,8.503906E0,1.4635498E2,2.5762512E1,4.073681E1,7.2688135E2,0E0,8.556328E2,2.936206E1,3.3125E0,1.1116638E1,2.1315002E1,2.0397457E1,2.4372803E1,2.1170502E0,1.3193059E1,1.482555E1,1.1254138E2,4.3647214E2,5.5299097E2,1.2231152E2,9.051471E1,1.222168E0,0E0,0E0,0E0,0E0,0E0,0E0,0E0,0E0,0E0,0E0,0E0,0E0,0E0,0E0,0E0,0E0,0E0,0E0,0E0,0E0,0E0,0E0,0E0,0E0,0E0,0E0,0E0,0E0],"parents":[2147483647,0,0,1,1,2,2,3,3,4,4,5,5,6,6,7,7,8,8,9,9,10,10,11,11,13,13,14,14,15,15,16,16,17,17,18,18,19,19,20,20,21,21,22,22,23,23,24,24,25,25,26,26,27,27,28,28],"right_children":[2,4,6,8,10,12,14,16,18,20,22,24,-1,26,28,30,32,34,36,38,40,42,44,46,48,50,52,54,56,-1,-1,-1,-1,-1,-1,-1,-1,-1,-1,-1,-1,-1,-1,-1,-1,-1,-1,-1,-1,-1,-1,-1,-1,-1,-1,-1,-1],"split_conditions":[4.7184987E0,4.3694477E0,1.1E1,3.8940203E-3,3.4173103E-3,8E0,2.1E1,4.1431346E0,1.8016823E1,4.2903975E-2,1.1870607E1,6E0,-7.0418954E-2,1.7080236E-3,2.2E1,8E0,2.0680622E1,1.076005E1,5.5570267E-2,1.9E1,2.3577074E-3,8.077447E0,7E0,5E0,7E0,1.581157E1,1.0766188E1,3.6170874E-2,2.4E1,-6.2035978E-2,-6.486707E-2,-5.909281E-2,-3.312123E-2,-6.28983E-2,-2.5176734E-2,-1.5418793E-2,4.0831026E-2,-3.1013697E-2,-6.549842E-2,-6.5514855E-2,-4.0883135E-2,-5.048707E-2,-4.903463E-3,-1.7568764E-3,5.2541535E-2,-2.847211E-2,-6.7643315E-2,-1.0637075E-2,8.755683E-2,3.5248306E-2,-2.0797137E-2,-2.6949639E-2,5.551339E-2,-5.7286423E-2,3.328315E-2,-6.4232014E-2,-7.024011E-2],"split_indices":[3,3,6,5,5,6,6,3,1,4,0,6,0,5,6,6,1,0,4,6,5,0,6,6,6,0,1,4,6,0,0,0,0,0,0,0,0,0,0,0,0,0,0,0,0,0,0,0,0,0,0,0,0,0,0,0,0],"split_type":[0,0,0,0,0,0,0,0,0,0,0,0,0,0,0,0,0,0,0,0,0,0,0,0,0,0,0,0,0,0,0,0,0,0,0,0,0,0,0,0,0,0,0,0,0,0,0,0,0,0,0,0,0,0,0,0,0],"sum_hessian":[3.0318611E4,8.698213E3,2.1620398E4,8.049182E3,6.490314E2,3.6079543E3,1.8012443E4,7.519052E3,5.3013E2,5.302106E2,1.1882083E2,2.8899536E3,7.1800073E2,1.6818957E4,1.1934875E3,7.071036E3,4.4801587E2,4.6347998E2,6.665002E1,4.0562857E2,1.24581985E2,6.4306274E1,5.4514557E1,9.6740393E2,1.9225497E3,9.098045E3,7.7209106E3,3.5578384E2,8.377037E2,2.2742417E3,4.7967944E3,3.971632E2,5.0852654E1,4.2037228E2,4.3107697E1,2.5347078E1,4.1302937E1,3.44952E2,6.0676582E1,1.0801461E2,1.6567375E1,2.6874525E1,3.743175E1,1.9103994E1,3.541056E1,2.4899724E2,7.184067E2,1.802803E3,1.1974676E2,8.634913E3,4.6313257E2,4.4682003E1,7.676229E3,3.2629977E2,2.9484068E1,4.2432318E2,4.1338052E2],"tree_param":{"num_deleted":"0","num_feature":"8","num_nodes":"57","size_leaf_vector":"1"}},{"base_weights":[-1.0018644E-3,-1.1933947E0,4.6541825E-1,-1.2303926E0,-7.307811E-1,-6.076701E-1,6.8722755E-1,-1.2340539E0,-6.1482644E-1,-9.708951E-1,-4.9615765E-1,-4.214405E-1,-6.909679E-2,8.2193774E-1,-1.2104596E0,-1.2450671E0,-1.0395733E0,-6.667527E-2,-2.1130644E-1,-4.7166216E-1,-1.2322907E0,4.440072E-1,-6.1864275E-1,-1.1073867E0,-8.504601E-2,5.8987075E-1,1.0293982E0,-9.391554E-1,-1.3218758E0,-6.259083E-2,-4.8482597E-2,5.5746526E-2,-5.2835524E-2,-6.1552E-2,1.3114601E-2,-5.4445114E-2,2.874392E-2,-4.914018E-2,-6.416694E-2,-1.7335866E-2,4.4129264E-2,2.1330971E-2,-3.495626E-2,-2.5298748E-2,-6.6579096E-2,-1.053658E-2,8.577483E-2,2.5803605E-2,7.297552E-2,-4.6401035E-2,5.1924277E-2,-5.385369E-2,5.4426987E-2,-6.322156E-2,-6.887987E-2],"categories":[],"categories_nodes":[],"categories_segments":[],"categories_sizes":[],"default_left":[0,0,0,0,0,0,0,0,0,0,0,0,0,0,0,0,0,0,0,0,0,0,0,0,0,0,0,0,0,0,0,0,0,0,0,0,0,0,0,0,0,0,0,0,0,0,0,0,0,0,0,0,0,0,0],"id":18,"left_children":[1,3,5,7,9,11,13,15,17,19,21,23,-1,25,27,29,31,-1,33,35,37,39,41,43,45,47,49,51,53,-1,-1,-1,-1,-1,-1,-1,-1,-1,-1,-1,-1,-1,-1,-1,-1,-1,-1,-1,-1,-1,-1,-1,-1,-1,-1],"loss_changes":[1.6547568E4,1.4229102E2,5.091086E3,1.6697266E1,3.4559113E1,5.277478E2,4.5320176E3,1.5193359E1,1.3576485E1,3.9397156E1,3.6737526E1,6.8179224E2,0E0,7.961953E2,3.4281982E1,1.2321289E1,1.663501E1,0E0,1.5676651E1,6.9680466E1,1.2916565E0,1.3164831E1,2.3900375E1,1.3042188E2,4.49307E2,5.007461E2,1.5637793E2,9.781464E1,9.169922E-1,0E0,0E0,0E0,0E0,0E0,0E0,0E0,0E0,0E0,0E0,0E0,0E0,0E0,0E0,0E0,0E0,0E0,0E0,0E0,0E0,0E0,0E0,0E0,0E0,0E0,0E0],"parents":[2147483647,0,0,1,1,2,2,3,3,4,4,5,5,6,6,7,7,8,8,9,9,10,10,11,11,13,13,14,14,15,15,16,16,18,18,19,19,20,20,21,21,22,22,23,23,24,24,25,25,26,26,27,27,28,28],"right_children":[2,4,6,8,10,12,14,16,18,20,22,24,-1,26,28,30,32,-1,34,36,38,40,42,44,46,48,50,52,54,-1,-1,-1,-1,-1,-1,-1,-1,-1,-1,-1,-1,-1,-1,-1,-1,-1,-1,-1,-1,-1,-1,-1,-1,-1,-1],"split_conditions":[4.6634393E0,4.3307333E0,1.1E1,9.855767E0,1.6404215E1,8E0,2.1E1,4.1431346E0,9E0,4.0430512E0,4.905275E0,6E0,-6.909679E-2,2.4390243E-2,2.2E1,1.0206436E-1,1.0986123E0,-6.667527E-2,3.2580965E0,1.1413425E1,4.6151204E0,4.5108595E0,3E0,5E0,7E0,1.6E1,9.139059E0,8.691147E0,2.4E1,-6.259083E-2,-4.8482597E-2,5.5746526E-2,-5.2835524E-2,-6.1552E-2,1.3114601E-2,-5.4445114E-2,2.874392E-2,-4.914018E-2,-6.416694E-2,-1.7335866E-2,4.4129264E-2,2.1330971E-2,-3.495626E-2,-2.5298748E-2,-6.6579096E-2,-1.053658E-2,8.577483E-2,2.5803605E-2,7.297552E-2,-4.6401035E-2,5.1924277E-2,-5.385369E-2,5.4426987E-2,-6.322156E-2,-6.887987E-2],"split_indices":[3,3,6,2,1,6,6,3,7,2,2,6,0,4,6,4,2,0,3,1,2,3,7,6,6,6,1,3,6,0,0,0,0,0,0,0,0,0,0,0,0,0,0,0,0,0,0,0,0,0,0,0,0,0,0],"split_type":[0,0,0,0,0,0,0,0,0,0,0,0,0,0,0,0,0,0,0,0,0,0,0,0,0,0,0,0,0,0,0,0,0,0,0,0,0,0,0,0,0,0,0,0,0,0,0,0,0,0,0,0,0,0,0],"sum_hessian":[2.975147E4,8.364992E3,2.1386479E4,7.7439995E3,6.209924E2,3.663096E3,1.7723383E4,7.697213E3,4.678689E1,3.0535422E2,3.1563815E2,2.9541062E3,7.089896E2,1.654918E4,1.1742017E3,7.2795776E3,4.1763528E2,1.5994901E1,3.0791986E1,1.0590099E2,1.9945323E2,3.6079098E1,2.7955905E2,9.712752E2,1.982831E3,7.813158E3,8.736022E3,3.4457465E2,8.296271E2,7.101986E3,1.7759135E2,2.7901828E0,4.148451E2,9.258219E0,2.1533768E1,6.65877E1,3.9313293E1,3.731855E1,1.6213467E2,1.2946659E1,2.3132439E1,1.9678944E1,2.598801E2,2.6463623E2,7.06639E2,1.8542776E3,1.2855356E2,7.203457E3,6.0970105E2,3.990273E1,8.696119E3,3.2306915E2,2.1505482E1,4.2016284E2,4.0946423E2],"tree_param":{"num_deleted":"0","num_feature":"8","num_nodes":"55","size_leaf_vector":"1"}},{"base_weights":[-5.175071E-4,-1.1386491E0,4.6260712E-1,-1.2064195E0,-5.9538615E-1,-5.910069E-1,6.7241526E-1,-1.2282429E0,-8.929927E-1,-7.437431E-1,8.704538E-2,-4.063649E-1,-6.780038E-2,7.986791E-1,-1.1775169E0,-1.2485056E0,-1.1647221E0,-1.133598E0,3.0649918E-1,-9.5345515E-1,-2.7386564E-1,-7.12392E-1,5.817193E-1,-1.073691E0,-8.213341E-2,5.9633106E-1,1.0514985E0,-9.2396295E-1,-1.2878978E0,-6.271545E-2,-5.6784183E-2,-5.945083E-2,-2.9689397E-3,-6.0850322E-2,-3.630176E-2,-3.1595938E-2,3.316167E-2,-6.23627E-2,-3.5542797E-2,3.429802E-2,-6.346798E-2,6.27892E-2,-4.063684E-2,-6.047839E-4,4.3647815E-2,-2.323788E-2,-6.474053E-2,4.9258325E-2,-1.4994546E-2,3.23462E-2,-2.4890853E-2,-3.361812E-2,5.301581E-2,-5.364442E-2,5.234921E-2,-6.106153E-2,-6.7693904E-2],"categories":[],"categories_nodes":[],"categories_segments":[],"categories_sizes":[],"default_left":[0,0,0,0,0,0,0,0,0,0,0,0,0,0,0,0,0,0,0,0,0,0,0,0,0,0,0,0,0,0,0,0,0,0,0,0,0,0,0,0,0,0,0,0,0,0,0,0,0,0,0,0,0,0,0,0,0],"id":19,"left_children":[1,3,5,7,9,11,13,15,17,19,21,23,-1,25,27,29,31,33,35,37,39,41,43,45,47,49,51,53,55,-1,-1,-1,-1,-1,-1,-1,-1,-1,-1,-1,-1,-1,-1,-1,-1,-1,-1,-1,-1,-1,-1,-1,-1,-1,-1,-1,-1],"loss_changes":[1.5301076E4,3.0839648E2,4.561473E3,4.995508E1,9.454266E1,4.8350635E2,4.0201719E3,7.5234375E0,1.4162592E2,7.5282745E1,6.666825E1,5.975305E2,0E0,8.234346E2,2.9590698E1,2.0292969E0,4.5630127E1,1.2984314E1,2.8062283E1,3.6865234E1,2.2825854E2,1.3757172E1,1.8004326E1,1.2099585E2,4.3257373E2,4.957351E2,1.0954492E2,1.0007294E2,1.7059326E0,0E0,0E0,0E0,0E0,0E0,0E0,0E0,0E0,0E0,0E0,0E0,0E0,0E0,0E0,0E0,0E0,0E0,0E0,0E0,0E0,0E0,0E0,0E0,0E0,0E0,0E0,0E0,0E0],"parents":[2147483647,0,0,1,1,2,2,3,3,4,4,5,5,6,6,7,7,8,8,9,9,10,10,11,11,13,13,14,14,15,15,16,16,17,17,18,18,19,19,20,20,21,21,22,22,23,23,24,24,25,25,26,26,27,27,28,28],"right_children":[2,4,6,8,10,12,14,16,18,20,22,24,-1,26,28,30,32,34,36,38,40,42,44,46,48,50,52,54,56,-1,-1,-1,-1,-1,-1,-1,-1,-1,-1,-1,-1,-1,-1,-1,-1,-1,-1,-1,-1,-1,-1,-1,-1,-1,-1,-1,-1],"split_conditions":[4.8202815E0,4.3307333E0,1.1E1,3.8940203E-3,3.496149E-3,8E0,2.1E1,1.8758244E1,1.713709E1,1.5E1,1.5719435E1,6E0,-6.780038E-2,1.740644E-3,2.2E1,4.1431346E0,2.3097356E-3,1.4783196E1,4.23642E-2,1.6317007E1,1.9E1,1E0,7E0,5E0,5E0,2.2141973E1,1.0766188E1,4.23642E-2,2.4E1,-6.271545E-2,-5.6784183E-2,-5.945083E-2,-2.9689397E-3,-6.0850322E-2,-3.630176E-2,-3.1595938E-2,3.316167E-2,-6.23627E-2,-3.5542797E-2,3.429802E-2,-6.346798E-2,6.27892E-2,-4.063684E-2,-6.047839E-4,4.3647815E-2,-2.323788E-2,-6.474053E-2,4.9258325E-2,-1.4994546E-2,3.23462E-2,-2.4890853E-2,-3.361812E-2,5.301581E-2,-5.364442E-2,5.234921E-2,-6.106153E-2,-6.7693904E-2],"split_indices":[3,3,6,5,5,6,6,1,1,6,1,6,0,5,6,3,5,1,4,1,6,7,6,6,7,1,1,4,6,0,0,0,0,0,0,0,0,0,0,0,0,0,0,0,0,0,0,0,0,0,0,0,0,0,0,0,0],"split_type":[0,0,0,0,0,0,0,0,0,0,0,0,0,0,0,0,0,0,0,0,0,0,0,0,0,0,0,0,0,0,0,0,0,0,0,0,0,0,0,0,0,0,0,0,0,0,0,0,0,0,0,0,0,0,0,0,0],"sum_hessian":[2.902697E4,8.394927E3,2.0632043E4,7.4627515E3,9.321756E2,3.425925E3,1.7206117E4,6.974228E3,4.8852353E2,7.656398E2,1.6653581E2,2.7610452E3,6.648799E2,1.610731E4,1.0988077E3,5.273392E3,1.7008359E3,4.0694885E2,8.157467E1,5.2866223E2,2.3697757E2,6.3490063E1,1.0304576E2,9.0208405E2,1.858961E3,8.948552E3,7.1587583E3,3.3610895E2,7.6269885E2,5.0057886E3,2.6760315E2,1.664183E3,3.665289E1,3.3616583E2,7.078302E1,2.2256298E1,5.9318375E1,2.3722758E2,2.9143463E2,1.20808495E2,1.1616907E2,2.5213485E0,6.096871E1,3.4223846E1,6.8821915E1,2.411343E2,6.609497E2,3.144103E2,1.5445508E3,8.553452E3,3.950992E2,3.6048325E1,7.12271E3,3.1292023E2,2.3188717E1,3.890785E2,3.7362036E2],"tree_param":{"num_deleted":"0","num_feature":"8","num_nodes":"57","size_leaf_vector":"1"}},{"base_weights":[-6.896726E-3,-8.608502E-1,2.7537054E-1,-1.0365952E0,-2.7693838E-1,4.5528597E-1,-1.201384E0,-1.125198E0,-8.03734E-1,-7.108613E-1,2.6598603E-1,9.051236E-2,7.997266E-1,-1.058677E0,-6.277437E-2,-1.1567088E0,-8.9154285E-1,-1.2348527E0,-6.1484617E-1,-1.1965861E0,-4.4621348E-1,4.1794056E-1,-6.735071E-2,1.1122853E-2,7.10454E-2,-3.387354E-1,9.0828604E-1,-1.143174E0,-1.2600866E-1,-5.570497E-2,-6.308613E-2,-6.0770612E-2,-3.756096E-2,-6.204138E-2,1.7925858E-2,-1.7242512E-2,-6.4266145E-2,-6.3075416E-2,-5.2495755E-2,-1.0732857E-2,-6.722895E-2,1.3572621E-2,8.670363E-2,-5.1945817E-2,3.8682618E-3,-4.2667344E-2,1.2265031E-2,3.5051603E-2,5.210663E-2,-5.0133985E-2,-6.4835526E-2,-5.3941976E-2,2.7896443E-2],"categories":[],"categories_nodes":[],"categories_segments":[],"categories_sizes":[],"default_left":[0,0,0,0,0,0,0,0,0,0,0,0,0,0,0,0,0,0,0,0,0,0,0,0,0,0,0,0,0,0,0,0,0,0,0,0,0,0,0,0,0,0,0,0,0,0,0,0,0,0,0,0,0],"id":20,"left_children":[1,3,5,7,9,11,13,15,17,19,21,23,25,27,-1,29,31,33,35,37,39,41,-1,43,-1,45,47,49,51,-1,-1,-1,-1,-1,-1,-1,-1,-1,-1,-1,-1,-1,-1,-1,-1,-1,-1,-1,-1,-1,-1,-1,-1],"loss_changes":[6.852147E3,7.244155E2,5.677045E3,1.1108447E2,3.854098E2,2.3928606E3,1.6587402E1,2.7899414E1,1.2135364E2,1.1632422E2,1.7877069E2,9.770559E2,1.210959E3,5.063141E1,0E0,1.4071777E1,2.0505981E1,4.784668E0,1.8867386E2,1.7228699E0,1.2245497E2,1.2778591E2,0E0,6.073785E2,0E0,2.5672653E2,2.4735449E2,1.1440674E1,3.6213585E1,0E0,0E0,0E0,0E0,0E0,0E0,0E0,0E0,0E0,0E0,0E0,0E0,0E0,0E0,0E0,0E0,0E0,0E0,0E0,0E0,0E0,0E0,0E0,0E0],"parents":[2147483647,0,0,1,1,2,2,3,3,4,4,5,5,6,6,7,7,8,8,9,9,10,10,11,11,12,12,13,13,15,15,16,16,17,17,18,18,19,19,20,20,21,21,23,23,25,25,26,26,27,27,28,28],"right_children":[2,4,6,8,10,12,14,16,18,20,22,24,26,28,-1,30,32,34,36,38,40,42,-1,44,-1,46,48,50,52,-1,-1,-1,-1,-1,-1,-1,-1,-1,-1,-1,-1,-1,-1,-1,-1,-1,-1,-1,-1,-1,-1,-1,-1],"split_conditions":[1.1E1,1.9069413E-3,2.1E1,5.4792827E-4,1.7838224E1,9.249624E-4,2.2E1,7.6338534E0,6E0,8.676076E0,8E0,1.6E1,8.546947E0,2.265372E-3,-6.277437E-2,8E0,6E0,2.3659203E1,8E0,7.327123E0,8E0,7E0,-6.735071E-2,9.777554E-4,7.10454E-2,1.5E1,2.65625E-3,1.9144531E1,2E-2,-5.570497E-2,-6.308613E-2,-6.0770612E-2,-3.756096E-2,-6.204138E-2,1.7925858E-2,-1.7242512E-2,-6.4266145E-2,-6.3075416E-2,-5.2495755E-2,-1.0732857E-2,-6.722895E-2,1.3572621E-2,8.670363E-2,-5.1945817E-2,3.8682618E-3,-4.2667344E-2,1.2265031E-2,3.5051603E-2,5.210663E-2,-5.0133985E-2,-6.4835526E-2,-5.3941976E-2,2.7896443E-2],"split_indices":[6,5,6,5,1,5,6,2,6,0,6,6,0,5,0,6,6,1,6,0,6,6,0,4,0,6,5,1,4,0,0,0,0,0,0,0,0,0,0,0,0,0,0,0,0,0,0,0,0,0,0,0,0],"split_type":[0,0,0,0,0,0,0,0,0,0,0,0,0,0,0,0,0,0,0,0,0,0,0,0,0,0,0,0,0,0,0,0,0,0,0,0,0,0,0,0,0,0,0,0,0,0,0,0,0,0,0,0,0],"sum_hessian":[2.8425074E4,7.061031E3,2.1364043E4,5.4268804E3,1.6341503E3,1.9044512E4,2.3195322E3,3.928332E3,1.4985486E3,9.080765E2,7.260737E2,9.249868E3,9.794643E3,6.432954E2,1.6762369E3,3.4580303E3,4.703018E2,4.5485272E2,1.0436958E3,3.1902618E2,5.890503E2,6.642392E2,6.1834522E1,8.729931E3,5.1993805E2,8.52488E2,8.942154E3,5.896492E2,5.364622E1,2.4681748E3,9.898556E2,1.3985431E2,3.3044748E2,4.533739E2,1.4788322E0,7.4514557E2,2.9855023E2,2.1587212E2,1.0315407E2,4.693205E2,1.197298E2,5.9879803E2,6.544118E1,5.171802E2,8.21275E3,4.529336E2,3.9955435E2,3.511316E3,5.430839E3,3.1183423E2,2.7781497E2,2.2175257E1,3.1470963E1],"tree_param":{"num_deleted":"0","num_feature":"8","num_nodes":"53","size_leaf_vector":"1"}},{"base_weights":[-6.257274E-3,-1.1386092E0,4.2869192E-1,-1.186721E0,-6.453961E-1,-5.6587064E-1,6.3088286E-1,-1.2078813E0,-8.857877E-1,-7.77696E-1,5.8007795E-2,-3.9570332E-1,-6.562376E-2,7.501363E-1,-1.1398079E0,-1.2121483E0,-5.1229644E-1,-1.1683695E0,1.2557207E-1,-1.9254461E-1,-9.099384E-1,-8.767631E-1,4.523572E-1,-1.0203859E0,-1.0083121E-1,5.5411303E-1,1.0014524E0,-8.78462E-1,-1.2511537E0,-6.111083E-2,-5.406716E-2,-4.752251E-2,1.189443E-2,-5.9410404E-2,5.3959012E-2,-1.6767874E-2,2.7720377E-2,-4.7424298E-2,4.2944696E-2,-5.0560888E-2,-1.470602E-2,-4.74853E-2,3.6581635E-2,6.623613E-2,1.2076004E-2,-2.15365E-2,-6.2177945E-2,-1.0486613E-2,8.255297E-2,3.050786E-2,-2.2529973E-2,-3.7052967E-2,5.0611895E-2,-5.224685E-2,4.5114685E-2,-6.352242E-2,-5.4288626E-2],"categories":[],"categories_nodes":[],"categories_segments":[],"categories_sizes":[],"default_left":[0,0,0,0,0,0,0,0,0,0,0,0,0,0,0,0,0,0,0,0,0,0,0,0,0,0,0,0,0,0,0,0,0,0,0,0,0,0,0,0,0,0,0,0,0,0,0,0,0,0,0,0,0,0,0,0,0],"id":21,"left_children":[1,3,5,7,9,11,13,15,17,19,21,23,-1,25,27,29,31,33,35,37,39,41,43,45,47,49,51,53,55,-1,-1,-1,-1,-1,-1,-1,-1,-1,-1,-1,-1,-1,-1,-1,-1,-1,-1,-1,-1,-1,-1,-1,-1,-1,-1,-1,-1],"loss_changes":[1.3785946E4,1.8356152E2,4.0670334E3,4.399121E1,6.4497284E1,4.3362732E2,3.5497983E3,1.899414E1,1.340787E2,4.493936E1,4.115692E1,5.12777E2,0E0,7.751992E2,2.9772583E1,7.328125E0,1.4039794E1,1.7618805E1,2.0594088E1,8.7243416E1,2.9345154E1,4.583727E0,1.4104719E1,1.1694476E2,3.6142194E2,4.9854126E2,1.304082E2,9.589896E1,9.868164E-1,0E0,0E0,0E0,0E0,0E0,0E0,0E0,0E0,0E0,0E0,0E0,0E0,0E0,0E0,0E0,0E0,0E0,0E0,0E0,0E0,0E0,0E0,0E0,0E0,0E0,0E0,0E0,0E0],"parents":[2147483647,0,0,1,1,2,2,3,3,4,4,5,5,6,6,7,7,8,8,9,9,10,10,11,11,13,13,14,14,15,15,16,16,17,17,18,18,19,19,20,20,21,21,22,22,23,23,24,24,25,25,26,26,27,27,28,28],"right_children":[2,4,6,8,10,12,14,16,18,20,22,24,-1,26,28,30,32,34,36,38,40,42,44,46,48,50,52,54,56,-1,-1,-1,-1,-1,-1,-1,-1,-1,-1,-1,-1,-1,-1,-1,-1,-1,-1,-1,-1,-1,-1,-1,-1,-1,-1,-1,-1],"split_conditions":[4.7184987E0,4.3307333E0,1.1E1,3.8940203E-3,3.985526E-3,8E0,2.1E1,9.855767E0,1.076005E1,4.0073333E0,8.676076E0,6E0,-6.562376E-2,1.7080236E-3,2.2E1,4.1271343E0,8.417508E-4,1.8016823E1,1.8561304E1,1.2E1,8.335671E0,7.53743E0,5.0369525E0,5E0,7E0,1.581157E1,1.0766188E1,8.228444E0,7.559038E0,-6.111083E-2,-5.406716E-2,-4.752251E-2,1.189443E-2,-5.9410404E-2,5.3959012E-2,-1.6767874E-2,2.7720377E-2,-4.7424298E-2,4.2944696E-2,-5.0560888E-2,-1.470602E-2,-4.74853E-2,3.6581635E-2,6.623613E-2,1.2076004E-2,-2.15365E-2,-6.2177945E-2,-1.0486613E-2,8.255297E-2,3.050786E-2,-2.2529973E-2,-3.7052967E-2,5.0611895E-2,-5.224685E-2,4.5114685E-2,-6.352242E-2,-5.4288626E-2],"split_indices":[3,3,6,5,5,6,6,2,0,2,0,6,0,5,6,3,5,1,1,6,2,2,2,6,6,0,1,3,2,0,0,0,0,0,0,0,0,0,0,0,0,0,0,0,0,0,0,0,0,0,0,0,0,0,0,0,0],"split_type":[0,0,0,0,0,0,0,0,0,0,0,0,0,0,0,0,0,0,0,0,0,0,0,0,0,0,0,0,0,0,0,0,0,0,0,0,0,0,0,0,0,0,0,0,0,0,0,0,0,0,0,0,0,0,0,0,0],"sum_hessian":[2.7988895E4,7.7668823E3,2.0222012E4,7.075297E3,6.9158563E2,3.4161958E3,1.6805816E4,6.607662E3,4.676345E2,5.8201215E2,1.0957351E2,2.783342E3,6.328538E2,1.5745928E4,1.0598888E3,6.5666367E3,4.1025692E1,3.6538718E2,1.0224729E2,1.0773925E2,4.742729E2,3.2147457E1,7.7426056E1,8.9174084E2,1.8916012E3,8.847894E3,6.898034E3,3.1930914E2,7.4057965E2,6.0895684E3,4.7706824E2,2.5730537E1,1.5295156E1,3.6265744E2,2.7297544E0,4.938466E1,5.2862633E1,6.273399E1,4.500526E1,4.0673755E2,6.753534E1,3.1144543E1,1.0029136E0,1.4042068E1,6.338399E1,2.4564389E2,6.46097E2,1.7817258E3,1.0987539E2,8.380794E3,4.670989E2,4.2016617E1,6.8560176E3,2.9238824E2,2.6920889E1,6.572213E2,8.335835E1],"tree_param":{"num_deleted":"0","num_feature":"8","num_nodes":"57","size_leaf_vector":"1"}},{"base_weights":[4.078009E-4,-1.117403E0,4.2103386E-1,-1.1751842E0,-6.9561327E-1,-5.2148247E-1,6.1497813E-1,-1.1817347E0,-6.119502E-1,2.8848672E-2,-7.909836E-1,-3.5030353E-1,-6.464656E-2,7.3054636E-1,-1.1301847E0,-1.1879473E0,-9.2371523E-1,-1.3623215E-1,-6.128786E-2,-8.125977E-1,4.7069094E-1,-7.091629E-1,-6.1173E-2,-9.9220747E-1,-6.116563E-2,5.251273E-1,9.710514E-1,-8.72669E-1,-1.2415767E0,-6.08703E-2,-5.767494E-2,-5.5399776E-2,7.61234E-3,-2.8631289E-2,3.562696E-2,-5.2984398E-2,4.532005E-2,3.2748867E-2,-5.8656443E-2,-4.3458547E-2,2.2235272E-2,-1.9281102E-2,-6.19034E-2,4.631366E-2,-1.2797034E-2,4.821683E-2,1.8983666E-2,9.781046E-3,4.976661E-2,-5.13543E-2,4.7854718E-2,-6.313338E-2,-5.3197976E-2],"categories":[],"categories_nodes":[],"categories_segments":[],"categories_sizes":[],"default_left":[0,0,0,0,0,0,0,0,0,0,0,0,0,0,0,0,0,0,0,0,0,0,0,0,0,0,0,0,0,0,0,0,0,0,0,0,0,0,0,0,0,0,0,0,0,0,0,0,0,0,0,0,0],"id":22,"left_children":[1,3,5,7,9,11,13,15,17,19,21,23,-1,25,27,29,31,33,-1,35,37,39,-1,41,43,45,47,49,51,-1,-1,-1,-1,-1,-1,-1,-1,-1,-1,-1,-1,-1,-1,-1,-1,-1,-1,-1,-1,-1,-1,-1,-1],"loss_changes":[1.2866053E4,1.8152148E2,3.6347427E3,2.3549805E1,6.2473785E1,4.4769232E2,3.326581E3,9.324219E0,2.2522858E1,3.9833595E1,2.7397186E1,5.156637E2,0E0,7.6358984E2,2.8306396E1,5.036133E0,3.137262E1,1.7039608E1,0E0,1.6634432E1,2.2037502E1,1.2483856E2,0E0,1.2820697E2,3.6889914E2,5.3267334E2,1.3392725E2,8.934451E1,1.3269043E0,0E0,0E0,0E0,0E0,0E0,0E0,0E0,0E0,0E0,0E0,0E0,0E0,0E0,0E0,0E0,0E0,0E0,0E0,0E0,0E0,0E0,0E0,0E0,0E0],"parents":[2147483647,0,0,1,1,2,2,3,3,4,4,5,5,6,6,7,7,8,8,9,9,10,10,11,11,13,13,14,14,15,15,16,16,17,17,19,19,20,20,21,21,23,23,24,24,25,25,26,26,27,27,28,28],"right_children":[2,4,6,8,10,12,14,16,18,20,22,24,-1,26,28,30,32,34,-1,36,38,40,-1,42,44,46,48,50,52,-1,-1,-1,-1,-1,-1,-1,-1,-1,-1,-1,-1,-1,-1,-1,-1,-1,-1,-1,-1,-1,-1,-1,-1],"split_conditions":[4.7184987E0,4.204693E0,1.1E1,9.313438E0,5E0,8E0,2.1E1,1.0571026E-1,1.2E1,7E0,1.9E1,6E0,-6.464656E-2,2.8901733E-2,2.2E1,9.561068E0,1.2476104E1,1E1,-6.128786E-2,8.608496E0,1.9E1,1.5E1,-6.1173E-2,5E0,5E0,5E0,7.0483866E0,4.23642E-2,7.559038E0,-6.08703E-2,-5.767494E-2,-5.5399776E-2,7.61234E-3,-2.8631289E-2,3.562696E-2,-5.2984398E-2,4.532005E-2,3.2748867E-2,-5.8656443E-2,-4.3458547E-2,2.2235272E-2,-1.9281102E-2,-6.19034E-2,4.631366E-2,-1.2797034E-2,4.821683E-2,1.8983666E-2,9.781046E-3,4.976661E-2,-5.13543E-2,4.7854718E-2,-6.313338E-2,-5.3197976E-2],"split_indices":[3,3,6,2,7,6,6,4,6,6,6,6,0,4,6,0,0,7,0,2,6,6,0,6,7,7,0,4,2,0,0,0,0,0,0,0,0,0,0,0,0,0,0,0,0,0,0,0,0,0,0,0,0],"split_type":[0,0,0,0,0,0,0,0,0,0,0,0,0,0,0,0,0,0,0,0,0,0,0,0,0,0,0,0,0,0,0,0,0,0,0,0,0,0,0,0,0,0,0,0,0,0,0,0,0,0,0,0,0],"sum_hessian":[2.736208E4,7.4806494E3,1.988143E4,6.5777705E3,9.028792E2,3.392605E3,1.6488824E4,6.501065E3,7.6705185E1,1.0511225E2,7.9776697E2,2.777706E3,6.148991E2,1.5465266E4,1.02355975E3,6.344691E3,1.5637418E2,4.39019E1,3.2803288E1,3.590173E1,6.9210526E1,6.730682E2,1.246988E2,8.6186993E2,1.915836E3,8.342766E3,7.1224995E3,3.1173233E2,7.118274E2,3.4015364E3,2.9431545E3,1.3348279E2,2.2891397E1,2.9209341E1,1.4692559E1,3.1725082E1,4.1766458E0,6.277451E1,6.4360137E0,5.9131647E2,8.175171E1,2.4931929E2,6.1255066E2,3.1502383E2,1.6008121E3,2.0741335E3,6.2686323E3,2.165282E2,6.905971E3,2.878766E2,2.3855755E1,6.3081305E2,8.101437E1],"tree_param":{"num_deleted":"0","num_feature":"8","num_nodes":"53","size_leaf_vector":"1"}},{"base_weights":[9.572089E-4,-7.869772E-1,2.579098E-1,-1.0080099E0,-2.623806E-1,4.176006E-1,-1.1445514E0,-1.0593396E0,-6.883738E-1,-8.3524084E-1,8.0232024E-2,8.4685E-2,7.443275E-1,-1.001518E0,-1.1987213E0,-6.9674104E-1,-1.0961664E0,-7.966661E-1,3.840099E-1,-1.07332036E-1,-9.4904864E-1,2.3238286E-1,-6.4385206E-2,1.198574E-2,6.854923E-2,-4.2714882E-1,8.249964E-1,-1.0986112E0,4.5138434E-2,-6.037533E-2,-1.0649374E0,-2.299179E-2,-6.269553E-2,-5.2551847E-2,-6.083535E-2,-5.755947E-2,-3.3369955E-2,-4.4945583E-2,3.9368644E-2,-4.9572725E-2,1.3685077E-2,-5.452996E-2,-2.5814911E-2,5.0840545E-3,8.6437546E-2,-5.0678797E-2,3.674236E-3,-3.1688973E-2,7.0688926E-2,5.493783E-2,3.380317E-2,-3.2074347E-2,-5.7386678E-2,-5.4873087E-2,3.5355236E-2,5.743763E-2,-6.165883E-2],"categories":[],"categories_nodes":[],"categories_segments":[],"categories_sizes":[],"default_left":[0,0,0,0,0,0,0,0,0,0,0,0,0,0,0,0,0,0,0,0,0,0,0,0,0,0,0,0,0,0,0,0,0,0,0,0,0,0,0,0,0,0,0,0,0,0,0,0,0,0,0,0,0,0,0,0,0],"id":23,"left_children":[1,3,5,7,9,11,13,15,17,19,21,23,25,27,29,31,33,35,37,39,41,43,-1,45,-1,47,49,51,53,-1,55,-1,-1,-1,-1,-1,-1,-1,-1,-1,-1,-1,-1,-1,-1,-1,-1,-1,-1,-1,-1,-1,-1,-1,-1,-1,-1],"loss_changes":[5.421293E3,7.632656E2,4.5226934E3,7.5274414E1,3.8344733E2,1.9718359E3,1.4794434E1,5.251123E1,7.507568E1,6.046521E1,2.5489153E2,8.3976935E2,8.649717E2,5.829492E1,4.6801758E-1,4.83394E1,1.8414062E1,2.6046295E1,3.1616085E1,3.3953148E1,3.815924E1,2.1527914E2,0E0,5.3624225E2,0E0,2.2536331E2,3.482705E2,1.1042114E1,3.8303207E1,0E0,3.8817375E1,0E0,0E0,0E0,0E0,0E0,0E0,0E0,0E0,0E0,0E0,0E0,0E0,0E0,0E0,0E0,0E0,0E0,0E0,0E0,0E0,0E0,0E0,0E0,0E0,0E0,0E0],"parents":[2147483647,0,0,1,1,2,2,3,3,4,4,5,5,6,6,7,7,8,8,9,9,10,10,11,11,12,12,13,13,14,14,15,15,16,16,17,17,18,18,19,19,20,20,21,21,23,23,25,25,26,26,27,27,28,28,30,30],"right_children":[2,4,6,8,10,12,14,16,18,20,22,24,26,28,30,32,34,36,38,40,42,44,-1,46,-1,48,50,52,54,-1,56,-1,-1,-1,-1,-1,-1,-1,-1,-1,-1,-1,-1,-1,-1,-1,-1,-1,-1,-1,-1,-1,-1,-1,-1,-1,-1],"split_conditions":[1.1E1,1.3711152E-3,2.1E1,7.6338534E0,1.6361584E1,9.249624E-4,2.2E1,5E0,1.3E1,5E0,8E0,1.6E1,1.3291929E1,2.3577074E-3,7.7341213E0,8E0,8E0,6E0,8.066835E0,1.3783892E1,6.707725E-2,7E0,-6.4385206E-2,9.777554E-4,6.854923E-2,1.6E1,5E0,5E0,1.9766811E-2,-6.037533E-2,7.7561955E0,-2.299179E-2,-6.269553E-2,-5.2551847E-2,-6.083535E-2,-5.755947E-2,-3.3369955E-2,-4.4945583E-2,3.9368644E-2,-4.9572725E-2,1.3685077E-2,-5.452996E-2,-2.5814911E-2,5.0840545E-3,8.6437546E-2,-5.0678797E-2,3.674236E-3,-3.1688973E-2,7.0688926E-2,5.493783E-2,3.380317E-2,-3.2074347E-2,-5.7386678E-2,-5.4873087E-2,3.5355236E-2,5.743763E-2,-6.165883E-2],"split_indices":[6,5,6,2,1,5,6,7,7,7,6,6,1,5,2,6,6,6,2,1,4,6,0,4,0,6,7,7,4,0,2,0,0,0,0,0,0,0,0,0,0,0,0,0,0,0,0,0,0,0,0,0,0,0,0,0,0],"split_type":[0,0,0,0,0,0,0,0,0,0,0,0,0,0,0,0,0,0,0,0,0,0,0,0,0,0,0,0,0,0,0,0,0,0,0,0,0,0,0,0,0,0,0,0,0,0,0,0,0,0,0,0,0,0,0,0,0],"sum_hessian":[2.6774867E4,6.583814E3,2.0191053E4,4.6314736E3,1.95234E3,1.8127656E4,2.0633975E3,3.9886338E3,6.4284E2,7.301185E2,1.2222214E3,8.979416E3,9.14824E3,5.7214905E2,1.4912485E3,3.6958582E2,3.619048E3,5.841119E2,5.8728146E1,9.898144E1,6.311371E2,1.100632E3,1.2158939E2,8.50002E3,4.79396E2,5.890948E2,8.5591455E3,5.235337E2,4.8615322E1,1.3918248E3,9.942373E1,2.6060388E2,1.0898195E2,2.6402725E3,9.7877545E2,1.539603E2,4.301516E2,1.3754032E1,4.4974113E1,2.9328264E1,6.9653175E1,4.7443234E2,1.5670474E2,1.0132009E3,8.74311E1,4.8000128E2,8.020018E3,5.302355E2,5.885932E1,3.0135093E3,5.545636E3,5.2163864E1,4.7136984E2,1.7592152E1,3.102317E1,6.6108003E0,9.281293E1],"tree_param":{"num_deleted":"0","num_feature":"8","num_nodes":"57","size_leaf_vector":"1"}},{"base_weights":[-1.3691289E-3,-1.0980151E0,4.0269846E-1,-1.1446458E0,-5.80509E-1,-4.8957694E-1,5.84845E-1,-1.1653296E0,-8.5543907E-1,-7.266311E-1,6.8026125E-2,-3.26159E-1,-6.293667E-2,6.920879E-1,-1.0728586E0,-1.1701406E0,-4.5982316E-1,-1.0350252E0,-4.9696016E-1,-4.3385215E-2,-8.185481E-1,-1.21129006E-1,6.4499277E-1,-9.595654E-1,-5.0604183E-2,5.116328E-1,9.5797527E-1,-1.1204473E0,-4.3032426E-1,-3.018235E-2,-5.862933E-2,-5.069801E-2,2.0630773E-2,-5.394996E-2,-9.223113E-3,-4.1551065E-2,-5.9426134E-3,-5.9314776E-2,2.6894182E-2,-5.6079086E-2,-3.192553E-2,3.9906573E-2,-1.790437E-2,1.5341828E-2,6.4914465E-2,-5.6445677E-2,-7.3805894E-3,4.514962E-2,-1.2136727E-2,4.756045E-2,1.8201549E-2,3.7981503E-2,5.274638E-2,-6.0114007E-2,-4.526099E-2,3.8158365E-2,-6.2352058E-2],"categories":[],"categories_nodes":[],"categories_segments":[],"categories_sizes":[],"default_left":[0,0,0,0,0,0,0,0,0,0,0,0,0,0,0,0,0,0,0,0,0,0,0,0,0,0,0,0,0,0,0,0,0,0,0,0,0,0,0,0,0,0,0,0,0,0,0,0,0,0,0,0,0,0,0,0,0],"id":24,"left_children":[1,3,5,7,9,11,13,15,17,19,21,23,-1,25,27,29,31,33,35,37,39,41,43,45,47,49,51,53,55,-1,-1,-1,-1,-1,-1,-1,-1,-1,-1,-1,-1,-1,-1,-1,-1,-1,-1,-1,-1,-1,-1,-1,-1,-1,-1,-1,-1],"loss_changes":[1.1670318E4,1.7045801E2,3.128172E3,3.790918E1,5.578804E1,4.0975964E2,2.84221E3,2.0055664E1,2.7674927E1,3.0116089E1,1.1981445E1,4.699417E2,0E0,7.198325E2,2.9226318E1,7.640625E0,2.1081356E1,1.0677795E1,1.8604027E1,3.9160343E1,2.2368225E1,1.836135E1,5.5856113E0,1.12072205E2,3.4420502E2,5.800437E2,1.1589551E2,1.4833008E1,6.783933E1,0E0,0E0,0E0,0E0,0E0,0E0,0E0,0E0,0E0,0E0,0E0,0E0,0E0,0E0,0E0,0E0,0E0,0E0,0E0,0E0,0E0,0E0,0E0,0E0,0E0,0E0,0E0,0E0],"parents":[2147483647,0,0,1,1,2,2,3,3,4,4,5,5,6,6,7,7,8,8,9,9,10,10,11,11,13,13,14,14,15,15,16,16,17,17,18,18,19,19,20,20,21,21,22,22,23,23,24,24,25,25,26,26,27,27,28,28],"right_children":[2,4,6,8,10,12,14,16,18,20,22,24,-1,26,28,30,32,34,36,38,40,42,44,46,48,50,52,54,56,-1,-1,-1,-1,-1,-1,-1,-1,-1,-1,-1,-1,-1,-1,-1,-1,-1,-1,-1,-1,-1,-1,-1,-1,-1,-1,-1,-1],"split_conditions":[4.7184987E0,4.3694477E0,1.1E1,3.8940203E-3,3.4173103E-3,8E0,2.1E1,9.855767E0,5.5570267E-2,3.295837E0,7.6063876E0,6E0,-6.293667E-2,3.3889044E-2,8.691147E0,1.0986123E0,8.417508E-4,4.248495E0,5.8998976E0,1.1E1,1.2628455E-4,5E0,1E1,3.8940203E-3,5E0,5E0,6.6883545E0,2.265372E-3,2.4E1,-3.018235E-2,-5.862933E-2,-5.069801E-2,2.0630773E-2,-5.394996E-2,-9.223113E-3,-4.1551065E-2,-5.9426134E-3,-5.9314776E-2,2.6894182E-2,-5.6079086E-2,-3.192553E-2,3.9906573E-2,-1.790437E-2,1.5341828E-2,6.4914465E-2,-5.6445677E-2,-7.3805894E-3,4.514962E-2,-1.2136727E-2,4.756045E-2,1.8201549E-2,3.7981503E-2,5.274638E-2,-6.0114007E-2,-4.526099E-2,3.8158365E-2,-6.2352058E-2],"split_indices":[3,3,6,5,5,6,6,2,4,2,2,6,0,4,3,2,5,3,2,6,5,7,7,5,7,7,3,5,6,0,0,0,0,0,0,0,0,0,0,0,0,0,0,0,0,0,0,0,0,0,0,0,0,0,0,0,0],"split_type":[0,0,0,0,0,0,0,0,0,0,0,0,0,0,0,0,0,0,0,0,0,0,0,0,0,0,0,0,0,0,0,0,0,0,0,0,0,0,0,0,0,0,0,0,0,0,0,0,0,0,0,0,0,0,0,0,0],"sum_hessian":[2.6334758E4,7.090179E3,1.9244578E4,6.5030034E3,5.8717535E2,3.2622441E3,1.5982334E4,6.066131E3,4.368728E2,4.791069E2,1.0806847E2,2.6917654E3,5.7047876E2,1.5011752E4,9.7058234E2,6.02439E3,4.1740635E1,2.8980353E2,1.4706927E2,5.6985912E1,4.22121E2,8.19814E1,2.6087063E1,8.152657E2,1.8764996E3,8.944282E3,6.0674697E3,9.029617E2,6.7620674E1,2.6964197E1,5.997426E3,2.542776E1,1.6312876E1,2.7530188E2,1.4501644E1,7.74467E1,6.9622574E1,1.8860632E1,3.812528E1,1.5537271E2,2.667483E2,1.6316122E1,6.5665276E1,1.815792E1,7.929142E0,6.742482E2,1.4101743E2,3.1405533E2,1.5624443E3,2.247E3,6.697282E3,1.9949773E3,4.0724924E3,6.50895E2,2.520666E2,2.7499884E1,4.0120792E1],"tree_param":{"num_deleted":"0","num_feature":"8","num_nodes":"57","size_leaf_vector":"1"}},{"base_weights":[3.9724405E-6,-1.0568016E0,3.9748645E-1,-1.1290729E0,-5.309668E-1,-4.5071098E-1,5.7047594E-1,-1.1572274E0,-8.599218E-1,-7.3552907E-1,-5.9672914E-2,-7.1591043E-1,6.227373E-2,6.726674E-1,-1.0374188E0,-1.1627394E0,-3.5749188E-1,-1.0522895E0,4.1772816E-1,-9.577358E-1,-2.9161972E-1,6.9350374E-1,-5.982217E-2,-5.860852E-1,-6.1802726E-2,2.3520859E-1,-6.260364E-2,4.8681238E-1,9.2913944E-1,-7.377897E-1,-1.1725228E0,-2.1177953E-2,-5.8297187E-2,-3.981237E-2,2.192524E-2,-5.7728987E-2,-3.8433492E-2,3.358783E-2,-2.6193107E-2,-6.327698E-2,-3.870667E-2,-4.8119858E-2,5.677914E-3,4.8909735E-2,-2.6189953E-2,-3.280666E-2,8.556338E-2,4.9857732E-2,1.4151861E-3,2.8744066E-2,-7.185819E-3,5.580896E-2,4.1058253E-2,-4.652051E-2,3.9422974E-2,-5.5006992E-2,-6.219501E-2],"categories":[],"categories_nodes":[],"categories_segments":[],"categories_sizes":[],"default_left":[0,0,0,0,0,0,0,0,0,0,0,0,0,0,0,0,0,0,0,0,0,0,0,0,0,0,0,0,0,0,0,0,0,0,0,0,0,0,0,0,0,0,0,0,0,0,0,0,0,0,0,0,0,0,0,0,0],"id":25,"left_children":[1,3,5,7,9,11,13,15,17,19,21,23,25,27,29,31,33,35,37,39,41,43,-1,45,-1,47,-1,49,51,53,55,-1,-1,-1,-1,-1,-1,-1,-1,-1,-1,-1,-1,-1,-1,-1,-1,-1,-1,-1,-1,-1,-1,-1,-1,-1,-1],"loss_changes":[1.0838372E4,2.674004E2,2.7513953E3,4.598047E1,8.229118E1,4.322234E2,2.559706E3,2.430957E1,1.4567953E2,5.8455017E1,2.2307526E2,1.406947E2,2.465795E2,6.975737E2,3.6825317E1,1.2700684E1,1.4262871E1,1.4021301E1,1.9019903E1,2.1420837E1,5.4484947E1,5.483943E1,0E0,2.7112787E2,0E0,1.5106287E2,0E0,4.7169897E2,1.2332471E2,8.659189E1,1.9381714E0,0E0,0E0,0E0,0E0,0E0,0E0,0E0,0E0,0E0,0E0,0E0,0E0,0E0,0E0,0E0,0E0,0E0,0E0,0E0,0E0,0E0,0E0,0E0,0E0,0E0,0E0],"parents":[2147483647,0,0,1,1,2,2,3,3,4,4,5,5,6,6,7,7,8,8,9,9,10,10,11,11,12,12,13,13,14,14,15,15,16,16,17,17,18,18,19,19,20,20,21,21,23,23,25,25,27,27,28,28,29,29,30,30],"right_children":[2,4,6,8,10,12,14,16,18,20,22,24,26,28,30,32,34,36,38,40,42,44,-1,46,-1,48,-1,50,52,54,56,-1,-1,-1,-1,-1,-1,-1,-1,-1,-1,-1,-1,-1,-1,-1,-1,-1,-1,-1,-1,-1,-1,-1,-1,-1,-1],"split_conditions":[4.8202815E0,4.3307333E0,1.1E1,2.7100272E-3,1.5E1,2.1368947E-3,2.1E1,9.855767E0,1.8561304E1,1.740644E-3,1.9E1,8E0,8E0,1.740644E-3,2.2E1,1.0986123E0,8.417508E-4,1.4783196E1,1.2E1,3.7012982E-5,1.622093E1,6.0684257E0,-5.982217E-2,7E0,-6.1802726E-2,5E0,-6.260364E-2,2.0982775E1,5E0,8.009695E0,2.4E1,-2.1177953E-2,-5.8297187E-2,-3.981237E-2,2.192524E-2,-5.7728987E-2,-3.8433492E-2,3.358783E-2,-2.6193107E-2,-6.327698E-2,-3.870667E-2,-4.8119858E-2,5.677914E-3,4.8909735E-2,-2.6189953E-2,-3.280666E-2,8.556338E-2,4.9857732E-2,1.4151861E-3,2.8744066E-2,-7.185819E-3,5.580896E-2,4.1058253E-2,-4.652051E-2,3.9422974E-2,-5.5006992E-2,-6.219501E-2],"split_indices":[3,3,6,5,6,5,6,2,1,5,6,6,6,5,6,2,5,1,6,5,1,2,0,6,0,7,0,1,7,3,6,0,0,0,0,0,0,0,0,0,0,0,0,0,0,0,0,0,0,0,0,0,0,0,0,0,0],"split_type":[0,0,0,0,0,0,0,0,0,0,0,0,0,0,0,0,0,0,0,0,0,0,0,0,0,0,0,0,0,0,0,0,0,0,0,0,0,0,0,0,0,0,0,0,0,0,0,0,0,0,0,0,0,0,0,0,0],"sum_hessian":[2.579986E4,7.0511016E3,1.8748758E4,6.1980825E3,8.53019E2,3.1757754E3,1.5572982E4,5.608144E3,5.899384E2,5.9444366E2,2.5857532E2,2.093234E3,1.0825416E3,1.4642918E4,9.300643E2,5.569305E3,3.8839066E1,5.1289197E2,7.70465E1,3.9537448E2,1.990692E2,1.557631E2,1.028122E2,1.6768322E3,4.1640167E2,9.573938E2,1.2514784E2,8.492003E3,6.1509146E3,2.910481E2,6.390162E2,2.461384E1,5.544691E3,2.503783E1,1.3801235E1,3.7468658E2,1.3820535E2,6.0902416E1,1.6144083E1,1.455207E2,2.4985376E2,7.444662E1,1.2462259E2,1.2639865E2,2.9364462E1,1.6279103E3,4.892179E1,2.0364247E2,7.5375134E2,7.4513286E3,1.0406744E3,2.2478008E3,3.903114E3,2.5877924E2,3.226887E1,3.2542273E2,3.1359348E2],"tree_param":{"num_deleted":"0","num_feature":"8","num_nodes":"57","size_leaf_vector":"1"}},{"base_weights":[-2.3135524E-3,-1.0719663E0,3.70859E-1,-1.1281883E0,-6.79442E-1,-4.5351535E-1,5.4331875E-1,-1.1527945E0,-8.9013714E-1,-1.0411365E-2,-7.684213E-1,-2.958205E-1,-6.148078E-2,6.423595E-1,-1.039719E0,-1.1633904E0,-1.0642195E0,-1.0894209E0,3.9766532E-1,-6.898958E-1,3.9633515E-1,-9.1709256E-1,-4.2037493E-1,-9.314731E-1,-2.6391832E-2,4.5716384E-1,9.076538E-1,-7.661492E-1,-1.1606653E0,-5.645069E-2,-5.8940332E-2,2.4053627E-3,-5.4623682E-2,-5.7731267E-2,-4.0920284E-2,-4.629509E-2,2.767985E-2,2.8255945E-2,-4.619773E-2,9.4542146E-2,7.7275983E-3,-5.106452E-2,-3.0710934E-2,-3.7517544E-2,1.4995927E-2,-1.8678373E-2,-5.801524E-2,-6.4237225E-3,7.973393E-2,4.46169E-2,1.5908808E-2,1.6903619E-3,4.661439E-2,-4.6250995E-2,4.8294555E-2,-5.4653864E-2,-6.1377585E-2],"categories":[],"categories_nodes":[],"categories_segments":[],"categories_sizes":[],"default_left":[0,0,0,0,0,0,0,0,0,0,0,0,0,0,0,0,0,0,0,0,0,0,0,0,0,0,0,0,0,0,0,0,0,0,0,0,0,0,0,0,0,0,0,0,0,0,0,0,0,0,0,0,0,0,0,0,0],"id":26,"left_children":[1,3,5,7,9,11,13,15,17,19,21,23,-1,25,27,29,31,33,35,37,39,41,43,45,47,49,51,53,55,-1,-1,-1,-1,-1,-1,-1,-1,-1,-1,-1,-1,-1,-1,-1,-1,-1,-1,-1,-1,-1,-1,-1,-1,-1,-1,-1,-1],"loss_changes":[1.0034286E4,1.4271631E2,2.649816E3,3.227832E1,4.8633636E1,3.9430847E2,2.417146E3,3.5952148E0,1.3825632E2,2.7062426E1,3.6930878E1,4.5922052E2,0E0,7.122739E2,2.9150085E1,1.1010742E0,1.7713013E1,7.278137E0,1.5516861E1,1.1291077E1,2.184688E1,1.5293182E1,5.196714E1,1.0147223E2,3.1202493E2,5.165199E2,1.2831445E2,7.829051E1,1.4953003E0,0E0,0E0,0E0,0E0,0E0,0E0,0E0,0E0,0E0,0E0,0E0,0E0,0E0,0E0,0E0,0E0,0E0,0E0,0E0,0E0,0E0,0E0,0E0,0E0,0E0,0E0,0E0,0E0],"parents":[2147483647,0,0,1,1,2,2,3,3,4,4,5,5,6,6,7,7,8,8,9,9,10,10,11,11,13,13,14,14,15,15,16,16,17,17,18,18,19,19,20,20,21,21,22,22,23,23,24,24,25,25,26,26,27,27,28,28],"right_children":[2,4,6,8,10,12,14,16,18,20,22,24,-1,26,28,30,32,34,36,38,40,42,44,46,48,50,52,54,56,-1,-1,-1,-1,-1,-1,-1,-1,-1,-1,-1,-1,-1,-1,-1,-1,-1,-1,-1,-1,-1,-1,-1,-1,-1,-1,-1,-1],"split_conditions":[4.6634393E0,4.1743875E0,1.1E1,2.65625E-3,5E0,8E0,2.1E1,1.4266587E1,1.2301388E1,7E0,1.27189E1,6E0,-6.148078E-2,3.2142233E-2,2.2E1,8E0,1.4304091E1,9.561068E0,6E0,1E0,8E0,1.5E1,1.7747451E-3,5E0,7E0,5E0,6.672033E0,4.23642E-2,2.4E1,-5.645069E-2,-5.8940332E-2,2.4053627E-3,-5.4623682E-2,-5.7731267E-2,-4.0920284E-2,-4.629509E-2,2.767985E-2,2.8255945E-2,-4.619773E-2,9.4542146E-2,7.7275983E-3,-5.106452E-2,-3.0710934E-2,-3.7517544E-2,1.4995927E-2,-1.8678373E-2,-5.801524E-2,-6.4237225E-3,7.973393E-2,4.46169E-2,1.5908808E-2,1.6903619E-3,4.661439E-2,-4.6250995E-2,4.8294555E-2,-5.4653864E-2,-6.1377585E-2],"split_indices":[3,3,6,5,7,6,6,0,0,6,0,6,0,4,6,6,0,0,6,7,6,6,5,6,6,7,0,4,6,0,0,0,0,0,0,0,0,0,0,0,0,0,0,0,0,0,0,0,0,0,0,0,0,0,0,0,0],"split_type":[0,0,0,0,0,0,0,0,0,0,0,0,0,0,0,0,0,0,0,0,0,0,0,0,0,0,0,0,0,0,0,0,0,0,0,0,0,0,0,0,0,0,0,0,0,0,0,0,0,0,0,0,0,0,0,0,0],"sum_hessian":[2.5136193E4,6.5007446E3,1.863545E4,5.684649E3,8.1609564E2,3.2237893E3,1.5411659E4,5.148616E3,5.3603284E2,9.592885E1,7.2016675E2,2.680519E3,5.4327026E2,1.4504779E4,9.0687946E2,4.5876763E3,5.609395E2,4.643327E2,7.170011E1,3.5660534E1,6.026832E1,5.0346988E2,2.166969E2,7.972175E2,